{"type":"NeuralNetwork","sizes":[125,50,30,8,4],"layers":[{"weights":[],"biases":[]},{"weights":[[2.0722010135650635,-0.14786206185817719,-0.9068980813026428,-0.15689411759376526,-1.0409131050109863,0.3813170790672302,1.1906859874725342,-1.0259987115859985,-0.06621064245700836,-0.7386371493339539,-0.04968635365366936,-0.6594184041023254,0.445939838886261,-0.03182188421487808,0.2296553999185562,1.0510573387145996,-1.8040955066680908,0.05985933542251587,-0.1519649177789688,0.7740063667297363,1.5037437677383423,0.9429435729980469,-0.5431071519851685,0.11134573072195053,-2.3369147777557373,-0.34505629539489746,0.5341451168060303,-0.551557719707489,0.11157137900590897,0.45206692814826965,-0.26064708828926086,0.11147665232419968,-0.20875544846057892,-0.032856740057468414,0.41993448138237,-0.3104085326194763,-0.411935418844223,0.4107666611671448,-0.15485262870788574,0.22137904167175293,-0.5808437466621399,-1.8901281356811523,1.347049355506897,0.10189225524663925,0.9734699130058289,1.1959214210510254,0.9202120304107666,0.6730433106422424,-0.14778828620910645,-2.5185210704803467,-0.30137667059898376,-0.20669816434383392,0.27878376841545105,-0.024691687896847725,-0.0839986503124237,-0.49816644191741943,0.45327550172805786,-0.14564383029937744,0.11916542053222656,0.39521145820617676,-1.100284218788147,-0.4145549237728119,0.9116448760032654,-0.10756562650203705,0.3407823145389557,0.2649318277835846,-1.905967354774475,0.7068932056427002,0.07626303285360336,0.8704190850257874,0.9056320786476135,2.162485122680664,-1.0559163093566895,-0.14512354135513306,-2.0272908210754395,-0.5509470701217651,-0.46066150069236755,-0.5246138572692871,0.03310893848538399,1.159452199935913,-0.28633707761764526,-0.8540868163108826,0.13814668357372284,0.08540079742670059,1.039717674255371,-0.6897587776184082,-0.8395699858665466,1.0772942304611206,-0.0664387121796608,0.6227961182594299,0.24643005430698395,-2.7778093814849854,0.6748069524765015,0.0053989519365131855,1.552610993385315,1.6428918838500977,2.359306812286377,-2.214016914367676,-0.17284098267555237,-1.9010868072509766,-0.5711713433265686,1.9993609189987183,-0.7584260702133179,-0.14311009645462036,-0.6603463888168335,-1.140791654586792,2.2076516151428223,-0.3143773376941681,-0.07989253103733063,-0.8821223974227905,-0.7882472276687622,-0.4119163453578949,0.9939370155334473,-0.017839420586824417,0.13872495293617249,0.4260309040546417,-1.6431348323822021,0.3498535752296448,-0.17626872658729553,0.9548260569572449,0.6962072849273682,2.149280309677124,-0.6244746446609497,0.05724049359560013,-2.29121994972229],[-0.036197833716869354,0.09503629803657532,0.147772878408432,-0.11099234968423843,0.4537840485572815,0.04572967812418938,-0.22432635724544525,0.310879111289978,0.18685738742351532,0.5922399759292603,0.14436978101730347,-0.26776590943336487,0.1330769807100296,-0.04847800359129906,0.6182724833488464,0.09495808184146881,-0.3162470757961273,0.38454920053482056,-0.10440680384635925,0.14359501004219055,0.5994729995727539,-0.24289622902870178,0.1961868703365326,0.1777789443731308,0.5072494149208069,-0.43157732486724854,0.4516586661338806,-0.1971312165260315,-0.14573748409748077,0.16190728545188904,0.19614169001579285,0.07795768976211548,-0.30638954043388367,0.14963950216770172,0.7163125276565552,-0.2725108861923218,-0.25238165259361267,0.19766958057880402,0.09050817042589188,0.9832801222801208,-0.21539722383022308,-0.16571402549743652,-0.14594538509845734,-0.1682111620903015,0.5644829869270325,0.0947437658905983,0.28402212262153625,-0.24323759973049164,-0.1924140900373459,0.04123121500015259,0.04338504746556282,-0.0536203533411026,0.24967055022716522,0.0556938610970974,0.1352447122335434,0.2261844128370285,0.004387804307043552,0.1984204202890396,0.06406088918447495,-0.007339194882661104,0.402065247297287,0.6508818864822388,0.1497199386358261,0.15906429290771484,-0.6287130117416382,0.07013756781816483,0.5036680698394775,-0.5400937795639038,0.034818023443222046,0.6702584028244019,-0.057891178876161575,-0.10571353882551193,0.04554037004709244,0.02366979606449604,0.3762330412864685,-0.3577890396118164,0.5117045640945435,0.2806125581264496,-0.0683261901140213,0.07246623933315277,-0.37091732025146484,-0.02871863916516304,-0.2165900617837906,-0.005233834497630596,1.3179175853729248,0.04264577850699425,-0.6934009194374084,-0.30480918288230896,-0.11773769557476044,1.6193615198135376,0.1361234337091446,-0.5966922640800476,-0.7432647943496704,-0.1848817765712738,1.8116071224212646,-0.09124530851840973,0.6076862812042236,-0.11331638693809509,0.05562419816851616,0.38740113377571106,-0.2008984237909317,0.4582836627960205,0.23271256685256958,-0.09009107947349548,-0.13704219460487366,0.07666977494955063,-0.042055387049913406,0.6334051489830017,0.1025782898068428,0.03841165080666542,0.07618797570466995,-0.10260427743196487,0.6926794648170471,-0.17809638381004333,-0.6003486514091492,0.32560455799102783,0.26060518622398376,0.5723894834518433,-0.13148513436317444,-0.7693672180175781,-0.2382010966539383,0.08594915270805359,0.08565419167280197,-0.07883679121732712,0.24505266547203064],[-0.01938304677605629,-0.34639275074005127,-0.10024020820856094,0.19840073585510254,-0.14223603904247284,-0.7194539904594421,0.3197650909423828,0.11383245885372162,0.13057471811771393,-0.4781339466571808,-0.5387575030326843,0.528595507144928,0.06732907891273499,-0.19779691100120544,-0.01081217173486948,-1.282875657081604,0.9127109050750732,0.602750301361084,-0.17671583592891693,-0.6689639687538147,-1.429492473602295,1.9302377700805664,0.2915036380290985,0.12094473093748093,-0.9707176685333252,0.3917086124420166,-0.5120248198509216,0.12194324284791946,-0.18601112067699432,-0.41980716586112976,-0.4928622543811798,-0.19431300461292267,-0.48876953125,-0.045582354068756104,0.6768044829368591,0.4400961399078369,0.08801522105932236,0.5083407759666443,0.10414823144674301,-1.1821147203445435,-0.5799117684364319,0.27466392517089844,1.5712611675262451,-0.14668183028697968,-1.566224455833435,-1.3949346542358398,0.6936070919036865,0.8609234094619751,-0.1390664428472519,-0.9238059520721436,0.03149982914328575,-0.5553050637245178,-0.3067786395549774,-0.06618060916662216,0.4146326184272766,-0.8705390095710754,-0.2855473458766937,0.0533541776239872,0.07777245342731476,0.6800714731216431,-0.2580808997154236,-0.8836829662322998,0.7250924706459045,0.15247446298599243,-0.1134328544139862,1.249512791633606,0.6115926504135132,-0.5633184909820557,0.1926928162574768,-1.684064269065857,-0.9901633262634277,0.7422990798950195,0.19676721096038818,0.1441485583782196,-0.7150482535362244,0.4359647333621979,0.028366373851895332,-0.7192210555076599,-0.17380404472351074,-0.22591497004032135,0.5784968733787537,0.33947786688804626,-0.1472855806350708,-0.1829281896352768,-1.2022517919540405,0.2545391023159027,-0.2141268253326416,0.8836578726768494,-0.19359377026557922,-1.0075314044952393,0.32431864738464355,0.1824348121881485,-0.08474116772413254,-0.12358855456113815,-0.835853636264801,-1.065299391746521,0.20404890179634094,0.5825854539871216,0.19405262172222137,-0.2879290282726288,1.2327642440795898,-1.4059529304504395,0.43381384015083313,0.002590662334114313,-0.8651891350746155,0.6604387760162354,-1.0920454263687134,0.5186586380004883,-0.04291421175003052,-0.8520467877388,0.6202396154403687,-1.2809593677520752,0.7550607919692993,0.09528567641973495,-0.32606077194213867,0.5347906947135925,-0.7048423290252686,0.034674834460020065,0.12502457201480865,-0.6589224338531494,-0.2071811407804489,0.1148671954870224,-0.2752121686935425,-0.05783228203654289,-0.7701109051704407],[2.0059497356414795,-0.2376123070716858,-1.094158411026001,-0.12326297909021378,-0.8781402707099915,2.928359270095825,-2.0064339637756348,-0.7157908082008362,0.1350974142551422,-0.23849861323833466,2.380497455596924,-2.0966060161590576,-1.0110881328582764,0.0024794654455035925,0.44543835520744324,2.3226730823516846,-1.4616690874099731,-1.162210464477539,0.03791949898004532,-0.33472225069999695,2.0555717945098877,-1.4532535076141357,-0.8515218496322632,-0.17474837601184845,-0.10774928331375122,0.4806724786758423,1.177166223526001,-1.2781343460083008,0.0798654556274414,-0.3545551002025604,-0.0842500776052475,-0.6930750608444214,0.05329379811882973,-0.18223989009857178,0.17181606590747833,0.9749636054039001,-0.4648469090461731,-0.5716457366943359,-0.08351116627454758,-0.7214635610580444,0.23979876935482025,-0.3225180506706238,-0.23364369571208954,-0.18669958412647247,-0.24463479220867157,0.36543306708335876,0.6955457925796509,-1.0583570003509521,-0.04852749779820442,-0.1535649299621582,-1.0158462524414062,1.7035044431686401,-1.0275640487670898,-0.049521297216415405,-0.5197473168373108,-1.0546820163726807,-0.36384761333465576,1.0415911674499512,0.06599176675081253,-0.14291466772556305,0.754264235496521,-0.14769506454467773,-1.1651703119277954,0.033235449343919754,0.1312454789876938,-0.6751189231872559,-0.5414379239082336,-0.33101028203964233,0.3023555278778076,0.6384415626525879,-0.31182464957237244,1.1923489570617676,-1.099972128868103,0.05848195031285286,-0.17103275656700134,-0.277734637260437,0.06752826273441315,-0.46107304096221924,-0.1268785446882248,0.01611834578216076,-1.8625891208648682,-0.5868232846260071,0.6944795250892639,0.005133793223649263,1.5779362916946411,-0.04881173372268677,0.7773027420043945,-0.31865835189819336,0.005324609577655792,-1.1360950469970703,-0.08391828089952469,-1.6116429567337036,0.9220364689826965,0.08067990839481354,0.03152719512581825,-0.8443886637687683,1.595601201057434,-0.20836660265922546,0.024362612515687943,-0.7268108129501343,-0.7244437336921692,1.8125989437103271,-0.6127220988273621,0.019939057528972626,-0.8903688192367554,-1.2740046977996826,0.5712693333625793,0.3896348178386688,-0.025035833939909935,-0.35573193430900574,1.0180573463439941,1.6185132265090942,-0.9189442992210388,-0.06448023021221161,-2.0593788623809814,-1.5058265924453735,0.6225572228431702,-0.773059606552124,-0.15793205797672272,1.2493276596069336,-1.3146781921386719,-0.4966534376144409,-0.2930402457714081,0.14487290382385254,1.2249833345413208],[0.7440633177757263,1.4029202461242676,-1.218276023864746,-0.12481789290904999,-1.5705090761184692,-1.4319263696670532,-1.8245874643325806,1.331148624420166,-0.19150742888450623,1.234520435333252,1.1070752143859863,0.7309004664421082,-1.3539984226226807,-0.18224136531352997,-1.1710344552993774,-0.6886350512504578,-2.3969907760620117,1.2967652082443237,-0.09016533941030502,1.322884202003479,2.2561967372894287,0.43029069900512695,-1.0808210372924805,-0.16039608418941498,-1.8095887899398804,1.134795904159546,1.3861253261566162,-1.6149646043777466,-0.008849555626511574,-1.6701675653457642,-1.637213110923767,-1.9806960821151733,2.2068262100219727,0.040939297527074814,1.2140846252441406,1.2311902046203613,1.1185860633850098,-1.668247938156128,0.1140391156077385,-1.0172368288040161,-0.8463756442070007,-2.67747163772583,1.5172853469848633,0.050024233758449554,1.503562092781067,1.5464586019515991,0.5017037391662598,-1.5643614530563354,0.03107788786292076,-1.2257682085037231,-0.597574770450592,2.714365005493164,-1.2999935150146484,0.170242577791214,-1.0923538208007812,-2.8336904048919678,-0.7722827196121216,1.841386079788208,0.1778479665517807,1.405218243598938,0.1995086967945099,2.4559409618377686,-1.810128092765808,-0.24055276811122894,-1.13447105884552,-2.6928369998931885,-1.6410529613494873,2.2426042556762695,-0.2552559971809387,1.7783437967300415,0.9338407516479492,1.5716220140457153,-1.1562366485595703,-0.1523391604423523,-1.7231312990188599,0.11262517422437668,0.28411149978637695,-0.1996496170759201,0.030537676066160202,-0.49596744775772095,-1.735742211341858,-1.5012863874435425,1.7673269510269165,-0.17590782046318054,1.09220290184021,0.5322274565696716,2.321493625640869,-2.38901948928833,0.19487743079662323,-0.889884352684021,-1.4330006837844849,-2.231957197189331,1.860814094543457,0.13045936822891235,1.4630903005599976,-0.018303701654076576,1.3528202772140503,-0.5129250288009644,-0.17197507619857788,-0.8544673919677734,0.28340935707092285,0.11489137262105942,-0.2236218899488449,-0.1500931680202484,-0.4157388508319855,-1.3209246397018433,-0.5395429134368896,0.5721926093101501,-0.1997717320919037,1.1254777908325195,0.4474885165691376,0.9842875599861145,-1.567649006843567,0.14156986773014069,-0.23581817746162415,-0.9873515963554382,-1.623826503753662,0.9871658086776733,0.05680064857006073,1.0189759731292725,0.6842654943466187,-0.7109078764915466,0.3219229280948639,0.13198620080947876,-0.33328503370285034],[-0.08722106367349625,-1.8639922142028809,1.4026410579681396,-0.18570980429649353,0.02767607383430004,0.00612593675032258,-1.5940278768539429,1.344743013381958,0.023076608777046204,-0.3913559317588806,0.4940126836299896,-1.483345627784729,2.032560348510742,0.15574149787425995,-1.0936436653137207,-0.014538506977260113,-1.8873908519744873,2.1299047470092773,-0.16016706824302673,-0.6460331678390503,0.46086031198501587,-1.3558733463287354,0.724821150302887,0.04875292629003525,0.03267938643693924,0.0017145093297585845,-0.17241732776165009,0.36699825525283813,-0.14852024614810944,-0.5105805993080139,-0.22819361090660095,-0.39371657371520996,0.16196615993976593,-0.09592866152524948,-0.30662980675697327,0.2110448032617569,0.6185385584831238,0.22372817993164062,0.05122506991028786,-1.3314779996871948,-0.3299045264720917,-0.4173932671546936,0.8352055549621582,0.17710700631141663,-0.5528455972671509,0.13506709039211273,-0.6615463495254517,-0.24837477505207062,0.13602501153945923,0.48919644951820374,-0.5974507331848145,0.13963687419891357,0.21937018632888794,0.17692820727825165,-0.008146322332322598,-0.8601426482200623,0.34236955642700195,0.4785914421081543,-0.05135776102542877,-0.24618926644325256,-0.1708504855632782,0.17608709633350372,0.16517239809036255,-0.17766021192073822,-0.1272905021905899,-0.3741574287414551,1.207326054573059,-0.5935682058334351,-0.10767780244350433,-0.4674939513206482,0.022160325199365616,0.47760769724845886,-0.5915858745574951,-0.13762350380420685,-0.22609283030033112,-0.33485889434814453,0.31263646483421326,0.03573319688439369,0.1746387779712677,-0.10253863036632538,-0.6331210136413574,1.0258561372756958,-0.33064383268356323,-0.1314326673746109,-0.6680071353912354,-0.46382004022598267,1.1072574853897095,-0.3854604661464691,0.11308080703020096,-0.37459906935691833,-0.2614996135234833,0.12409181147813797,-0.36362937092781067,-0.2061627209186554,0.23806746304035187,-0.1369955986738205,0.9805697798728943,-0.357231080532074,0.02327311411499977,-0.805256187915802,-1.0532588958740234,1.033756971359253,-0.05086838826537132,-0.13400374352931976,-0.263763964176178,-0.9356544613838196,0.6542576551437378,0.045865900814533234,-0.10944230854511261,-0.45198431611061096,-0.6532689929008484,0.9254439473152161,0.222805455327034,-0.052182141691446304,-0.5028063058853149,-0.6945700645446777,1.1683298349380493,-0.7137818932533264,0.07935234904289246,-0.29195231199264526,-0.39861825108528137,0.47966268658638,-0.18113009631633759,-0.07352149486541748,-0.48746928572654724],[1.3239140510559082,0.07552166283130646,-0.60760098695755,0.17332497239112854,-1.0233311653137207,-1.0350611209869385,1.5948725938796997,-0.22226612269878387,-0.020968662574887276,-0.29349714517593384,-1.7794387340545654,0.687154233455658,0.4335699677467346,-0.009810770861804485,0.4817860722541809,-1.1528955698013306,-0.38173994421958923,0.21715758740901947,0.03479457274079323,0.9031379818916321,-1.0629409551620483,0.027303459122776985,-0.17761428654193878,0.038099050521850586,0.9861109852790833,1.8385273218154907,-2.193251371383667,-0.3967925012111664,-0.02620251476764679,-0.09520476311445236,-0.006096044089645147,0.06864664703607559,0.04707028344273567,-0.02781311608850956,-0.23139171302318573,-1.0767438411712646,1.1872977018356323,-0.2784067988395691,0.19590412080287933,-0.15072377026081085,-0.6188518404960632,-0.06793611496686935,-0.6128255724906921,0.08842267841100693,1.1497339010238647,-1.0600172281265259,1.2867250442504883,-1.5966638326644897,0.18429942429065704,1.5736838579177856,2.1071414947509766,-2.2911128997802734,0.026563243940472603,-0.02306581288576126,-0.008860242553055286,-0.708533763885498,0.3739227056503296,0.27015987038612366,-0.06475621461868286,0.0997171700000763,-0.5938510894775391,-1.074358344078064,1.291440486907959,0.1394968032836914,0.09515396505594254,0.599535346031189,-1.0312246084213257,-0.2596043646335602,0.2123856395483017,0.6945016384124756,-0.8620063066482544,0.9439830780029297,-0.4483772814273834,0.015195122919976711,0.49959543347358704,2.8004627227783203,-2.907169818878174,0.011500202119350433,-0.14706648886203766,0.1596517264842987,1.2379668951034546,-0.2583245635032654,-0.7743106484413147,0.07759495079517365,-0.503935694694519,0.6950622200965881,-0.1933600902557373,0.6143601536750793,0.12127502262592316,-1.4850115776062012,-1.2254917621612549,2.6406211853027344,-0.5878071188926697,-0.1836530715227127,-1.0965343713760376,-1.9121241569519043,-0.02269396372139454,2.059657335281372,0.2257789671421051,-0.11294679343700409,2.0367977619171143,-1.2678654193878174,-0.14800557494163513,0.16401849687099457,-1.0704662799835205,-0.785834014415741,1.0269159078598022,0.16260631382465363,0.10821046680212021,-0.800537109375,-1.492620825767517,0.12247142195701599,1.6665637493133545,-0.0873863622546196,-0.36920949816703796,-1.3617953062057495,0.27100589871406555,-0.25268232822418213,0.010875008068978786,1.0756275653839111,-1.753848671913147,1.9953428506851196,0.8528120517730713,-0.1875964105129242,-1.054478406906128],[3.9752657413482666,-1.9413000345230103,-1.225882887840271,0.14551226794719696,-1.3071633577346802,2.2758500576019287,-1.05165433883667,-0.822340190410614,0.09346728771924973,-1.0797767639160156,0.824406623840332,1.4005557298660278,-1.1936455965042114,0.06761079281568527,-1.309016466140747,-2.7867658138275146,2.725487232208252,-0.2286360263824463,-0.06502808630466461,-0.2035692185163498,-1.907813310623169,-0.6762526035308838,1.4242045879364014,0.15792272984981537,0.8853304386138916,4.295127868652344,-2.9362926483154297,-0.3700873851776123,-0.0331888347864151,-1.3238390684127808,1.6515858173370361,0.11360538005828857,-1.060088038444519,0.1380358636379242,-0.9157307744026184,-1.8267775774002075,2.0752599239349365,-1.124809980392456,-0.01641969196498394,0.1477782428264618,-2.829988479614258,0.20772959291934967,0.7894725203514099,0.09399935603141785,1.3277828693389893,-1.8313010931015015,-0.8437093496322632,1.0174199342727661,-0.08058004826307297,0.6695950627326965,4.272699356079102,-3.4680984020233154,-0.805896520614624,0.11208424717187881,-0.7236160635948181,1.3916853666305542,0.32865676283836365,-0.6152647733688354,0.14250651001930237,-1.6139987707138062,-1.9969117641448975,2.8819010257720947,-0.6118547320365906,-0.03360047936439514,-0.728011965751648,-2.4913933277130127,-1.0884613990783691,1.705253005027771,-0.10438448935747147,1.3581980466842651,-1.6979827880859375,-0.9813092947006226,0.7963662147521973,0.12322556972503662,1.48922598361969,3.7137579917907715,-2.9920289516448975,-0.6261664032936096,0.11249139904975891,-1.103532075881958,1.3309907913208008,0.2074740082025528,-0.472404420375824,0.013542882166802883,-1.84726083278656,-1.3149096965789795,1.9645531177520752,-1.1433528661727905,-0.08436395227909088,-0.2406938225030899,-3.4107918739318848,1.8030219078063965,0.21091607213020325,-0.018132543191313744,0.8841924071311951,-1.7961698770523071,-1.3016836643218994,1.166268229484558,-0.02319270931184292,1.6656941175460815,2.8581461906433105,-0.9697986841201782,-0.8455286026000977,-0.08251888304948807,-1.1391757726669312,1.5201973915100098,0.47797447443008423,-0.8742736577987671,-0.1480325311422348,-1.6437015533447266,-2.4807515144348145,2.7737557888031006,-0.9633698463439941,-0.013559000566601753,-0.005992633290588856,-3.735226631164551,1.8749091625213623,0.14051306247711182,0.003975946921855211,0.9464914798736572,-2.508885383605957,-0.5751181840896606,1.1493459939956665,0.03645768389105797,1.54205322265625],[1.0688204765319824,0.582538902759552,-0.7242738604545593,0.04571109265089035,-1.1840016841888428,0.596362829208374,-0.3521105945110321,-0.8581709861755371,-0.03522590920329094,0.9011673331260681,0.7789977192878723,-0.9648736715316772,-0.5113488435745239,-0.17197777330875397,0.40180090069770813,0.9606884121894836,-0.9304633736610413,0.3294084370136261,0.05249859765172005,-0.5299758315086365,0.8283631801605225,-0.7056493759155273,-0.33572280406951904,-0.09607026726007462,-0.4161258041858673,-0.20558582246303558,1.1507245302200317,-0.48125627636909485,-0.17473050951957703,-0.9309824705123901,-0.034242816269397736,-0.8916475176811218,0.10710899531841278,0.12711398303508759,0.5612569451332092,0.02074982039630413,-0.6019285917282104,0.6454634666442871,-0.12249790132045746,-0.316275954246521,0.49807432293891907,-0.5084062218666077,0.4680231809616089,0.09279891848564148,-0.6093129515647888,0.03747693821787834,-0.49699628353118896,-0.06281426548957825,-0.009049941785633564,0.25774863362312317,-0.26267290115356445,1.3777451515197754,-0.48667290806770325,0.11021658033132553,-0.7615160942077637,0.3612889051437378,-0.8086075186729431,-0.6096275448799133,-0.11948075145483017,0.8387095928192139,0.0886828750371933,-1.0369645357131958,0.11419851332902908,0.04320646449923515,0.3962272107601166,0.4012695252895355,-0.6781478524208069,-0.0893300324678421,0.05503946915268898,0.3414582908153534,0.36276841163635254,-0.8172425031661987,-0.44876325130462646,-0.13847284018993378,0.5342786312103271,-1.0659229755401611,1.4758665561676025,-0.12952688336372375,0.001622125506401062,-0.816303551197052,1.373291254043579,-0.4812242388725281,-0.7764869928359985,-0.02998272143304348,-0.6049695014953613,1.926285982131958,-0.3697870373725891,-1.3305846452713013,-0.15024368464946747,-0.25325918197631836,0.4606817066669464,-0.49230247735977173,-0.36842256784439087,0.18528956174850464,0.6168156862258911,0.9034091830253601,-0.21036125719547272,-0.5683395862579346,0.12059886008501053,-0.11194214969873428,-1.6401151418685913,0.21339063346385956,0.1779777705669403,0.09356262534856796,0.801311731338501,-1.3036887645721436,1.6059763431549072,-0.08977676182985306,-0.005874854978173971,-0.14777590334415436,-0.8587102293968201,1.5515772104263306,0.10499201714992523,0.1344217211008072,-1.1747905015945435,-0.2361723631620407,0.5690386295318604,0.9402573108673096,0.04809985309839249,-1.2575541734695435,-0.03958958387374878,1.4620893001556396,-0.25709855556488037,-0.10397551953792572,-1.1875430345535278],[-0.31234681606292725,-0.4540703296661377,0.06706017255783081,0.010365006513893604,0.2610739767551422,-1.3765594959259033,0.7755462527275085,0.11990011483430862,-0.022381901741027832,-0.10643405467271805,-3.580697536468506,3.4744069576263428,-0.8258305788040161,0.029172202572226524,0.49460238218307495,0.7339438796043396,-0.9165995121002197,-1.3707523345947266,-0.16159942746162415,0.942166805267334,-1.6551859378814697,1.972100019454956,-0.9484949111938477,0.01150504034012556,0.13511845469474792,1.4732483625411987,-1.3057533502578735,-0.5952340364456177,-0.12523294985294342,0.028164466843008995,0.9128474593162537,-1.2681608200073242,0.13209518790245056,0.07409082353115082,-0.31620505452156067,-2.8037021160125732,3.8827507495880127,-0.9580525755882263,0.11318673938512802,-0.5550082921981812,2.859955310821533,-0.43674907088279724,-3.06553053855896,0.054596759378910065,0.3579815626144409,0.9040442109107971,1.3537869453430176,-1.2048953771591187,0.1642378270626068,-1.768129825592041,1.0157451629638672,-0.7271293997764587,-0.47840988636016846,0.09382006525993347,-0.3072633445262909,1.9485763311386108,-1.2508589029312134,-0.45577272772789,0.008069509640336037,-0.6156178116798401,-1.2750296592712402,2.946146249771118,-0.20389293134212494,0.08205687999725342,-1.6802971363067627,1.375045895576477,-1.738055944442749,-0.5757430195808411,-0.07703067362308502,0.7011096477508545,0.9231642484664917,-1.8369371891021729,1.2996364831924438,0.07472201436758041,-0.5090758204460144,-0.005856214556843042,-1.0168170928955078,0.1710001677274704,-0.14314080774784088,0.4323046803474426,-0.6586565971374512,-1.1770037412643433,0.7052276730537415,0.026241537183523178,0.7923262715339661,-1.1421639919281006,0.39764952659606934,-0.0622854046523571,-0.005586361978203058,0.07108637690544128,1.206963300704956,-1.0434255599975586,-0.3002276122570038,0.07164908945560455,-0.3750862181186676,0.8024048805236816,0.05962464213371277,-1.0173224210739136,-0.03303323686122894,-0.14934076368808746,-0.17983217537403107,-0.4975277781486511,-0.038697678595781326,0.14472106099128723,0.2774403691291809,-0.410262793302536,-0.0941697210073471,0.04580463096499443,0.10260460525751114,0.265841543674469,-0.43047818541526794,0.09404216706752777,-0.3700619339942932,-0.01480675395578146,0.45114850997924805,0.0009880376746878028,-0.6457983255386353,-0.3632965087890625,-0.1521262526512146,0.4583190381526947,-0.0956757441163063,-0.07200546562671661,0.013618518598377705,0.0783144161105156,-0.36692818999290466],[1.3964885473251343,-0.5336460471153259,-0.6124387979507446,-0.15371859073638916,-0.22020323574543,0.5984349846839905,-0.5482428669929504,-0.6306484341621399,0.17573541402816772,0.03221486881375313,2.2120938301086426,-0.6921043992042542,-0.8368052840232849,-0.004716794937849045,-0.954927384853363,2.610191822052002,-0.4552845060825348,-1.4169223308563232,-0.16066141426563263,-1.0027331113815308,0.9396136999130249,-0.6932377815246582,-0.6645012497901917,0.19923779368400574,0.10560967028141022,1.5322482585906982,-1.1529481410980225,-0.6225920915603638,-0.12520582973957062,-0.16895893216133118,1.1136741638183594,-1.5633151531219482,-0.36344781517982483,-0.06976267695426941,0.6785153746604919,0.8635615706443787,0.017688537016510963,-0.9895912408828735,-0.15745845437049866,-0.02622837945818901,2.449176788330078,0.8770129680633545,-2.197859287261963,-0.1397331804037094,-1.2244445085525513,0.246259406208992,-0.8343676924705505,-0.7646151781082153,0.03943775221705437,0.6582171320915222,0.11977255344390869,0.6779886484146118,-0.9197803139686584,-0.19089476764202118,-0.48224472999572754,-1.093647837638855,-0.36809274554252625,0.3303743302822113,0.011878457851707935,0.41449597477912903,-0.8610624670982361,0.3012595772743225,-0.009286114014685154,0.15699855983257294,0.06225050985813141,0.029438691213726997,1.4629461765289307,-1.9492933750152588,0.14267872273921967,0.27419909834861755,0.38718467950820923,0.1253054440021515,-1.1729480028152466,-0.14319954812526703,0.30219292640686035,-0.7688900828361511,1.9029853343963623,-0.6305575966835022,0.0008994996314868331,-1.0299228429794312,-0.8938805460929871,-0.5434343218803406,1.2526558637619019,-0.07107748836278915,0.010947593487799168,-0.8003025650978088,0.3340265452861786,0.4039211869239807,0.12292748689651489,-0.4865948557853699,-0.1157282367348671,-0.6586315035820007,0.16660907864570618,-0.18187955021858215,0.4186301827430725,0.27370312809944153,1.600640058517456,-0.5139659643173218,0.1897275298833847,-1.319812297821045,-1.1108213663101196,-0.3857124149799347,0.7401174306869507,0.13566075265407562,0.6995651721954346,-1.3425755500793457,0.4224429130554199,-0.34899428486824036,0.10411562770605087,0.7327353954315186,-0.5951514840126038,0.13375236093997955,-0.1674129217863083,0.14498668909072876,0.05534198135137558,-0.0864807665348053,-0.9024901390075684,0.35110893845558167,-0.14614543318748474,0.15781652927398682,-1.0170202255249023,1.0948190689086914,-0.097826287150383,-0.161726713180542,-0.398174524307251],[-0.9073027968406677,0.5789242386817932,0.5007579326629639,-0.029837382957339287,-0.11555343866348267,1.2011125087738037,0.0031343186274170876,0.2754797637462616,0.08869392424821854,-1.1939791440963745,0.7427719831466675,-0.7367293834686279,0.20246519148349762,-0.13632287085056305,0.10892701148986816,0.10148584842681885,-1.048660397529602,-0.008576908148825169,-0.0604727603495121,1.0840585231781006,0.2801348567008972,-0.38994714617729187,-0.2347320020198822,-0.18473847210407257,0.17086374759674072,-1.7035578489303589,2.1721043586730957,0.05248284339904785,-0.1067497506737709,-0.17314589023590088,1.6267905235290527,1.099592685699463,-0.029422350227832794,0.15933677554130554,-2.8117618560791016,0.826604425907135,-1.0094863176345825,-0.24913398921489716,0.09009332954883575,0.6693452000617981,-0.5711851119995117,-0.6292818784713745,0.597561776638031,0.08290572464466095,0.7863823175430298,-0.5878972411155701,-0.3540148138999939,0.6692116260528564,-0.17358848452568054,0.4623890817165375,-2.3316187858581543,1.0245884656906128,0.020929498597979546,0.10772111266851425,1.0271637439727783,1.5112791061401367,1.2367351055145264,0.15177130699157715,-0.09885402768850327,-2.78798770904541,0.8270412683486938,-1.542380690574646,-0.2590517997741699,-0.3335331976413727,0.9738953709602356,0.10003697872161865,-0.6861619353294373,0.19423392415046692,0.09708932042121887,0.04631104692816734,-0.5958478450775146,-0.3063758611679077,0.5053351521492004,0.011303190141916275,0.23843583464622498,-2.2091684341430664,2.96582293510437,-0.5722917318344116,-0.010957707650959492,-0.46356770396232605,0.511174201965332,1.1882315874099731,1.4721051454544067,0.000561111664865166,-3.2879130840301514,1.2138354778289795,-0.5387026071548462,-0.31707268953323364,0.11186990141868591,0.011289888061583042,0.5691370368003845,-0.880397617816925,-0.6418169736862183,-0.13921205699443817,0.9105622172355652,-0.2706017792224884,-0.9305294752120972,0.5454535484313965,-0.04555433243513107,0.49963879585266113,-0.6894739270210266,0.5595472455024719,-0.2528163194656372,-0.09038221836090088,0.351155161857605,0.8480881452560425,-0.1417360156774521,1.1312357187271118,0.10117658972740173,-1.7673054933547974,-0.584159255027771,-1.0576775074005127,0.8198108077049255,0.07612358778715134,0.7458532452583313,0.03197813406586647,-0.6008491516113281,0.0012664173264056444,0.0311654694378376,0.17803922295570374,-0.4018867611885071,-0.6910648941993713,0.37530946731567383,-0.10853220522403717,0.7121174931526184],[0.5827440023422241,-1.0341733694076538,0.8584100008010864,-0.04343575984239578,-0.6436793208122253,0.6726105809211731,-0.34612005949020386,0.2142585664987564,0.09215512871742249,-0.8691840171813965,0.35856375098228455,-0.2861337661743164,0.21267889440059662,0.057401351630687714,-1.2494220733642578,-0.006652676500380039,-0.6444746255874634,0.5073238015174866,0.0761178731918335,-0.40130850672721863,0.14045561850070953,-0.2577536404132843,0.18374717235565186,-0.11703309416770935,-0.22427058219909668,0.06450378149747849,-1.6750702857971191,1.424597978591919,0.16818742454051971,0.001638054964132607,-0.8426868319511414,-1.2286579608917236,1.5546461343765259,-0.10871104151010513,-0.017781035974621773,-0.4300414025783539,-1.0180232524871826,1.3638403415679932,0.1373034566640854,-0.16410067677497864,-0.8763193488121033,-1.182470679283142,1.4200876951217651,-0.12752333283424377,0.05421122536063194,-0.5846450924873352,-1.0204248428344727,0.7547912001609802,0.09710764139890671,0.35854774713516235,0.2669496536254883,-0.3186844289302826,-0.005637079011648893,0.18712575733661652,-0.2213548868894577,0.12270340323448181,0.10803847759962082,0.21007858216762543,0.05346507579088211,-0.6905785202980042,0.43989551067352295,-0.2436833679676056,0.34529244899749756,-0.05094193294644356,-0.8106574416160583,0.5973700881004333,-0.4544808268547058,0.2516559660434723,-0.09310194849967957,-0.552090585231781,0.2397148311138153,-0.17550216615200043,-0.06618990749120712,0.16253964602947235,-0.016536248847842216,0.46892955899238586,0.371530681848526,-1.0597293376922607,-0.03733241930603981,-0.3971787989139557,-0.315767765045166,1.7584236860275269,-1.0416747331619263,0.06636956334114075,-0.6330346465110779,-0.34053105115890503,2.4072470664978027,-1.3496603965759277,-0.011009951122105122,-1.4140602350234985,-0.04641832411289215,2.0101895332336426,-1.0246943235397339,0.08968765288591385,-1.1382266283035278,0.22113095223903656,0.5827591419219971,-0.46995148062705994,0.03177276626229286,-0.6956606507301331,-0.039521344006061554,0.2142721563577652,-0.30693772435188293,-0.176235631108284,0.1828220784664154,-1.2674789428710938,0.6552638411521912,-0.6791455149650574,-0.19152209162712097,0.5578439235687256,-1.4929336309432983,0.9594975709915161,-0.26539701223373413,0.1156386286020279,0.4532712996006012,-1.602382779121399,0.6882615685462952,-0.4086880385875702,0.08721789717674255,0.855588972568512,-0.982832133769989,0.2319227159023285,0.15055349469184875,-0.16211630403995514,0.37774327397346497],[2.3891942501068115,-2.8666622638702393,0.03378325328230858,-0.08021112531423569,0.1428462415933609,1.002575397491455,0.3025565445423126,-1.0902190208435059,-0.05453162267804146,-0.37010616064071655,-1.2826125621795654,1.9458270072937012,-0.2405417263507843,0.04836328700184822,-0.40305620431900024,-2.161597490310669,-0.17477573454380035,1.3525559902191162,0.11371801048517227,1.107733964920044,-2.4317612648010254,-0.37935078144073486,1.0267131328582764,0.03497966751456261,1.5885173082351685,2.2118003368377686,-0.7275415658950806,-0.3940008282661438,-0.0982983186841011,-0.9313539266586304,1.6918367147445679,0.4297398030757904,-1.181054949760437,-0.0646083727478981,-1.1733343601226807,0.5933945775032043,1.7327215671539307,-1.2769116163253784,-0.10234826803207397,-0.9063078761100769,-2.496814250946045,0.9020670056343079,0.5163615942001343,0.19388246536254883,0.8869132399559021,-2.216057300567627,-1.2081776857376099,1.588676929473877,-0.030276671051979065,1.4940056800842285,3.3637659549713135,-0.5691589713096619,-1.2929890155792236,0.10350785404443741,-1.23162043094635,1.9520714282989502,0.2030578851699829,-1.311744213104248,-0.22183579206466675,-0.9433482885360718,0.6526881456375122,1.0935198068618774,-0.6766989827156067,-0.05396095663309097,-1.4207091331481934,-1.5019452571868896,0.5453615188598633,0.3820423483848572,-0.019777147099375725,0.5076180696487427,-2.3117122650146484,-1.4181275367736816,2.041637897491455,-0.10114575922489166,1.3553663492202759,3.6199471950531006,-0.48083117604255676,-1.2075858116149902,0.03675377741456032,-1.8831205368041992,2.4185237884521484,-0.10580387711524963,-0.6143572330474854,-0.055612049996852875,-1.4991533756256104,0.6079596281051636,1.1457245349884033,-0.9423063397407532,0.1671622395515442,-0.9139128923416138,-1.8823891878128052,4.048843860626221,-1.3724446296691895,0.03193500265479088,-0.7463722825050354,-2.990286350250244,-1.623517632484436,2.2322001457214355,-0.018688764423131943,2.4900269508361816,4.3586649894714355,-3.510084867477417,-0.17046713829040527,0.17950618267059326,-0.39064523577690125,1.8445192575454712,-0.8095085024833679,-0.433505117893219,0.14441756904125214,-0.8256070613861084,0.6676457524299622,0.8475721478462219,-0.2204362004995346,-0.1775522381067276,-1.0805745124816895,-1.5876498222351074,2.689880609512329,-0.5371212959289551,-0.07356993854045868,-1.0037437677383423,-2.2174289226531982,-2.0131266117095947,1.3640809059143066,0.09387040138244629,2.552893877029419],[-1.6792079210281372,-0.3992501199245453,0.8727081418037415,0.017673233523964882,1.2132720947265625,0.8458513617515564,0.4329637587070465,-0.42173337936401367,-0.040705155581235886,-0.6831426024436951,1.4437732696533203,0.2673373818397522,-1.1128857135772705,0.06065718084573746,-0.54143226146698,1.5515228509902954,-0.8005483746528625,-0.15831461548805237,0.0642041489481926,-1.2239007949829102,4.162001132965088,-3.0055203437805176,-0.4314432442188263,0.0941644012928009,-0.6225100755691528,-1.5020840167999268,-1.0421085357666016,1.317209243774414,-0.012945303693413734,1.1951801776885986,-2.5556740760803223,1.863682508468628,0.39685046672821045,0.009284096769988537,0.5082147121429443,-0.9668453335762024,2.366098403930664,-1.4398362636566162,-0.1218927875161171,-0.08719207346439362,0.7515046000480652,0.052814844995737076,-1.4279881715774536,-0.17647632956504822,0.26667019724845886,3.2361931800842285,-2.6767189502716064,-0.419851154088974,0.11700012534856796,-0.3055979013442993,-1.4270564317703247,-0.8727390766143799,0.8309058547019958,0.006689346395432949,1.5294170379638672,-2.0225744247436523,-0.17182357609272003,1.0504528284072876,0.13411295413970947,1.107682704925537,-2.70876145362854,2.1211960315704346,0.20744086802005768,0.23029915988445282,0.5449126362800598,0.9158517122268677,0.30686628818511963,-1.358378291130066,0.16028393805027008,-0.22852420806884766,2.751559019088745,-2.186889886856079,-0.05835077539086342,0.17908136546611786,-0.5942467451095581,-0.3254239559173584,-1.7386361360549927,0.7195558547973633,0.15335649251937866,1.553995132446289,-0.09155707061290741,-1.460614800453186,0.6327810883522034,-0.04813041165471077,1.2544790506362915,-0.6433045268058777,-0.5868405699729919,0.2050049901008606,-0.15840213000774384,0.7164182066917419,0.2300666868686676,1.4509203433990479,-1.8125249147415161,-0.16286879777908325,0.014871606603264809,3.220332384109497,-3.592567205429077,-0.3011339008808136,0.2373506873846054,0.509167492389679,-1.1928930282592773,3.9236888885498047,-0.8076685667037964,-0.0003837516123894602,-1.7789934873580933,-1.0098541975021362,3.168686628341675,-0.830155611038208,0.11082237958908081,-1.4000303745269775,-0.7856179475784302,2.699779987335205,-0.4024752378463745,0.09341181069612503,-1.5701440572738647,-0.7305381894111633,1.8340896368026733,-0.37509241700172424,0.11599128693342209,-0.4165404736995697,2.7909979820251465,-1.8318613767623901,-0.8406096696853638,0.010830646380782127,-0.09514324367046356],[-2.520784378051758,2.129818916320801,-0.2018905133008957,-0.023007584735751152,0.05613667517900467,-1.820894718170166,1.2620103359222412,-0.23641173541545868,0.12726649641990662,0.5777626037597656,-0.8189581632614136,1.4819084405899048,-0.8913688063621521,0.058153290301561356,0.2577289938926697,0.17676040530204773,0.9668801426887512,-1.2854759693145752,-0.16541601717472076,-0.2227686494588852,2.7658658027648926,-1.8249917030334473,-0.4638217091560364,-0.0728246197104454,-1.121805191040039,-2.2850303649902344,0.23101066052913666,1.6563338041305542,0.1836395561695099,-0.3653826415538788,-2.8211328983306885,-0.43275389075279236,2.615633964538574,-0.12384964525699615,0.2957439720630646,-2.742421865463257,2.11281418800354,0.772871732711792,-0.10683181881904602,-0.11201934516429901,-0.4944770932197571,0.1421808898448944,0.09641213715076447,-0.16449910402297974,0.019118141382932663,2.4478919506073,-2.60850191116333,0.179226353764534,0.18692131340503693,-0.1761835515499115,-1.4291999340057373,0.24459607899188995,1.1342331171035767,-0.15451225638389587,0.024688679724931717,-1.6403888463974,-0.4387671947479248,1.8264878988265991,-0.03267310932278633,-0.40510424971580505,-0.4486372470855713,0.817453145980835,-0.6931189894676208,-0.027176380157470703,-0.10305696725845337,1.4817390441894531,-1.5517505407333374,-0.9114307165145874,0.007613522466272116,0.33171534538269043,2.5401084423065186,-3.38934326171875,0.743656575679779,0.026142312213778496,-0.48542943596839905,-1.3527281284332275,-0.4430462121963501,0.9758380651473999,-0.06470266729593277,0.1467912793159485,-1.1139730215072632,-0.4469689130783081,0.46377304196357727,-0.08047434687614441,0.7261125445365906,-2.312816858291626,1.4219443798065186,0.9769058227539062,0.1916910707950592,-0.2629190981388092,0.44462957978248596,1.773330569267273,-1.2147372961044312,0.013354304246604443,-1.347867488861084,3.2102065086364746,-4.433784008026123,0.3837052583694458,-0.05658038705587387,0.5451771020889282,-1.8220707178115845,1.867590069770813,-0.1345582902431488,-0.12543311715126038,0.2495792806148529,-1.278975486755371,0.810002863407135,0.06699483096599579,0.08539193868637085,0.22450511157512665,-1.924343466758728,1.108642816543579,1.2902880907058716,-0.15229924023151398,-1.0644489526748657,0.4810792803764343,1.4902173280715942,-1.4402868747711182,-0.18021950125694275,-0.8627287745475769,3.832820177078247,-2.8244502544403076,-0.577488362789154,0.06795432418584824,-0.6442983746528625],[-0.9303259253501892,0.05134772136807442,0.33898311853408813,0.021554622799158096,0.31617239117622375,-1.046147346496582,-0.8119089603424072,0.8449025750160217,0.17500458657741547,0.8049851655960083,-0.04261856898665428,0.18807606399059296,-0.24299763143062592,0.12997092306613922,0.1476709395647049,-0.8248290419578552,0.01698414608836174,0.6296523213386536,0.1642652004957199,0.0053087398409843445,-1.699055790901184,1.340440273284912,0.696160078048706,-0.03901761397719383,-0.75521320104599,-0.5597606897354126,1.0959358215332031,0.36517542600631714,0.013846694491803646,-1.1289867162704468,-0.5146883130073547,0.9605173468589783,0.7125840187072754,-0.14311812818050385,-1.3772960901260376,0.8801425099372864,-0.19639022648334503,0.5638135075569153,-0.09145364165306091,-1.128775715827942,-0.4155835509300232,1.609437108039856,0.5478104948997498,0.1831461638212204,-1.4285308122634888,-0.9684342741966248,1.390109896659851,0.7083432674407959,-0.05421653762459755,-1.002361536026001,0.6342266798019409,0.5576161742210388,-0.8057093024253845,0.05376068130135536,-0.21130695939064026,-0.17940717935562134,-0.08184723556041718,-0.525692880153656,-0.12245579808950424,0.35657715797424316,0.203561469912529,-0.9537999629974365,-0.1258123368024826,0.04711628332734108,1.0711233615875244,1.6133431196212769,0.01829790696501732,-1.8889846801757812,-0.19176006317138672,0.22143326699733734,-0.050986506044864655,0.23922967910766602,-0.5148909687995911,0.017499884590506554,0.24285593628883362,1.3500969409942627,0.4211183488368988,-1.3316656351089478,0.15254062414169312,-0.39161908626556396,0.7233067750930786,-0.265595406293869,-0.2784915566444397,-0.07749741524457932,-0.4820525646209717,0.13042809069156647,-1.3097803592681885,0.9421584606170654,-0.07785549014806747,-0.04794374480843544,1.4380156993865967,-2.2224011421203613,0.11956407129764557,0.19196224212646484,0.6903777718544006,0.11751830577850342,1.3347976207733154,-1.09281587600708,0.011394010856747627,-0.5280011892318726,1.8384596109390259,-1.289422631263733,-0.022601326927542686,0.05898674577474594,-0.37995439767837524,0.996105432510376,-0.8694106936454773,0.03030661679804325,0.1870664358139038,-0.16636168956756592,0.13590726256370544,-0.8964889645576477,0.6856138706207275,0.18576741218566895,0.31240910291671753,0.14913535118103027,-1.4203048944473267,0.6860886812210083,0.13999877870082855,1.1108044385910034,1.5688220262527466,-0.12536469101905823,0.04645133018493652,0.17063909769058228,-1.238416075706482],[-0.03133712708950043,0.3879450559616089,0.8353996872901917,0.04523957893252373,-0.8723186254501343,-1.3536090850830078,-0.2791590392589569,1.6694380044937134,0.09441015124320984,-0.10151715576648712,-1.303183913230896,1.237331748008728,0.6043481230735779,0.19762274622917175,-0.6227250695228577,-1.1301981210708618,1.5253825187683105,0.12826931476593018,0.1637718677520752,-0.8878993988037109,-1.0508359670639038,0.7566917538642883,-0.0758424624800682,-0.05855952948331833,0.5128065943717957,0.45066359639167786,-0.7681189775466919,0.8946080803871155,-0.12006449699401855,-0.7333564162254333,-0.2817901372909546,-1.4902585744857788,1.8109582662582397,-0.14653854072093964,-0.26300135254859924,-0.43622735142707825,0.794562041759491,0.14230699837207794,0.13397668302059174,-0.9362705945968628,0.14873047173023224,0.743025004863739,-0.3259393870830536,0.015675107017159462,-0.5782050490379333,0.051731038838624954,0.2344047576189041,0.14826400578022003,0.15862426161766052,-0.19432048499584198,0.054273054003715515,-0.020663324743509293,0.7140934467315674,-0.08304710686206818,-1.2221132516860962,-0.4710099697113037,-0.41685208678245544,2.360483169555664,-0.014691519550979137,-1.1215438842773438,-0.8775652647018433,0.9459690451622009,0.6666526794433594,-0.05578867718577385,-0.922546923160553,-0.02192067727446556,1.3064309358596802,-1.1863266229629517,-0.06545127928256989,-0.11233993619680405,-0.46546390652656555,-0.19752824306488037,0.24881236255168915,-0.18798568844795227,0.5576432347297668,1.047972321510315,-1.0154966115951538,0.9332557916641235,0.1825958639383316,-0.5993229746818542,0.2046666443347931,-1.9729647636413574,1.5042129755020142,-0.11511103063821793,0.032881952822208405,-0.24649016559123993,-0.770984411239624,1.3982163667678833,-0.07590719312429428,-0.5539924502372742,-0.5185613036155701,1.2025946378707886,-0.13571739196777344,0.27365171909332275,-0.7586655020713806,-0.15065982937812805,-1.1274304389953613,0.5843382477760315,-0.1667463481426239,0.8389312028884888,0.965027391910553,-1.640303611755371,0.47776371240615845,-0.09176596254110336,-0.036042094230651855,-0.08899959176778793,-0.2643090784549713,0.5939006805419922,0.09463746845722198,-0.10430119186639786,-0.013285908848047256,-0.290853351354599,1.0003057718276978,-0.20650629699230194,-0.9019956588745117,-0.2565780282020569,1.226715087890625,0.35436445474624634,0.15886333584785461,-1.2993786334991455,0.17296648025512695,0.1517479568719864,-0.030855346471071243,0.07588377594947815,-0.4075474143028259],[-0.40662193298339844,0.20829862356185913,-0.44230541586875916,0.08710987865924835,0.4032003879547119,0.8207089304924011,-0.038337744772434235,-0.3798724114894867,0.038236480206251144,-0.8168726563453674,2.162360191345215,-0.16180552542209625,-0.6950192451477051,-0.14967699348926544,-1.6811972856521606,0.11688034236431122,-1.9249330759048462,0.6546307802200317,0.13727375864982605,0.7914974689483643,1.3926054239273071,-0.6975529193878174,-0.5209534168243408,-0.018284901976585388,-0.763064444065094,-1.769674301147461,0.6367490887641907,0.3042263388633728,0.19096067547798157,0.6430404186248779,-1.7522661685943604,1.5126025676727295,0.3632541000843048,-0.1718476414680481,-0.4162646532058716,1.797459363937378,1.7037348747253418,-1.4091423749923706,0.16920848190784454,-2.7630386352539062,-1.1731470823287964,-1.344050645828247,1.33267080783844,0.12317246198654175,0.792217493057251,-0.3637130558490753,1.8121620416641235,-0.8248939514160156,-0.001596971182152629,-1.1199445724487305,-1.039832592010498,-0.8871569633483887,0.8244853615760803,-0.17622248828411102,0.5728780627250671,0.5343172550201416,-1.4356279373168945,-0.4243052005767822,-0.13858824968338013,0.8405299186706543,2.6799001693725586,0.5388217568397522,-2.1664111614227295,0.0886935368180275,-1.3176262378692627,-0.2670942544937134,-1.274106740951538,0.3946812152862549,0.03665328770875931,1.1751725673675537,2.0846664905548096,-1.8967748880386353,-0.4182121455669403,0.12662741541862488,-0.2120569944381714,-2.1069860458374023,0.6929322481155396,0.3858579993247986,0.05087793990969658,0.0553731732070446,-2.5846774578094482,1.9569592475891113,0.2852443754673004,-0.05710364505648613,-0.42027977108955383,0.156951904296875,2.033198118209839,-0.6844632625579834,-0.017006317153573036,-2.0154364109039307,-1.3848720788955688,-1.0903774499893188,1.6856019496917725,-0.1777486801147461,0.15911540389060974,-0.7980670928955078,1.9542672634124756,-1.314151644706726,-0.16683852672576904,-0.3960401117801666,-0.41470450162887573,0.0787091851234436,-0.32801488041877747,-0.17708492279052734,0.09967577457427979,-0.06454627215862274,-0.4918479919433594,-0.009701410308480263,0.06643790751695633,0.18912148475646973,2.23279070854187,-0.7386977076530457,-0.7821137309074402,0.056856412440538406,-1.3114516735076904,-0.24556684494018555,-1.7201660871505737,0.22644396126270294,0.07402260601520538,1.1223617792129517,1.439193844795227,-0.8687904477119446,-0.03166862577199936,0.054965123534202576,-0.9763941168785095],[-1.3603496551513672,1.5592362880706787,0.16184376180171967,-0.031018853187561035,1.140920639038086,-0.39198219776153564,1.0709116458892822,-0.5833386778831482,0.02168651483952999,0.6851037740707397,-0.47698885202407837,0.24638353288173676,0.8740552067756653,-0.07528964430093765,0.025769803673028946,-0.033712636679410934,1.0852572917938232,0.30517733097076416,0.1537422388792038,-0.48888251185417175,0.5339792966842651,-0.725862443447113,0.15591555833816528,0.07702124118804932,0.5001125931739807,-1.4282110929489136,0.7884767651557922,1.1236203908920288,0.008920982480049133,0.35812535881996155,-1.5033414363861084,0.33048057556152344,0.6770849823951721,-0.06094237044453621,0.9645652770996094,-1.0120705366134644,-0.14820949733257294,0.522263765335083,-0.04312664642930031,1.3669748306274414,0.2067611813545227,0.04640058055520058,-0.2985963821411133,-0.08578849583864212,0.9041526913642883,0.7958760857582092,-1.0020240545272827,-0.32701388001441956,-0.0554112009704113,1.150275468826294,-1.078959584236145,0.7604233622550964,0.5957590341567993,0.10128067433834076,0.803620457649231,-0.12288972735404968,0.03749683499336243,0.9383007287979126,-0.07388242334127426,0.21746337413787842,-0.20724280178546906,0.13173702359199524,0.1028309315443039,-0.1802157610654831,0.37792038917541504,0.4770776629447937,0.16645464301109314,0.07265797257423401,0.028872063383460045,0.020562537014484406,0.7897834777832031,-0.6559883952140808,-0.4903835356235504,-0.05482320114970207,1.0951334238052368,-0.6302862167358398,-0.41953834891319275,0.9531053304672241,0.1195347011089325,0.7313030362129211,-0.4629979431629181,0.37231239676475525,1.272499680519104,-0.1768583059310913,-0.4518163204193115,-0.322270929813385,-0.15347816050052643,0.7547743916511536,0.17858390510082245,0.2547503411769867,-0.08895459771156311,0.143715962767601,0.18039026856422424,0.17694836854934692,0.6667180061340332,1.0780755281448364,-0.585749089717865,0.04379197955131531,-0.08202708512544632,0.42651891708374023,0.25117453932762146,0.3310408890247345,0.06039249151945114,-0.15083041787147522,-0.07185276597738266,0.6871535778045654,-0.26624220609664917,0.20272430777549744,-0.17132152616977692,0.1152598187327385,0.9963498711585999,-0.08398713916540146,-0.1345757395029068,-0.1069611981511116,-0.15666131675243378,1.284425139427185,-1.1211462020874023,-0.17614902555942535,-0.03409768268465996,0.5380948781967163,2.11984920501709,-0.8944554924964905,-0.1351892054080963,-0.0757351666688919,0.004782415926456451],[-0.4501188099384308,-0.11865420639514923,-0.1557871550321579,-0.03307545930147171,-0.28025418519973755,-0.9781781435012817,-0.19674959778785706,0.03054092824459076,0.0039013053756207228,0.5458566546440125,-1.4352707862854004,0.4769596457481384,0.0023499000817537308,-0.14678822457790375,0.3727746903896332,0.6445183157920837,1.013776183128357,-0.6426511406898499,0.18699881434440613,-1.0948221683502197,0.005467832554131746,-1.1014436483383179,-0.015933344140648842,0.057147540152072906,0.19512729346752167,-0.3137194812297821,-0.19736170768737793,-0.21501976251602173,-0.004738899879157543,-0.04900236800312996,-1.4989489316940308,-0.12103819847106934,0.6678436994552612,-0.14277081191539764,0.5263153910636902,-1.6336613893508911,1.2748949527740479,0.13123193383216858,0.0710441991686821,-0.441834032535553,1.0744143724441528,1.7653629779815674,-1.3362078666687012,0.08326606452465057,-1.704792857170105,1.12113618850708,-0.8983145356178284,-0.14103761315345764,0.03310495615005493,-0.9073450565338135,-0.16750165820121765,-0.22272475063800812,0.0614648163318634,-0.07939428091049194,-0.0013498363550752401,-1.018535852432251,-0.2268344759941101,0.792943000793457,-0.11637204885482788,0.445874959230423,-1.2680249214172363,0.058014918118715286,0.44752392172813416,-0.2096693515777588,0.2623888850212097,1.3734711408615112,1.0457838773727417,-1.8681923151016235,0.03886714205145836,-0.9567064642906189,2.1350014209747314,-1.3992137908935547,-1.2611808776855469,-0.031863871961832047,-0.2095222771167755,0.2510068416595459,-0.35608527064323425,0.1135871484875679,-0.12139305472373962,0.05077357590198517,-0.5088121294975281,-0.3055340349674225,-0.11755520850419998,-0.011766421608626842,0.22368402779102325,-1.3964300155639648,-0.44292017817497253,0.6389739513397217,-0.06975991278886795,0.6365964412689209,1.2446041107177734,1.9947152137756348,-1.8216984272003174,0.019225597381591797,-2.102609634399414,1.9033623933792114,-1.8380416631698608,-0.5088951587677002,-0.19310107827186584,-0.17490825057029724,0.0210141371935606,-0.6193593740463257,0.016006233170628548,-0.16880813241004944,0.06905409693717957,-0.34144115447998047,-0.7215914726257324,0.19960640370845795,-0.14874206483364105,0.26899072527885437,-1.6667250394821167,-0.04595593363046646,0.5313823223114014,-0.13147757947444916,0.3305022716522217,0.7799007296562195,1.4443496465682983,-1.6273493766784668,0.1145721897482872,-0.9239813685417175,1.3245408535003662,-1.6394355297088623,-0.052099306136369705,0.03843706473708153,-0.5449844002723694],[-0.10851547867059708,1.7097028493881226,-0.6108241081237793,0.1534505933523178,-1.6384379863739014,0.1664305180311203,1.3784688711166382,0.4672052264213562,0.13971097767353058,-2.165422201156616,-0.5225609540939331,2.2337238788604736,-0.006039446219801903,0.12727849185466766,-1.996376395225525,0.08641250431537628,1.8106796741485596,-0.4322466552257538,0.0349528044462204,-1.9909881353378296,0.29373589158058167,1.3322725296020508,-1.155289649963379,-0.1314047873020172,-0.8581041693687439,0.5496795773506165,-0.786115825176239,-0.7167254090309143,0.0389404222369194,0.4686308205127716,0.2343427538871765,-0.6420111656188965,-0.154322549700737,-0.1783086508512497,-0.043092209845781326,0.112272709608078,-0.49406352639198303,0.25796857476234436,-0.10478212684392929,-0.18088363111019135,0.34591615200042725,-0.098629429936409,-0.15389509499073029,0.05434226989746094,-0.7979587316513062,0.44390562176704407,-0.6216177344322205,-0.26278576254844666,-0.06666579097509384,0.5103158950805664,-0.11109425127506256,-0.6393216848373413,0.0466499924659729,0.024114137515425682,0.29211804270744324,0.49259546399116516,-0.6629669070243835,-0.20261773467063904,-0.0261337012052536,-0.024330927059054375,-0.5018777251243591,-0.16146884858608246,0.11232589930295944,0.000048999943828675896,0.05829865485429764,0.2986041009426117,-0.15755757689476013,-0.5640291571617126,-0.039939042180776596,-0.02483169548213482,0.16623646020889282,-0.7063411474227905,0.29875269532203674,0.1444454789161682,0.4587877690792084,-0.06583790481090546,-0.833408534526825,0.08954371511936188,-0.19151288270950317,0.1684338003396988,-0.11336699873209,-0.5647770166397095,0.14877478778362274,-0.18390929698944092,0.6581379771232605,-0.6124866008758545,-0.34155669808387756,0.15942031145095825,-0.010772878304123878,0.04921148344874382,-0.5149628520011902,-0.03672749176621437,-0.1276172697544098,-0.1559104472398758,0.3466070592403412,0.35713431239128113,-0.7371308207511902,0.20452411472797394,0.2011159360408783,-0.23531778156757355,-0.06442730873823166,-0.5449879765510559,0.004548989236354828,-0.04318217188119888,0.2457253485918045,0.0622737742960453,-0.2657288610935211,-0.15828847885131836,0.03189922869205475,0.11539721488952637,-0.10621397942304611,-0.19077129662036896,-0.39951515197753906,-0.09760262072086334,-0.07581436634063721,-0.23793894052505493,-0.3893640637397766,-0.3466545045375824,-0.16308316588401794,0.27857083082199097,0.27183616161346436,-0.2227751612663269,0.07247715443372726,0.1317676454782486,-0.18105317652225494],[-0.2595905363559723,0.4372546970844269,-0.13439828157424927,-0.017509950324892998,0.5187312364578247,-0.03777141124010086,1.1310173273086548,-0.19813700020313263,-0.12603916227817535,-0.11887763440608978,-0.40811488032341003,1.1580113172531128,0.46535879373550415,0.11813367158174515,-0.3383842706680298,-0.27837786078453064,1.2843087911605835,0.0889042392373085,0.0965256467461586,-0.3450145423412323,-0.5298033356666565,1.0063438415527344,0.40243425965309143,-0.13534726202487946,-0.27310702204704285,0.2953077554702759,-0.5407798290252686,0.1880125254392624,0.1257990449666977,0.5506905317306519,0.1697186976671219,-0.20941095054149628,0.4988585114479065,-0.16457532346248627,0.41237160563468933,-0.06954987347126007,0.23194186389446259,0.4129198491573334,-0.09934264421463013,0.024206608533859253,0.199871227145195,0.05242253467440605,0.63358473777771,-0.011985957622528076,-0.031514715403318405,-0.5126575827598572,-0.22857068479061127,1.2152698040008545,-0.12540775537490845,0.052891649305820465,0.11435766518115997,0.09373009204864502,-0.05830535665154457,-0.1792902946472168,0.5148235559463501,0.06788850575685501,0.2017686814069748,0.739039421081543,0.03487493470311165,-0.17597290873527527,-0.05065646022558212,-1.22261643409729,0.6527915596961975,-0.05416327714920044,1.258370041847229,0.0120387589558959,-0.41474735736846924,0.6144474744796753,0.16881775856018066,0.46254056692123413,-0.532996654510498,-0.3153350055217743,0.8232281804084778,-0.13761769235134125,0.42680060863494873,0.6414725184440613,-1.168470859527588,-0.0653388500213623,0.05622691661119461,1.4599839448928833,0.3172762989997864,0.2655450701713562,-0.9107809662818909,-0.0877513438463211,0.6522958278656006,0.6590138077735901,-0.6295405030250549,0.28972765803337097,-0.016975682228803635,0.4467226266860962,0.19540467858314514,1.2472987174987793,-1.0022052526474,-0.01965591497719288,-0.05823063105344772,0.23499932885169983,-1.1632519960403442,0.3036198019981384,-0.04128990322351456,1.2410221099853516,0.07411947846412659,-0.23650987446308136,-0.14096498489379883,0.13266941905021667,0.9972741007804871,-0.23281870782375336,-0.30808109045028687,-0.44886380434036255,0.134147047996521,1.6671710014343262,0.8254173398017883,0.2876734435558319,-0.5876550078392029,-0.1284225881099701,0.25512662529945374,-0.025725094601511955,0.04059663414955139,-0.6664083003997803,-0.11489725112915039,1.5604194402694702,0.5039873123168945,-0.8730992078781128,0.0679796114563942,-0.020810145884752274,1.046199083328247],[-0.016270488500595093,-0.367827832698822,0.15549848973751068,0.14474591612815857,-0.01224486343562603,-0.05050492659211159,-0.6549033522605896,0.22367973625659943,-0.1292852759361267,0.15663042664527893,0.5607870221138,-0.7570643424987793,0.2839979827404022,0.0896846354007721,-0.17731399834156036,0.02632283978164196,-0.7168738842010498,0.0006199224735610187,0.006734122522175312,-0.15574385225772858,0.8440229296684265,-0.6508961915969849,-0.30943483114242554,-0.1092541441321373,-0.12823206186294556,-0.12468846887350082,0.16195446252822876,-0.22752945125102997,-0.1910281479358673,-0.21524696052074432,0.07309109717607498,-0.3004753887653351,-0.1916806399822235,0.12748360633850098,-0.0633438229560852,0.35200759768486023,-0.2300875335931778,-0.17811758816242218,-0.114609494805336,-0.04953741282224655,0.006150092463940382,0.0524728037416935,-0.3423415720462799,-0.09827277064323425,-0.06912250816822052,0.2890802323818207,-0.041215453296899796,-0.742121160030365,-0.0914468914270401,-0.16980545222759247,-0.09567468613386154,-0.24104665219783783,0.17275328934192657,0.03505876287817955,-0.13063634932041168,0.43228891491889954,0.04558473825454712,0.06960355490446091,0.13681048154830933,-0.5812382102012634,-0.025173155590891838,0.17026780545711517,-0.08534739911556244,-0.09514287859201431,-0.018627014011144638,-0.021514471620321274,0.3529212772846222,-0.39408227801322937,0.10729235410690308,0.2313144952058792,0.04234670102596283,0.24767433106899261,-0.7443426847457886,-0.03304041549563408,-0.21676988899707794,-0.3466666340827942,0.21237365901470184,0.004324857611209154,0.024424085393548012,-0.20021942257881165,-0.38138270378112793,0.9147291779518127,-0.16709305346012115,0.09224061667919159,-1.050425410270691,-0.5727683901786804,-0.05183596909046173,0.1395217329263687,0.07874178141355515,-0.23752903938293457,-0.31593945622444153,-0.8939369320869446,-0.3118232190608978,-0.019609104841947556,1.027698040008545,0.516841471195221,1.1868141889572144,-0.7977011203765869,-0.14378266036510468,-0.9277089238166809,-0.5188305377960205,1.0580521821975708,-0.11599664390087128,-0.0270573440939188,-1.0134682655334473,-0.29610979557037354,0.14512379467487335,0.7679901719093323,-0.1702723652124405,-0.6998745799064636,-0.14408107101917267,-0.30163145065307617,0.413546621799469,0.06157320737838745,-0.10837366431951523,-0.07858020812273026,-0.7248014807701111,0.5769146084785461,-0.19777540862560272,-0.4627149701118469,-0.2965652048587799,0.9674931168556213,-0.5281690955162048,0.18551746010780334,-0.38415926694869995],[-0.10728561878204346,0.30030345916748047,-0.03605222329497337,-0.13070309162139893,-0.3557403087615967,-0.7652754783630371,1.328275203704834,-0.44501593708992004,-0.08634470403194427,-0.20277540385723114,-1.3722580671310425,1.4898990392684937,-0.19701263308525085,0.0482352152466774,0.3014819920063019,-0.6697286367416382,0.9723306894302368,-0.023188304156064987,0.15440186858177185,-0.44387656450271606,-0.7683742046356201,0.6699298620223999,-0.18666884303092957,0.17394140362739563,-0.27288374304771423,0.3370428681373596,-0.7948330044746399,0.8378105163574219,0.14455175399780273,-0.39614853262901306,-1.1593029499053955,1.066086769104004,0.4060490131378174,-0.1314571499824524,-0.42867013812065125,-0.8059211373329163,1.0116039514541626,0.9761309623718262,-0.16718505322933197,-1.037126898765564,-0.5600513219833374,0.26918962597846985,1.2143505811691284,-0.11154729872941971,-1.0363471508026123,-0.3800337314605713,-0.09039153158664703,0.663566529750824,-0.0410672165453434,-0.18792346119880676,-0.07389358431100845,-0.3320450782775879,0.25585493445396423,-0.031912729144096375,-0.2764553725719452,-0.4845188856124878,0.827200710773468,0.31275424361228943,-0.024400340393185616,-1.0541932582855225,-0.5644955635070801,1.2803982496261597,0.41105398535728455,0.0028685135766863823,-1.3442127704620361,-0.37145325541496277,0.47029584646224976,0.14472739398479462,0.2055535614490509,-0.29363176226615906,-0.4340771436691284,0.11991997808218002,0.24222595989704132,-0.08033273369073868,-0.15482699871063232,0.12931664288043976,-0.7531192302703857,0.37656232714653015,-0.07714200019836426,0.6280311346054077,0.23334728181362152,-0.611354649066925,0.4233251214027405,0.014248368330299854,-0.2876191735267639,0.2616361081600189,-0.04321146011352539,0.5972689986228943,-0.15729375183582306,-0.9175772070884705,-0.5576832294464111,-0.18057826161384583,0.4139200448989868,0.19986645877361298,-0.19021637737751007,-0.17461098730564117,-0.3967224061489105,0.5677623152732849,0.04332121089100838,-0.24042879045009613,0.3531239628791809,-1.4228582382202148,0.8683258295059204,0.13125033676624298,0.00569738307967782,1.2020024061203003,-1.5409687757492065,1.2973021268844604,0.1248660609126091,-1.0175126791000366,0.25631171464920044,-1.3216100931167603,1.6949875354766846,0.12079672515392303,-0.4171448051929474,0.4736555814743042,-0.579785943031311,0.9837883114814758,0.03396086022257805,-1.4583710432052612,0.4642079174518585,-1.2511050701141357,0.9984831809997559,-0.016241405159235,-0.3363385796546936],[2.4600276947021484,-2.0412096977233887,-0.10507385432720184,0.09837615489959717,-0.7898168563842773,2.2158331871032715,-2.5667245388031006,-0.017638081684708595,0.0444604866206646,-0.39385977387428284,2.341435670852661,-2.568934917449951,0.13505274057388306,0.06422531604766846,-0.2781485319137573,1.710439920425415,-1.9696682691574097,-0.2473474144935608,-0.03825214132666588,-0.17511403560638428,1.2068727016448975,-0.663359522819519,-0.37156006693840027,-0.104082852602005,-0.7262887954711914,-0.16496656835079193,0.7328972220420837,-0.34116822481155396,0.15282942354679108,-0.5584647059440613,1.0297884941101074,0.9376316070556641,-0.9931825995445251,-0.027299920096993446,-1.3438122272491455,1.7729120254516602,-0.371886670589447,-1.124187707901001,0.065390445291996,-0.6760517954826355,0.44864633679389954,1.0621873140335083,-0.7773215174674988,0.021139051765203476,-1.1210393905639648,-1.0809950828552246,1.8175499439239502,-0.7693332433700562,0.014687332324683666,-0.5641400218009949,-1.4905987977981567,-0.9842366576194763,0.5036275386810303,0.18342070281505585,1.5871206521987915,-1.6245248317718506,-0.3109772503376007,0.45479387044906616,0.16202202439308167,0.9251060485839844,-0.6172869801521301,-0.22628353536128998,1.1796149015426636,-0.11656828969717026,-0.22012969851493835,-1.7002085447311401,-0.5030986666679382,1.4882001876831055,-0.010938410647213459,0.5730109810829163,-1.9839924573898315,-0.14903628826141357,0.3259616196155548,0.06569912284612656,1.098197102546692,1.0760962963104248,-0.0726034864783287,-1.209786057472229,-0.18690504133701324,0.28681710362434387,-0.7240697741508484,0.9169726967811584,-1.0436460971832275,0.08158498257398605,0.7165609002113342,-0.5275633931159973,-0.4779548943042755,-0.06700801104307175,0.04975076764822006,0.5964933633804321,0.7331053018569946,-1.0073860883712769,-1.5302472114562988,-0.19620180130004883,1.7699823379516602,-1.072526216506958,0.1303681880235672,-0.6341570019721985,0.13292460143566132,1.150472640991211,-1.042724847793579,2.022084951400757,-0.4313850700855255,0.07587682455778122,-0.8596190214157104,-1.3698554039001465,1.805457592010498,0.14097043871879578,0.0011780731147155166,-1.0699176788330078,-0.8858202695846558,0.7733998894691467,0.13814587891101837,-0.08640582114458084,-0.5041771531105042,-1.0214507579803467,0.7474502921104431,0.5735296010971069,-0.07423784583806992,-0.7084333896636963,-2.130276918411255,2.4422767162323,-0.11745715141296387,0.16164681315422058,-0.9611263871192932],[2.412480592727661,-1.6163884401321411,-0.7273877859115601,0.15389800071716309,-0.47826144099235535,2.0070736408233643,-1.1495938301086426,-0.5505578517913818,0.1853029578924179,-0.8025525808334351,0.6905941963195801,0.2935287356376648,-0.3242785632610321,0.06769188493490219,-0.8808988928794861,0.21122196316719055,-0.06904662400484085,0.0755828469991684,-0.06560070812702179,-0.6808751225471497,-0.2791406810283661,0.2003878802061081,0.4879792630672455,0.12842020392417908,-0.7730055451393127,1.949239730834961,-2.233869791030884,-0.7560485601425171,-0.19583338499069214,0.1562056541442871,0.22208552062511444,-1.4282441139221191,0.03217177465558052,-0.0478576123714447,0.5219956636428833,-0.45337167382240295,0.3321892023086548,0.07649234682321548,-0.13148066401481628,-0.22986926138401031,-0.6269155740737915,-1.0245039463043213,1.3574364185333252,0.13801319897174835,-0.31026166677474976,-0.9498631954193115,-0.3566361963748932,0.8747877478599548,-0.01703854650259018,-0.015488646924495697,1.2764360904693604,-1.0341322422027588,-0.38013535737991333,0.033770374953746796,0.038552749902009964,-0.9754979610443115,-0.2813205420970917,0.6267710328102112,-0.06826042383909225,0.432015061378479,-0.38333895802497864,0.45316579937934875,0.3488001227378845,-0.0743636041879654,-0.4725765883922577,-0.14768819510936737,-0.349972665309906,-0.16933424770832062,-0.0733933076262474,0.47603633999824524,-0.9632891416549683,0.1536066085100174,0.22482873499393463,-0.13768742978572845,0.6504688858985901,0.671191930770874,-1.0902411937713623,-0.2517268657684326,0.09580999612808228,0.3303587734699249,-0.46288278698921204,0.7832635641098022,-1.2432714700698853,0.09109725058078766,0.41024813055992126,-1.070119857788086,0.3219534158706665,-0.18827515840530396,-0.10925634205341339,0.8804844617843628,-0.47773581743240356,0.08000621199607849,0.1367197036743164,-0.011436864733695984,0.16924715042114258,-1.5522327423095703,0.5831465125083923,0.29580244421958923,-0.033364441245794296,0.2865661084651947,0.9384859800338745,0.23710814118385315,-0.13753663003444672,-0.1760932207107544,-0.8225443363189697,-1.5147693157196045,1.0322351455688477,0.04081447049975395,-0.0008754465961828828,0.5868708491325378,-1.816591739654541,1.0779812335968018,0.49922308325767517,-0.0016635872889310122,0.0961659848690033,-1.9524205923080444,2.802546501159668,-0.7014453411102295,0.05506514757871628,-0.2530357837677002,-2.0822248458862305,1.6021054983139038,0.0856502428650856,-0.04322043061256409,0.2854923903942108],[0.4712337553501129,0.47851186990737915,-0.29773831367492676,0.09034117311239243,-0.9456601142883301,-0.243929922580719,0.2573831379413605,0.5256505608558655,-0.1826431304216385,-0.8615471720695496,-0.42507728934288025,0.4539499282836914,0.13470624387264252,0.1036067083477974,-0.375517338514328,-0.053457845002412796,0.8740416169166565,-0.3156742751598358,0.10616368800401688,-0.5540329813957214,-0.6783176064491272,0.2863216996192932,-0.1465722769498825,-0.030782010406255722,0.22941116988658905,0.26980966329574585,-0.5484328866004944,-0.05502566695213318,-0.14854055643081665,0.20603115856647491,0.23576216399669647,-0.2910802364349365,0.7444171905517578,-0.15235164761543274,-0.8701807856559753,-0.602955162525177,0.484203040599823,0.8239935636520386,0.013507983647286892,-0.8538864254951477,-0.2891412675380707,-0.4579038619995117,0.4340161085128784,-0.041181739419698715,-0.22321850061416626,-0.31147080659866333,-0.016596660017967224,-0.40947943925857544,-0.14410409331321716,0.010126186534762383,0.49141672253608704,-0.2242615818977356,0.09280495345592499,0.06430540233850479,-0.5413126945495605,0.26007941365242004,0.012738926336169243,-0.1603613942861557,0.062143657356500626,-0.5312437415122986,-0.11801455914974213,0.237295001745224,0.485549658536911,-0.14857836067676544,-0.6499367356300354,-0.36247551441192627,-0.06585099548101425,0.13983352482318878,0.13872380554676056,-0.2393237203359604,-0.22716853022575378,-0.04673248156905174,-0.1966998428106308,0.113848976790905,-0.019610077142715454,-0.048363301903009415,-0.5840640068054199,0.006869444157928228,0.07977956533432007,0.27435824275016785,-0.15166416764259338,-0.7357966303825378,0.08087556809186935,0.16091591119766235,0.5081538558006287,-0.183738574385643,-0.4094441533088684,0.4854477345943451,0.015355411916971207,-0.022488320246338844,-0.26794591546058655,0.044304218143224716,0.04876984655857086,0.14570371806621552,0.11337610334157944,-0.42283183336257935,0.032576847821474075,0.0012253845343366265,0.11219925433397293,0.14440444111824036,0.15038180351257324,-0.3918331265449524,-0.003628114238381386,0.003860772354528308,0.23021921515464783,0.2775035798549652,0.11321680247783661,-0.40408432483673096,-0.17696352303028107,-0.047592420130968094,0.017349721863865852,-0.0773959681391716,-0.07603050768375397,0.14231258630752563,0.2056151181459427,-0.41089779138565063,0.062131162732839584,-0.10555717349052429,0.13836339116096497,0.2935049831867218,-0.0374993197619915,0.40188515186309814,-0.10665585845708847,0.010952313430607319,-0.10060736536979675],[4.365872383117676,-0.4999004304409027,-1.8372055292129517,0.0783865824341774,-1.9177601337432861,4.134377479553223,-2.0906083583831787,-0.9438323974609375,-0.01884029060602188,-0.8875852823257446,4.308954238891602,-2.3285369873046875,-1.2848122119903564,-0.13953131437301636,-1.1194473505020142,4.110675811767578,-2.169598340988159,-1.5163403749465942,-0.039761945605278015,-0.83585524559021,4.558974742889404,-2.2943172454833984,-1.231408715248108,0.15569736063480377,-0.961297869682312,2.740428924560547,-1.7114917039871216,-0.2541147768497467,-0.07264881581068039,-1.046258807182312,2.0869855880737305,-1.0783412456512451,-0.27014803886413574,-0.11274702847003937,-0.9648665189743042,2.355203151702881,-1.2850855588912964,-0.6450830698013306,-0.07434587925672531,-0.7003710269927979,2.604222059249878,-0.8616662621498108,-0.8130207657814026,0.1393090784549713,-0.9322735071182251,2.6126372814178467,-1.5714269876480103,-0.44420090317726135,-0.07946985214948654,-1.0647034645080566,-0.508023202419281,1.1665629148483276,-0.5057016015052795,0.05453617870807648,-0.6989341378211975,-0.34218576550483704,1.7285261154174805,-1.0666935443878174,0.015185467898845673,-0.7254292964935303,-0.20843471586704254,1.1952495574951172,-0.7574260234832764,0.1634332239627838,-0.8637064099311829,-0.25433844327926636,1.5411276817321777,-0.8851742744445801,0.1139049381017685,-0.45226725935935974,-0.30556291341781616,1.4808980226516724,-0.6505228877067566,-0.0008704961510375142,-0.846479594707489,-2.6547439098358154,4.223565578460693,-1.015110731124878,-0.1011495292186737,-1.2344590425491333,-3.1696760654449463,4.9218339920043945,-1.0138674974441528,0.017980029806494713,-0.9012303948402405,-3.3249685764312744,5.252979755401611,-1.1627920866012573,0.1420356184244156,-0.9377771019935608,0.15020017325878143,-3.1559364795684814,1.2996222972869873,0.13218918442726135,1.7569732666015625,-3.5781757831573486,4.483326435089111,-0.7730477452278137,0.15137971937656403,-0.4775846302509308,-3.726137161254883,-1.2264772653579712,2.0060441493988037,0.0016520873177796602,2.7332723140716553,-3.7618091106414795,-1.5401597023010254,2.285227060317993,0.12983806431293488,2.7800862789154053,-3.642190456390381,-1.1632624864578247,2.411146640777588,-0.16460245847702026,2.345736503601074,-2.1980865001678467,-2.616037368774414,2.0668742656707764,-0.008256121538579464,2.2230331897735596,-3.45133113861084,-1.7366182804107666,2.348264694213867,0.149629145860672,2.3206334114074707],[-0.7982320189476013,0.6497571468353271,-0.6222478151321411,-0.06755556911230087,0.1273980587720871,-0.6876465678215027,1.2729194164276123,-1.4662166833877563,-0.06690742820501328,0.4112052023410797,0.21944697201251984,-0.14545229077339172,-0.46681883931159973,0.16116325557231903,0.00261245621368289,-0.11280687898397446,-0.25641319155693054,-0.11291183531284332,-0.008420119993388653,0.2837660610675812,-0.3454779088497162,-0.15345731377601624,0.2862541377544403,0.006051011849194765,0.12346667051315308,-0.2867794930934906,0.4944661855697632,-0.28491103649139404,-0.07418441027402878,-0.5641511082649231,-1.1731396913528442,1.8225804567337036,-1.023626446723938,0.08695469796657562,-0.08841991424560547,0.5357741713523865,-0.6483304500579834,-0.3115282654762268,-0.045490141957998276,-0.19896912574768066,0.022205296903848648,0.017248190939426422,-0.08360681682825089,0.17402870953083038,-0.458014577627182,0.07138881087303162,-0.0031662825495004654,-0.15180039405822754,0.08889324963092804,-0.11901499330997467,-0.5518009662628174,0.2473008781671524,0.15049639344215393,-0.18823574483394623,-0.4549582600593567,-0.42692869901657104,0.7798698544502258,0.1724162995815277,-0.08796365559101105,-0.9330498576164246,0.22262609004974365,-0.3297799527645111,-0.17595328390598297,-0.013099011965095997,-0.1131666973233223,0.1581212878227234,-0.2303229123353958,-0.6682822704315186,-0.11736628413200378,0.25258564949035645,0.033111583441495895,-0.9740023612976074,0.2809136211872101,-0.014480304904282093,0.7892035841941833,-0.6352937817573547,-1.8800246715545654,1.8849962949752808,0.05562841519713402,0.3328259289264679,-1.3010005950927734,-1.472338080406189,2.7026724815368652,-0.13700151443481445,-0.5798769593238831,-0.6833106279373169,-1.1958448886871338,1.0635571479797363,-0.012547621503472328,0.21296259760856628,0.1443747580051422,-1.212510585784912,0.43544214963912964,0.09178324043750763,0.5018522143363953,-0.00840960443019867,-0.3859459459781647,-0.5253680348396301,-0.08105431497097015,0.6102779507637024,0.46195507049560547,0.8300744295120239,-0.1702713668346405,-0.22623102366924286,-1.0796235799789429,0.6617544889450073,1.5876915454864502,-1.1465308666229248,0.038194891065359116,-1.4114259481430054,1.324232816696167,0.839857816696167,-1.329354166984558,-0.1167876124382019,-1.0159889459609985,1.0635764598846436,-0.06936682760715485,-0.3914662301540375,0.018325991928577423,-1.3438507318496704,0.5213963985443115,-0.9069805145263672,0.8307404518127441,0.03130241483449936,-0.35431110858917236],[-0.5101129412651062,-0.17544804513454437,0.39121389389038086,0.1861838698387146,0.11557203531265259,0.017388315871357918,-0.642421305179596,0.6633260250091553,-0.02190905250608921,0.12861664593219757,0.13550731539726257,-0.5412319898605347,0.3865421414375305,-0.1906328648328781,-0.39710626006126404,0.7144884467124939,-0.643929660320282,0.8516767621040344,-0.09771345555782318,-1.0726457834243774,0.603943943977356,-0.8290418386459351,0.5403509736061096,0.08526574820280075,-0.429898202419281,-0.5742987394332886,0.7499362230300903,0.019594546407461166,-0.19462436437606812,-0.30203571915626526,0.14859341084957123,-0.08214698731899261,-0.3404548466205597,-0.038682904094457626,0.11459572613239288,0.2986851930618286,-0.043087635189294815,0.3432213068008423,-0.07537391781806946,-0.23558002710342407,0.2591615915298462,-0.15380072593688965,0.8114646077156067,0.11574316769838333,-1.2253532409667969,0.4740500748157501,-0.12514926493167877,-0.06257180869579315,0.0943780168890953,-0.6862040162086487,-0.2820430099964142,0.7218438386917114,-0.20757678151130676,-0.17738796770572662,-0.35930168628692627,-0.03987257555127144,0.02699146792292595,0.21978247165679932,-0.11786317825317383,-0.134507954120636,-0.09362716227769852,0.347481906414032,0.08005304634571075,0.13255105912685394,-0.2867426574230194,-0.277343213558197,0.09521525353193283,0.029719334095716476,0.17338165640830994,-0.21174119412899017,0.10900917649269104,0.1440000832080841,-0.013627216219902039,-0.07958662509918213,-0.15737763047218323,-0.4364827275276184,0.3200720250606537,-0.06973134726285934,-0.0999235063791275,-0.3416435420513153,-0.5802761316299438,0.093797966837883,0.123346708714962,-0.01217262540012598,-0.0029177938122302294,-0.3827648460865021,0.1249077096581459,0.28321167826652527,0.19913828372955322,-0.12900406122207642,0.11951316148042679,-0.9418033361434937,0.20700177550315857,0.14191636443138123,0.6192508935928345,0.09777665883302689,0.26414787769317627,-0.17978639900684357,0.181003600358963,-0.3259725272655487,-0.5752298831939697,1.2186534404754639,-0.06914910674095154,0.13889038562774658,-0.7386453747749329,-0.3900664746761322,0.28219202160835266,0.6981373429298401,-0.014206677675247192,-0.6318668723106384,-0.17752300202846527,-0.059806182980537415,-0.25868934392929077,0.11638275533914566,0.13181884586811066,0.1889808475971222,-0.23030635714530945,0.1728866547346115,0.0722898319363594,-0.5810819864273071,-0.04158226028084755,0.3713456392288208,0.11281643062829971,0.18931564688682556,-0.657923698425293],[-1.700536847114563,0.5728181600570679,0.6417208313941956,-0.16910238564014435,0.003485241672024131,-0.3175376355648041,1.199300765991211,-0.6272753477096558,-0.14859844744205475,-0.7959820032119751,-0.40109872817993164,-0.10682017356157303,-0.042841922491788864,0.014784622937440872,0.3729800581932068,1.7303237915039062,-1.179125428199768,-0.300810843706131,-0.19849230349063873,-1.0563896894454956,2.956733226776123,-3.1813337802886963,0.11187316477298737,0.19895105063915253,-0.5311999320983887,-2.3249740600585938,-0.0024318748619407415,1.0482333898544312,-0.0600164420902729,0.9805178046226501,-0.1633497178554535,1.3795840740203857,-0.6391935348510742,-0.015062176622450352,-0.6876938343048096,-1.1412632465362549,0.33521172404289246,0.23296493291854858,0.032818034291267395,0.23470310866832733,0.8583316206932068,-0.4464628994464874,-0.40614014863967896,0.09824535995721817,-0.6650481820106506,2.556114435195923,-2.544984817504883,0.3074129521846771,-0.02663726545870304,-1.114243984222412,-1.9255691766738892,0.36842507123947144,0.15161509811878204,-0.021650580689311028,0.8685771226882935,-0.9232537746429443,1.8681765794754028,-0.7188741564750671,-0.10157126188278198,-0.6647940874099731,-0.4211280941963196,-0.21949031949043274,-0.32416388392448425,0.0032836184836924076,0.5862897634506226,-0.20860245823860168,-0.11364720016717911,-0.008710300549864769,0.06932905316352844,-0.040584880858659744,2.5335853099823,-1.7197037935256958,0.19520120322704315,0.19045983254909515,-1.606605887413025,-2.45428729057312,0.7696405053138733,0.5186746120452881,-0.11158668249845505,0.7088520526885986,-1.5192036628723145,2.1855320930480957,-0.3967340588569641,0.17473918199539185,-0.8988908529281616,-0.6536891460418701,0.3376349210739136,0.025536250323057175,0.06388021260499954,-0.31901776790618896,-0.5455731153488159,-0.7461705207824707,1.1823995113372803,-0.07683583348989487,-0.7791134715080261,2.0722343921661377,-0.6400845646858215,-0.8133684396743774,-0.08501444011926651,-0.9740131497383118,-2.045694351196289,0.4889988899230957,0.3818605840206146,-0.07905604690313339,0.5387849807739258,-1.5545634031295776,1.9000335931777954,-0.665870189666748,0.10951553285121918,-0.40249064564704895,-1.144478440284729,0.21699854731559753,-0.11547932028770447,-0.1775580197572708,0.5727317929267883,-0.1699545681476593,-0.8047903776168823,0.7747859954833984,-0.09035385400056839,-0.21937470138072968,1.9955381155014038,-0.5483713150024414,-0.5521403551101685,-0.00010735449177445844,-1.299512505531311],[1.0169098377227783,-0.7701835036277771,-0.573815107345581,-0.1568440943956375,0.3989584147930145,1.6796236038208008,-2.6186716556549072,0.27366903424263,-0.15950363874435425,1.0977526903152466,2.3385887145996094,-1.9272308349609375,-0.32346269488334656,-0.07878726720809937,-0.12804436683654785,0.6149293780326843,-1.795705795288086,0.5703536868095398,0.06957922130823135,0.8611922860145569,1.2383285760879517,-1.373650312423706,0.46819689869880676,0.14152956008911133,0.05861436575651169,-0.23806583881378174,0.13559561967849731,-0.3695261478424072,0.04110369458794594,0.3637930154800415,1.730765700340271,-0.5774238705635071,-1.1089441776275635,-0.04466858506202698,0.6436777114868164,1.2548918724060059,-1.379594087600708,-0.9439647793769836,0.13605479896068573,1.0390104055404663,0.2728705108165741,-1.7726759910583496,-0.21714000403881073,-0.04987793043255806,1.9985765218734741,-0.3634856343269348,-0.3002166152000427,1.1325970888137817,-0.0015437726397067308,0.037020761519670486,-1.2678556442260742,2.196536064147949,1.6664044857025146,-0.01960873231291771,-2.632390022277832,0.5446756482124329,1.9809812307357788,0.5467097163200378,0.142717182636261,-3.028409481048584,0.08789021521806717,1.0345407724380493,0.9448551535606384,-0.0641978457570076,-1.8522868156433105,1.104188084602356,0.9726327061653137,-1.5278908014297485,-0.06687291711568832,-0.49633297324180603,-0.5834105610847473,-0.5507107377052307,0.29373785853385925,-0.04745488986372948,1.4754992723464966,-1.2750051021575928,1.4177607297897339,0.8171522617340088,0.15667890012264252,-0.9172561764717102,0.1382123827934265,0.7616058588027954,-0.5272982716560364,0.17979474365711212,-0.3379858434200287,0.46323299407958984,1.1444898843765259,0.6474998593330383,0.17578716576099396,-1.8487277030944824,0.3866904675960541,-1.0036680698394775,0.7052336931228638,0.10177701711654663,0.015473432838916779,-1.0382713079452515,-0.2447987049818039,-0.43233034014701843,-0.2143518626689911,2.13063383102417,-1.9988386631011963,0.9162800312042236,1.1601970195770264,0.1906389594078064,0.1488025039434433,-1.971309781074524,0.8359197378158569,1.213752269744873,-0.05056392028927803,0.19316032528877258,-1.5398615598678589,0.9701639413833618,0.9175524115562439,-0.1900320053100586,-0.19363480806350708,-0.7900161147117615,0.3359210789203644,1.6547222137451172,0.0012891076039522886,-1.2009649276733398,-0.8539062142372131,1.0794798135757446,0.06636811047792435,0.12531843781471252,-0.03479756414890289],[1.102478265762329,2.0334548950195312,-1.4461045265197754,0.08551088720560074,-2.417445182800293,1.4230751991271973,3.275460958480835,-3.2160706520080566,0.180732861161232,-2.4599924087524414,1.4285202026367188,2.969291925430298,-3.058105945587158,0.11507629603147507,-2.0270473957061768,1.2112388610839844,3.29184627532959,-2.661710500717163,0.08520117402076721,-2.2672674655914307,1.8509360551834106,2.4724228382110596,-2.363157033920288,-0.05401499941945076,-2.380610942840576,-1.261290192604065,-2.6835134029388428,1.687881588935852,0.11679524928331375,1.679574966430664,-1.4449571371078491,-2.578199625015259,2.3745458126068115,0.19399359822273254,1.294382929801941,-1.627397894859314,-2.478987216949463,2.023489236831665,0.14088492095470428,1.2498563528060913,-2.790104627609253,-2.0450751781463623,2.338383436203003,0.08296597003936768,1.9432671070098877,-0.6365935802459717,-3.0214333534240723,1.599118709564209,0.16191647946834564,2.011099100112915,-1.2873166799545288,-0.2419133484363556,0.12329120188951492,-0.05429215729236603,0.7107496857643127,-1.1475253105163574,-0.6663509011268616,0.608735203742981,0.05989965423941612,0.7129874229431152,-0.8588389158248901,0.0027225203812122345,0.42902854084968567,-0.05365617573261261,0.19117611646652222,-1.7331372499465942,0.6188666820526123,-0.31815293431282043,0.16795486211776733,0.8567501902580261,-1.149161458015442,-0.1949462592601776,0.053183555603027344,0.125017911195755,0.670989453792572,-0.07903741300106049,-2.2327775955200195,1.1795616149902344,-0.06734030693769455,0.7112874984741211,-0.2869389057159424,-2.695693016052246,1.0693578720092773,0.25623393058776855,1.1786797046661377,-0.7236499190330505,-2.2006092071533203,0.8902426362037659,0.17001160979270935,1.1417763233184814,-1.5630959272384644,-1.7035537958145142,1.9292210340499878,-0.052879538387060165,1.248378038406372,0.6845706105232239,-2.9210569858551025,1.1853563785552979,0.2513446807861328,0.8503131866455078,1.491965413093567,0.9863317012786865,-1.6126338243484497,0.14412140846252441,-1.5189342498779297,1.8248984813690186,1.918723702430725,-2.7146525382995605,-0.07565836608409882,-1.753129243850708,0.8633653521537781,3.326843738555908,-2.6189446449279785,-0.10478641837835312,-1.873932957649231,0.8807449340820312,3.3540399074554443,-2.947697162628174,-0.07732594758272171,-2.0153536796569824,1.6290994882583618,1.2754614353179932,-1.7601373195648193,0.14932265877723694,-1.4221117496490479],[0.05990436300635338,-0.5799420475959778,0.009499907493591309,0.012983931228518486,-0.02415676787495613,-0.02989811636507511,0.5317549109458923,-0.3956277668476105,-0.0485788956284523,-0.4172700047492981,0.3202195465564728,-0.030211271718144417,0.07638175040483475,-0.07732276618480682,-0.9741131663322449,-0.6997421979904175,0.9601384401321411,-0.7984133362770081,-0.02471693605184555,-0.13445042073726654,0.3533422350883484,0.2566255033016205,-0.22063621878623962,-0.10889255255460739,-0.9204186201095581,0.1701487898826599,-1.029392123222351,0.17158257961273193,0.19570539891719818,-0.06551048904657364,-0.3105502426624298,-0.9194815158843994,0.5176246762275696,-0.1590568870306015,0.2590181827545166,-0.26998257637023926,-0.48353880643844604,-0.008856125175952911,-0.11518530547618866,0.15265439450740814,-1.5664184093475342,0.7918425798416138,0.02279949188232422,-0.040002889931201935,0.3917985260486603,-0.9091659188270569,0.07337265461683273,0.16757529973983765,0.12161748856306076,0.3204553425312042,-0.23028945922851562,-0.8823766112327576,-0.2193605750799179,-0.15134704113006592,1.005174994468689,0.4044319987297058,-0.5849336981773376,-0.16597722470760345,0.007833054289221764,-0.28231507539749146,0.4091954827308655,0.46274036169052124,-0.3972189128398895,0.05122043192386627,-0.8209359049797058,-0.035809583961963654,-0.39274224638938904,1.163451075553894,-0.04967271164059639,-0.9969687461853027,0.24264304339885712,-0.009035849012434483,-0.8807827234268188,0.08536811918020248,0.5021152496337891,0.9344861507415771,-0.9746128916740417,-0.5777778029441833,-0.1740020364522934,0.3648974597454071,0.702261209487915,0.23119257390499115,-0.7391095757484436,-0.03841866925358772,-0.4218505024909973,-0.2742714285850525,0.019870152696967125,0.44456666707992554,0.017249897122383118,-0.8893865942955017,-0.3894340693950653,2.4884603023529053,0.4403940737247467,-0.12484077364206314,-2.6893234252929688,0.8488242030143738,0.048057928681373596,0.05218547210097313,0.20123709738254547,-1.3661603927612305,0.3285941481590271,-0.9367605447769165,-0.08871427923440933,0.05325848236680031,0.1992555558681488,0.15960471332073212,-0.7361165881156921,-0.32618406414985657,-0.14909480512142181,0.41147735714912415,-0.19680611789226532,0.9088469743728638,-0.8055076003074646,-0.017272844910621643,-0.24005942046642303,-1.9043140411376953,0.504873514175415,-0.6698100566864014,0.11393532156944275,1.8326472043991089,-1.3494923114776611,0.026791224256157875,-0.11847628653049469,-0.05931323766708374,0.4687594771385193],[-3.4679348468780518,3.1696059703826904,0.44644695520401,-0.05847562476992607,-0.791675329208374,-1.6588854789733887,1.5635836124420166,1.335358738899231,-0.09843739122152328,-1.4894894361495972,-0.6504431962966919,0.5625494718551636,1.6193833351135254,-0.11771903187036514,-1.5007306337356567,-0.09820836037397385,1.4423116445541382,0.08524630963802338,0.1800653487443924,-1.5443699359893799,0.4886024594306946,0.9884191155433655,-1.2002151012420654,-0.06301393359899521,-0.3180462718009949,-1.7861822843551636,1.030112862586975,1.6785213947296143,0.1640329509973526,-1.3227943181991577,0.1570422500371933,0.3634515702724457,1.7214787006378174,-0.1511700600385666,-2.0520925521850586,-0.009243234060704708,-0.5632370710372925,-0.36101022362709045,-0.10750937461853027,0.5392432808876038,0.9022490978240967,-0.9985047578811646,-1.4986003637313843,-0.08609698712825775,1.3362098932266235,0.5356026291847229,-0.5493618249893188,-1.4955182075500488,-0.04652668163180351,1.3969697952270508,-0.5812987685203552,1.307913064956665,0.18447870016098022,-0.028380844742059708,-0.8889963626861572,0.9521795511245728,-0.10181669890880585,-0.8385452032089233,0.03368468955159187,-0.654917299747467,0.2588752806186676,-0.38692736625671387,-0.20592276751995087,0.2800624966621399,0.10521847009658813,0.6610594987869263,-0.3437751531600952,-1.1747479438781738,0.200735405087471,0.7939894795417786,0.4612874984741211,-1.3069318532943726,-0.14481502771377563,0.031462427228689194,0.8154882788658142,-0.013939143158495426,0.8929577469825745,-0.40920907258987427,0.07449133694171906,-0.5374271273612976,0.7405714392662048,-1.004523515701294,-0.6012645363807678,-0.09400112926959991,0.2905755639076233,0.5988487005233765,-0.8693649768829346,0.06331247836351395,0.15738335251808167,0.14792877435684204,0.5738769173622131,-0.9085153341293335,-0.2114299237728119,0.17255322635173798,0.2055904120206833,1.0029175281524658,-0.6530724763870239,-0.42242854833602905,0.17734657227993011,-0.16904327273368835,-0.5047465562820435,1.5979857444763184,-1.205122947692871,0.25336238741874695,-0.12248465418815613,0.7631632089614868,-1.4032542705535889,-0.5295401215553284,-0.09410799294710159,0.9488053917884827,0.35085850954055786,-1.4938809871673584,0.5126556158065796,-0.03144702687859535,0.8940887451171875,0.9493979811668396,-0.2218758761882782,-0.7223839163780212,0.09603535383939743,-0.12285341322422028,2.8165268898010254,-2.2100887298583984,-0.5529186129570007,-0.12948913872241974,-0.5992817878723145],[0.9764487743377686,-0.9803952574729919,-0.38351970911026,0.1708255559206009,0.10345587879419327,0.5803676843643188,-1.2722156047821045,-0.5021956562995911,0.048609089106321335,0.7375781536102295,1.2124698162078857,-1.2531206607818604,-0.6761990785598755,0.06575857102870941,0.3509300649166107,0.8963985443115234,0.33534079790115356,-1.2042092084884644,-0.136559396982193,0.05153084918856621,-1.9870308637619019,1.540574550628662,-0.21641315519809723,-0.1375006139278412,0.514220118522644,1.3542267084121704,-0.8630074262619019,-0.10861773043870926,-0.03397144377231598,-0.8752180337905884,0.7140625715255737,-1.3405275344848633,-0.0683552548289299,-0.15252679586410522,0.23835431039333344,0.9440485239028931,-0.8544270992279053,-0.7161814570426941,0.02193312719464302,0.5789740681648254,-0.522961437702179,1.0433980226516724,-0.7332521080970764,-0.025094764307141304,-0.14959312975406647,-2.5418238639831543,1.2019894123077393,1.0656641721725464,-0.10604657977819443,-0.15429499745368958,0.48609015345573425,-1.5050629377365112,0.7418423891067505,0.05926254391670227,0.42610597610473633,1.3644229173660278,-2.022664785385132,0.02748393453657627,0.022325370460748672,0.39904817938804626,1.4567080736160278,-1.6711061000823975,-0.1644631028175354,-0.017017513513565063,0.4122117757797241,0.6904245615005493,-0.3218415677547455,-0.12609194219112396,-0.23904944956302643,-0.325225830078125,-2.1763932704925537,1.6439838409423828,0.20171484351158142,0.018558181822299957,-0.23268428444862366,1.6634823083877563,-1.9398276805877686,-0.3744765520095825,0.12254059314727783,0.47515785694122314,1.7657939195632935,-1.2644950151443481,-0.7787865400314331,0.09570035338401794,0.5725864171981812,1.5782643556594849,-0.32356229424476624,-1.2272003889083862,0.0068860724568367004,-0.3742157816886902,0.2210405021905899,1.3062251806259155,0.1842590868473053,0.12831680476665497,-1.754908800125122,-2.320939540863037,1.3503507375717163,0.597779393196106,0.037784475833177567,0.1529361456632614,1.3021807670593262,-0.6218357086181641,-0.8815850615501404,-0.11486554145812988,-0.2651061713695526,0.6367000341415405,0.7823417782783508,-0.9817777276039124,-0.15288275480270386,-0.49577900767326355,-0.5076772570610046,1.1871798038482666,-0.5671674013137817,-0.10126805305480957,-0.7010815143585205,-2.2603604793548584,2.059216022491455,0.6213827729225159,-0.05768199265003204,-0.9151773452758789,-3.875492811203003,3.698373556137085,0.43569809198379517,0.11091174185276031,-0.847095251083374],[-0.4859766364097595,1.034740686416626,0.06429853290319443,0.07805480808019638,-0.7230792045593262,-0.6548245549201965,1.4358326196670532,-0.0788041353225708,-0.05125690624117851,-0.6801074147224426,-1.0196354389190674,0.5831171274185181,1.078168511390686,-0.140945702791214,-1.2227625846862793,-1.2236748933792114,2.7447760105133057,-0.18139773607254028,0.08928435295820236,-1.5003662109375,-3.3218741416931152,3.733167886734009,0.793070912361145,0.07155078649520874,-1.1507221460342407,-0.47622308135032654,-2.3179397583007812,1.1020619869232178,-0.009458217769861221,1.4445465803146362,-0.31261390447616577,-2.277402877807617,-0.14462262392044067,0.19967634975910187,2.47306489944458,-0.6264340281486511,-2.149505853652954,0.09331860393285751,-0.03774889558553696,2.013227939605713,-0.37427201867103577,-2.0840251445770264,-0.31656524538993835,-0.12667827308177948,2.1216201782226562,-1.97921621799469,0.3104010224342346,0.267266184091568,0.012432585470378399,1.1517658233642578,-2.8108625411987305,0.9625283479690552,1.1915167570114136,-0.044177573174238205,0.6615588068962097,-2.827039957046509,0.4491284191608429,1.7019175291061401,-0.19858810305595398,0.0791013240814209,-2.626978635787964,1.1210427284240723,0.9160754084587097,0.04033071547746658,0.633673369884491,-1.022100567817688,0.8834119439125061,0.8046107292175293,0.0495908260345459,-0.7105150818824768,-3.0128841400146484,2.055974006652832,-0.11690432578325272,0.1702958196401596,0.4401700496673584,1.5522325038909912,2.32646107673645,-2.1203927993774414,-0.18357089161872864,-2.1809422969818115,1.4935524463653564,1.9005018472671509,-2.1852951049804688,0.0251906905323267,-1.2240623235702515,1.2019375562667847,2.860969066619873,-2.359539270401001,-0.10015588253736496,-2.1476075649261475,2.396145820617676,0.38111886382102966,-2.5047693252563477,-0.005038275849074125,-0.6043076515197754,-0.4900127947330475,3.325265407562256,-1.7628147602081299,-0.1510602980852127,-1.2685377597808838,3.6457014083862305,-3.591787338256836,-0.3847305476665497,0.10786442458629608,0.18461045622825623,3.297452211380005,-3.394315004348755,-0.06288856267929077,-0.04552784562110901,-0.25075775384902954,3.1202573776245117,-3.3199727535247803,0.35768190026283264,-0.09245621412992477,-0.24061965942382812,4.27770471572876,-4.042768478393555,-0.2731013596057892,-0.0495426207780838,-0.3335333466529846,2.5537896156311035,-3.0783801078796387,-0.11138465255498886,-0.04342331737279892,0.1905139535665512],[-0.2221924513578415,0.7194443345069885,0.6486789584159851,0.04336697235703468,-1.5048459768295288,0.8753817081451416,-0.26644426584243774,-0.8659135103225708,0.15965647995471954,0.17156901955604553,1.3840560913085938,-0.8463795781135559,-0.9723448753356934,0.17408832907676697,0.17092348635196686,0.15527863800525665,-1.0460028648376465,-0.06045285239815712,0.15667423605918884,0.3950032591819763,0.6675288677215576,-0.37336838245391846,-0.13926155865192413,0.06667628139257431,-0.6192376017570496,-1.639473795890808,1.7352535724639893,1.366851568222046,-0.14261078834533691,-1.7446962594985962,1.1373865604400635,0.15552663803100586,-1.2044159173965454,0.13184887170791626,0.009633186273276806,0.890462338924408,-0.8974384665489197,-0.43758970499038696,-0.014858242124319077,0.14575223624706268,0.48151999711990356,-0.5653836727142334,0.07464943826198578,-0.14177300035953522,-0.2398679256439209,0.1979738175868988,-0.5477807521820068,0.24831952154636383,0.09160178154706955,0.2934521436691284,-2.2275679111480713,1.2579576969146729,1.3995734453201294,-0.1704411655664444,-0.7904691696166992,1.2542517185211182,-0.11933853477239609,-1.0115482807159424,-0.09033297002315521,-0.2207164466381073,0.43324148654937744,-0.026633653789758682,-0.6744086742401123,0.35470476746559143,0.33835428953170776,0.23783981800079346,-0.2786014974117279,-0.4884506165981293,0.04751497507095337,0.13160058856010437,0.7235509753227234,-0.9289577603340149,0.16417548060417175,-0.07753068208694458,-0.2697383761405945,-1.2432690858840942,0.5517717599868774,1.111636996269226,0.11522550880908966,-0.6435705423355103,0.506502091884613,0.7550995349884033,-0.6696197390556335,0.2071133404970169,-0.6808220744132996,0.6625229716300964,0.45644646883010864,-1.5360655784606934,-0.043504200875759125,0.09028947353363037,0.4500923454761505,-1.0723408460617065,0.07777412980794907,0.09348902106285095,0.49738606810569763,-0.6217949390411377,0.5417696833610535,-0.49133026599884033,0.2920977771282196,0.6723150610923767,-1.567336916923523,0.09548817574977875,1.2648282051086426,0.12376745045185089,-0.39139091968536377,-0.6874822378158569,0.34664660692214966,0.6136611700057983,0.04960618168115616,-1.00324547290802,-0.026800168678164482,0.30899015069007874,-0.05748292803764343,0.1492714136838913,-0.22715440392494202,-0.16461052000522614,0.005164080299437046,0.16436626017093658,-0.09525012969970703,0.5269051194190979,-0.7160491943359375,0.2254505306482315,-0.04192158579826355,-0.11082129180431366,0.23428671061992645],[0.20763400197029114,0.110230952501297,-0.471497505903244,-0.050845351070165634,-0.17902030050754547,-1.3322817087173462,0.6509035229682922,-0.3808380663394928,-0.14432311058044434,0.40039023756980896,-0.1302492618560791,1.5396733283996582,-0.8352091908454895,0.12336000800132751,-1.0115368366241455,-1.705031394958496,1.925078272819519,0.9440992474555969,0.1446785181760788,-1.6998454332351685,-1.2262486219406128,1.9432045221328735,0.6559977531433105,0.03288436308503151,-1.6649829149246216,2.5341269969940186,-1.6156712770462036,-0.8100178837776184,-0.07297038286924362,-0.7532908320426941,-0.593470573425293,1.7743771076202393,-0.30637192726135254,-0.046479180455207825,-1.2290804386138916,1.9422218799591064,-0.7706550359725952,-0.38768914341926575,-0.1575096696615219,-1.434549331665039,-0.04522243142127991,-0.06494151800870895,0.3227558732032776,-0.18215255439281464,-0.4371963441371918,1.1206012964248657,-1.0936788320541382,0.6125778555870056,-0.06696660816669464,-0.5247238278388977,0.2140263319015503,-2.2603442668914795,0.6285325884819031,0.04576119780540466,0.6676396131515503,-1.7600820064544678,-0.5390669703483582,2.0744287967681885,0.048831384629011154,-0.06197338178753853,0.5156688094139099,-2.0360724925994873,0.9537481665611267,0.07209742069244385,0.32744455337524414,-0.6221333742141724,-0.5363408327102661,0.2719465494155884,-0.011432415805757046,0.4195083975791931,0.02311180904507637,-1.3088078498840332,0.73965984582901,0.15580202639102936,0.3126761019229889,0.7645182609558105,-1.0031520128250122,0.06058260425925255,-0.06376520544290543,0.09332795441150665,-0.7115727066993713,1.5910511016845703,-0.7213422656059265,0.10941371321678162,-0.559215784072876,0.7566796541213989,0.008355507627129555,-0.4057402014732361,-0.02913660556077957,-0.6434475779533386,-0.28648635745048523,0.005443851463496685,-1.3205819129943848,-0.036542970687150955,0.9642513394355774,0.08424839377403259,0.881696343421936,-0.7952858805656433,-0.08176872879266739,-0.7091676592826843,-0.029972771182656288,-0.40021368861198425,-0.2156910002231598,-0.17740494012832642,0.17002418637275696,-0.9283498525619507,0.6392359733581543,-0.8611034154891968,-0.1197466179728508,0.239980548620224,-0.11077743023633957,-0.5956873297691345,0.2124621719121933,0.19112780690193176,0.004614963196218014,-0.24067437648773193,-0.05246879160404205,-0.7149653434753418,0.11506985127925873,0.7367526888847351,-0.4678683578968048,0.4375346004962921,-0.8387972712516785,-0.13237521052360535,0.14653503894805908],[-0.9027509093284607,0.3291587233543396,0.6492739915847778,0.025044528767466545,0.7325490713119507,-2.512240409851074,0.7505688667297363,1.705590009689331,-0.18578411638736725,1.020983338356018,-2.145329713821411,0.6227668523788452,0.9085403084754944,0.12440753728151321,1.3085081577301025,-2.8021318912506104,1.0964213609695435,1.3372858762741089,-0.17296528816223145,1.010693073272705,-3.760932207107544,2.8996686935424805,1.82740318775177,-0.19851154088974,0.0812675803899765,0.7894237041473389,