window.trainingData = `{"type":"NeuralNetwork","sizes":[125,50,30,8,4],"layers":[{"weights":[],"biases":[]},{"weights":[[1.696449637413025,-0.38741588592529297,-0.7262093424797058,-0.15689411759376526,-0.5244042277336121,0.25416502356529236,1.890974760055542,-1.3409422636032104,-0.06621064245700836,-0.9148228764533997,-0.6171549558639526,-0.8626990914344788,1.125685691833496,-0.03182188421487808,0.40253981947898865,0.8214340209960938,-2.035651922225952,0.26127636432647705,-0.1519649177789688,1.1156524419784546,1.6673797369003296,2.31701922416687,-1.4852681159973145,0.11134573072195053,-2.8505659103393555,-0.46031510829925537,-0.007295777555555105,0.3510996997356415,0.11157137900590897,0.28800544142723083,-0.10850998759269714,0.3187069296836853,0.1892009824514389,-0.032856740057468414,-0.25553014874458313,-0.48762184381484985,-0.4145357310771942,0.9304570555686951,-0.15485262870788574,-0.036634527146816254,-0.6408534049987793,-2.0792670249938965,2.0298027992248535,0.10189225524663925,0.6217994689941406,1.883479118347168,0.5815961956977844,-0.1223885789513588,-0.14778828620910645,-1.99028742313385,-0.182292640209198,-1.1934362649917603,0.9149738550186157,-0.024691687896847725,0.22935448586940765,-0.4611976444721222,1.5881797075271606,-0.8087810277938843,0.11916542053222656,-0.031682293862104416,-1.131906509399414,-0.7702168822288513,1.0615179538726807,-0.10756562650203705,0.6600359678268433,0.21897508203983307,-2.3637945652008057,0.9203523993492126,0.07626303285360336,1.2425826787948608,1.26766836643219,2.6700940132141113,-1.9542427062988281,-0.14512354135513306,-1.9167696237564087,-0.7124531865119934,-0.9052909016609192,0.4312480688095093,0.03310893848538399,0.8915437459945679,-0.04465816542506218,-0.6252651214599609,0.1867402046918869,0.08540079742670059,0.6024539470672607,0.000604494649451226,-1.8704944849014282,1.0918902158737183,-0.0664387121796608,1.0305602550506592,0.5476789474487305,-2.6768643856048584,0.8127481937408447,0.0053989519365131855,1.0944472551345825,1.5910924673080444,3.5165700912475586,-2.746375799179077,-0.17284098267555237,-2.3923373222351074,-0.32394447922706604,2.239551305770874,-1.13425874710083,-0.14311009645462036,-0.69000244140625,-1.853784203529358,3.083770751953125,-0.1170295849442482,-0.07989253103733063,-1.160740613937378,-1.0136868953704834,-1.133879542350769,1.4173214435577393,-0.017839420586824417,0.7446317672729492,2.4537851810455322,-2.39629864692688,-0.7875329256057739,-0.17626872658729553,0.8995037078857422,1.2184975147247314,2.200275182723999,-0.9477847814559937,0.05724049359560013,-2.459259510040283],[0.1642659306526184,0.1454523354768753,-0.028805771842598915,-0.11099234968423843,0.4546913504600525,-0.14312691986560822,-0.15663239359855652,0.3339158296585083,0.18685738742351532,0.7655788660049438,0.07485142350196838,-0.26449286937713623,0.16829858720302582,-0.04847800359129906,0.7245315313339233,0.0785154476761818,-0.19333384931087494,0.4807886779308319,-0.10440680384635925,0.016017094254493713,0.7447574138641357,-0.36859631538391113,0.22347576916217804,0.1777789443731308,0.5356202125549316,-0.2892198860645294,0.368736207485199,-0.2931964695453644,-0.14573748409748077,0.27370485663414,0.05933090299367905,0.17855048179626465,0.14333048462867737,0.14963950216770172,0.3780161440372467,-0.4219743311405182,-0.20590411126613617,0.45537325739860535,0.09050817042589188,0.9039680361747742,-0.10334614664316177,-0.23648589849472046,0.20517371594905853,-0.1682111620903015,0.247331902384758,-0.004241884220391512,0.3351866900920868,0.07519799470901489,-0.1924140900373459,-0.15424314141273499,0.1304476261138916,-0.30312612652778625,0.31596890091896057,0.0556938610970974,0.30652567744255066,0.2069251388311386,-0.010447636246681213,0.6884541511535645,0.06406088918447495,-0.38810068368911743,0.05819912627339363,0.94355708360672,0.5156912207603455,0.15906429290771484,-0.8682528138160706,0.015757346525788307,0.5405178666114807,-0.03213256597518921,0.034818023443222046,0.25506913661956787,-0.19912561774253845,-0.36768263578414917,0.6502135396003723,0.02366979606449604,0.24990428984165192,-0.3412262201309204,0.6389599442481995,0.24020583927631378,-0.0683261901140213,0.04420485720038414,-0.5304843187332153,0.10460200160741806,-0.1084233745932579,-0.005233834497630596,1.3114113807678223,0.017753245308995247,-0.5649692416191101,0.05996418371796608,-0.11773769557476044,1.2265625,0.056297216564416885,-0.44752731919288635,-1.22024667263031,-0.1848817765712738,2.294748067855835,-0.04585260897874832,0.5623083114624023,-0.12559781968593597,0.05562419816851616,0.47484907507896423,-0.2900083363056183,0.41576284170150757,0.34732091426849365,-0.09009107947349548,-0.04486243426799774,-0.21064889430999756,0.05287783965468407,0.6587120294570923,0.1025782898068428,0.280632346868515,-0.2712191939353943,-0.15411531925201416,0.8118972182273865,-0.17809638381004333,-0.24547423422336578,0.4526955187320709,-0.008863106369972229,0.3912679851055145,-0.13148513436317444,-0.37065669894218445,-0.2710007429122925,-0.029247531667351723,0.27536362409591675,-0.07883679121732712,0.27845892310142517],[-0.027410514652729034,-0.4212089478969574,-0.1188531368970871,0.19840073585510254,-0.3655879497528076,-0.7137395739555359,0.30341750383377075,0.021920371800661087,0.13057471811771393,-0.700378954410553,-0.5317665338516235,0.4657655954360962,-0.08366696536540985,-0.19779691100120544,-0.12881003320217133,-1.275927186012268,0.9012472629547119,0.38822072744369507,-0.17671583592891693,-0.7746797800064087,-1.4327160120010376,1.7915290594100952,0.2848990857601166,0.12094473093748093,-1.1468920707702637,0.4181198179721832,-0.5118631720542908,0.10257646441459656,-0.18601112067699432,-0.7517937421798706,-0.5090367794036865,-0.19536779820919037,-0.5389273166656494,-0.045582354068756104,0.41941404342651367,0.43272653222084045,0.10909271985292435,0.36190730333328247,0.10414823144674301,-1.3741278648376465,-0.591255247592926,0.3128190040588379,1.3132566213607788,-0.14668183028697968,-1.6597641706466675,-1.39231538772583,0.6657248735427856,0.6455531120300293,-0.1390664428472519,-1.007941722869873,0.04404648765921593,-0.5637468099594116,-0.3976796865463257,-0.06618060916662216,0.17661243677139282,-0.8516314625740051,-0.2846411466598511,-0.086372010409832,0.07777245342731476,0.47519516944885254,-0.26090359687805176,-0.889626681804657,0.4522620439529419,0.15247446298599243,-0.15663428604602814,1.0078181028366089,0.6081583499908447,-0.5879746079444885,0.1926928162574768,-1.7390315532684326,-0.9897217750549316,0.7405785918235779,-0.047862064093351364,0.1441485583782196,-0.7939198613166809,0.4379725456237793,-0.010994763113558292,-0.8332831263542175,-0.17380404472351074,-0.3992941677570343,0.6210916042327881,0.3466982841491699,-0.3978118896484375,-0.1829281896352768,-1.3262808322906494,0.2103666216135025,-0.20601944625377655,0.557548999786377,-0.19359377026557922,-0.9701103568077087,0.3072497546672821,0.16408374905586243,-0.11237001419067383,-0.12358855456113815,-1.0976064205169678,-1.0881237983703613,0.20393499732017517,0.32517319917678833,0.19405262172222137,-0.3323729634284973,1.2249118089675903,-1.4299955368041992,0.2452380359172821,0.002590662334114313,-0.9694763422012329,0.6440774202346802,-1.0922298431396484,0.2956881821155548,-0.04291421175003052,-0.9372971653938293,0.6135553121566772,-1.2826591730117798,0.5090227127075195,0.09528567641973495,-0.3964387774467468,0.5254198908805847,-0.6511950492858887,-0.16664567589759827,0.12502457201480865,-0.8266520500183105,-0.25546085834503174,0.09722945094108582,-0.4291590750217438,-0.05783228203654289,-0.8750245571136475],[2.5348317623138428,-0.5028359293937683,-1.0207027196884155,-0.12326297909021378,-0.9917471408843994,3.3386147022247314,-2.566363573074341,-0.13861499726772308,0.1350974142551422,-0.442468523979187,3.198643445968628,-2.270204544067383,-0.9561952352523804,0.0024794654455035925,-0.030542729422450066,2.7785232067108154,-1.5349632501602173,-0.9678932428359985,0.03791949898004532,-0.6881022453308105,2.1557204723358154,-1.5882842540740967,-1.2940423488616943,-0.17474837601184845,0.5931359529495239,0.757350504398346,1.3479231595993042,-1.6161158084869385,0.0798654556274414,-0.24049438536167145,0.15869693458080292,-0.4671323597431183,0.1785167157649994,-0.18223989009857178,-0.19875679910182953,0.2800774574279785,-0.2417425811290741,-1.1166014671325684,-0.08351116627454758,0.5188152194023132,0.8497220277786255,-0.3927609324455261,-0.3369410037994385,-0.18669958412647247,-0.45746874809265137,1.1868927478790283,0.6210557222366333,-1.8629844188690186,-0.04852749779820442,0.12757954001426697,-0.8254214525222778,1.8826453685760498,-1.470367670059204,-0.049521297216415405,-0.2230091691017151,-0.848924458026886,-0.6638385057449341,1.0686843395233154,0.06599176675081253,0.147754967212677,0.6734620928764343,-0.03692257031798363,-0.9031627774238586,0.033235449343919754,0.06279939413070679,-0.7634438872337341,-0.775669515132904,1.0240312814712524,0.3023555278778076,-0.17052651941776276,0.2567126154899597,1.8227200508117676,-1.2983235120773315,0.05848195031285286,-0.9481673836708069,0.3595292866230011,0.4609537124633789,-0.9844697117805481,-0.1268785446882248,-0.267694890499115,-1.9765493869781494,-0.6973312497138977,0.5561317801475525,0.005133793223649263,2.164412021636963,0.7374110817909241,1.4922664165496826,-0.9921764135360718,0.005324609577655792,-1.7403217554092407,-0.15301626920700073,-2.2553913593292236,0.7481865882873535,0.08067990839481354,1.141680359840393,-0.7993205785751343,1.9111337661743164,-0.1778954118490219,0.024362612515687943,-0.8943923115730286,-0.3101629316806793,2.48624587059021,-1.1806035041809082,0.019939057528972626,-1.1869826316833496,-1.4981476068496704,0.39845144748687744,1.0034501552581787,-0.025035833939909935,-0.3490293025970459,1.226602554321289,2.0051679611206055,-0.8040735721588135,-0.06448023021221161,-2.5458362102508545,-1.7782868146896362,0.024018244817852974,-0.42141813039779663,-0.15793205797672272,1.9922174215316772,-1.5647850036621094,-0.8861963152885437,0.48430994153022766,0.14487290382385254,1.3108490705490112],[0.9972282648086548,1.6889044046401978,-1.6873122453689575,-0.12481789290904999,-1.9366060495376587,-2.0121915340423584,-2.9692890644073486,1.999075174331665,-0.19150742888450623,1.9956315755844116,1.0314068794250488,0.9610601663589478,-1.615138053894043,-0.18224136531352997,-1.3603451251983643,-0.8774598240852356,-3.019878387451172,2.0427908897399902,-0.09016533941030502,1.0926506519317627,1.6712820529937744,-0.002009578049182892,-1.3623552322387695,-0.16039608418941498,-0.8069601058959961,0.6947184801101685,1.8606009483337402,-1.9547897577285767,-0.008849555626511574,-1.6607017517089844,-2.55816912651062,-3.0016324520111084,3.078792095184326,0.040939297527074814,1.9882348775863647,0.7309032678604126,1.1141732931137085,-1.5777158737182617,0.1140391156077385,-0.8990534543991089,-1.9374096393585205,-3.2045888900756836,2.2698967456817627,0.050024233758449554,2.07321834564209,1.676798939704895,0.41867291927337646,-1.622153401374817,0.03107788786292076,-1.5112956762313843,-0.3487723767757416,3.8852436542510986,-1.4813954830169678,0.170242577791214,-2.626708984375,-4.100196838378906,-1.9002794027328491,2.710747480392456,0.1778479665517807,2.6345038414001465,0.3552123010158539,2.9362781047821045,-2.0214333534240723,-0.24055276811122894,-1.8552651405334473,-3.62674880027771,-2.3742966651916504,2.7547519207000732,-0.2552559971809387,2.6375515460968018,0.6862161159515381,2.5719778537750244,-2.321873188018799,-0.1523391604423523,-1.6062780618667603,0.6059191226959229,1.6368392705917358,-1.659111499786377,0.030537676066160202,-1.1785472631454468,-2.6107707023620605,-2.1079506874084473,2.150468349456787,-0.17590782046318054,1.894854187965393,0.7709294557571411,2.1641056537628174,-2.3603498935699463,0.19487743079662323,-1.2959495782852173,-2.632620334625244,-2.4172019958496094,2.1539995670318604,0.13045936822891235,2.258979082107544,-0.3539749085903168,2.4113478660583496,-1.5554431676864624,-0.17197507619857788,-0.830886721611023,0.591747522354126,1.2857306003570557,-0.6635208129882812,-0.1500931680202484,-1.7511610984802246,-1.877427577972412,-2.0436227321624756,1.2593337297439575,-0.1997717320919037,2.202954053878784,0.36873263120651245,0.6531141996383667,-1.3473881483078003,0.14156986773014069,-0.34225717186927795,-1.9588080644607544,-2.23622989654541,2.1706950664520264,0.05680064857006073,1.1233582496643066,0.2036583125591278,0.8625842332839966,-0.5568730235099792,0.13198620080947876,-0.843450665473938],[0.036881934851408005,-2.6188204288482666,1.3072960376739502,-0.18570980429649353,0.7819838523864746,-0.39853808283805847,-2.729851484298706,2.2807135581970215,0.023076608777046204,0.24131770431995392,0.3251461088657379,-1.749697208404541,1.9660844802856445,0.15574149787425995,-0.5637754797935486,-0.04647960886359215,-2.4455161094665527,2.483708143234253,-0.16016706824302673,-0.3815946877002716,0.6884334087371826,-2.317002058029175,1.3265475034713745,0.04875292629003525,0.19273270666599274,-0.25129497051239014,-0.05484737083315849,0.20740753412246704,-0.14852024614810944,-0.1872728168964386,-0.15911230444908142,-0.6149354577064514,0.6150897741317749,-0.09592866152524948,-0.5793931484222412,0.09337812662124634,0.20875497162342072,0.2712167203426361,0.05122506991028786,-0.8233205676078796,-0.49531635642051697,-0.5812829732894897,1.209240198135376,0.17710700631141663,-0.5693894624710083,-0.6816579699516296,-0.6090839505195618,0.7714182734489441,0.13602501153945923,0.2618948221206665,-0.6758370399475098,0.5782176852226257,0.4196762442588806,0.17692820727825165,-0.5404291152954102,-0.6883260011672974,0.4422689378261566,-0.14123249053955078,-0.05135776102542877,0.13015083968639374,-0.2754826545715332,0.36153048276901245,-0.8407707810401917,-0.17766021192073822,0.826094925403595,-0.21873514354228973,1.420211911201477,-0.8168787360191345,-0.10767780244350433,-0.584295928478241,0.042657170444726944,0.5676498413085938,-0.39264655113220215,-0.13762350380420685,-0.507350504398346,-0.4935525953769684,0.38395434617996216,0.1425481140613556,0.1746387779712677,-0.09372878074645996,-1.003223180770874,0.9759026765823364,-0.3554367125034332,-0.1314326673746109,-0.19501043856143951,-0.254141241312027,1.5139931440353394,-0.4744814336299896,0.11308080703020096,-0.8738382458686829,-0.2745795249938965,0.8984904289245605,-0.5150752067565918,-0.2061627209186554,-0.3435550630092621,-0.040742043405771255,1.1399345397949219,-0.7211277484893799,0.02327311411499977,-0.668774425983429,-1.4160130023956299,1.2300336360931396,0.299249529838562,-0.13400374352931976,-0.4191911816596985,-1.5174435377120972,1.1542391777038574,0.12878692150115967,-0.10944230854511261,-0.4249337911605835,-1.0185716152191162,1.188380479812622,0.5490328669548035,-0.052182141691446304,-0.6984702944755554,-0.9396231174468994,1.9895278215408325,-1.3744884729385376,0.07935234904289246,-0.17921164631843567,-0.09621351957321167,0.6394394040107727,-0.7031513452529907,-0.07352149486541748,-0.39942046999931335],[0.8221091032028198,-0.5533947348594666,-0.36953121423721313,0.17332497239112854,-0.6226115822792053,-0.9683293104171753,1.9309996366500854,-0.9213558435440063,-0.020968662574887276,-0.48911252617836,-2.0560240745544434,0.8080652952194214,0.24820804595947266,-0.009810770861804485,0.3310023248195648,-1.4729132652282715,-0.3506968915462494,0.28342846035957336,0.03479457274079323,0.6340113282203674,-1.1106473207473755,-0.052103787660598755,-0.32733961939811707,0.038099050521850586,0.7710574269294739,1.6987550258636475,-2.569265365600586,0.09093724191188812,-0.02620251476764679,-0.5589595437049866,-0.2606505751609802,0.49072587490081787,-0.34121963381767273,-0.02781311608850956,-0.5024572014808655,-0.8427177667617798,0.9700180292129517,-0.16132092475891113,0.19590412080287933,-0.776451587677002,-0.15206244587898254,-0.5766788125038147,-0.17848822474479675,0.08842267841100693,0.2654930651187897,-1.1135584115982056,1.0642831325531006,-1.5608922243118286,0.18429942429065704,1.3219313621520996,2.0449769496917725,-2.749215602874756,-0.049441806972026825,-0.02306581288576126,0.09561856091022491,-0.8394779562950134,-0.08632078766822815,0.4717710614204407,-0.06475621461868286,-0.0025508359540253878,-0.6558889746665955,-1.142574429512024,0.7571915984153748,0.1394968032836914,0.2678188979625702,0.6942693591117859,-0.8840640783309937,-0.8308534026145935,0.2123856395483017,0.5319435000419617,-0.39907169342041016,1.091834545135498,-1.2815790176391602,0.015195122919976711,0.23006439208984375,3.2558071613311768,-3.4168713092803955,-0.048477448523044586,-0.14706648886203766,-0.21793687343597412,1.565528154373169,0.2615063786506653,-1.2595821619033813,0.07759495079517365,-1.3579922914505005,0.3406694531440735,0.19807612895965576,0.4749852418899536,0.12127502262592316,-1.8746333122253418,-1.4095077514648438,2.719015598297119,-0.47954845428466797,-0.1836530715227127,-1.5911973714828491,-2.000683546066284,0.4486844837665558,1.0293081998825073,0.2257789671421051,0.04272009804844856,2.1101737022399902,-1.644295573234558,-0.5544705390930176,0.16401849687099457,-0.8528817892074585,-1.0639389753341675,2.1708827018737793,-0.7195206880569458,0.10821046680212021,-1.2761725187301636,-2.0182557106018066,-0.14937347173690796,2.245429754257202,-0.0873863622546196,-0.6424878835678101,-1.5523903369903564,0.23353026807308197,-0.2823438346385956,0.010875008068978786,0.8415015339851379,-1.6824283599853516,1.9082103967666626,0.738473117351532,-0.1875964105129242,-1.4163758754730225],[5.3132734298706055,-3.149221897125244,-1.0672080516815186,0.14551226794719696,-1.4907125234603882,2.111694812774658,-0.328669011592865,-1.4995834827423096,0.09346728771924973,-0.8560174107551575,0.24442996084690094,2.2095186710357666,-1.4181190729141235,0.06761079281568527,-1.2082189321517944,-3.6603333950042725,3.1673436164855957,-0.24390074610710144,-0.06502808630466461,0.34875521063804626,-2.557677745819092,-1.4638993740081787,2.081490993499756,0.15792272984981537,1.7708134651184082,4.5086445808410645,-4.020251274108887,0.03733096644282341,-0.0331888347864151,-0.7555270791053772,1.7656396627426147,0.6414543390274048,-1.0667288303375244,0.1380358636379242,-1.4457184076309204,-2.935936689376831,3.801584482192993,-1.0959386825561523,-0.01641969196498394,-0.3929901421070099,-3.2509536743164062,-0.44034233689308167,1.4168652296066284,0.09399935603141785,1.87472665309906,-2.3518686294555664,-0.7448068857192993,0.7828189134597778,-0.08058004826307297,1.43121337890625,4.867072105407715,-3.579341411590576,-0.20525500178337097,0.11208424717187881,-1.7022018432617188,1.5878902673721313,0.5164165496826172,-1.2505303621292114,0.14250651001930237,-1.2574365139007568,-2.928327798843384,3.595034599304199,-0.6352529525756836,-0.03360047936439514,-0.38093578815460205,-3.007214069366455,-1.4635552167892456,2.295600414276123,-0.10438448935747147,1.7639024257659912,-1.9207088947296143,-0.8886380195617676,1.3857831954956055,0.12322556972503662,1.135135293006897,4.074687480926514,-3.214326858520508,-1.1746841669082642,0.11249139904975891,-0.588512122631073,0.6324676871299744,1.0284042358398438,-0.874309778213501,0.013542882166802883,-1.4625259637832642,-2.6513144969940186,3.1710469722747803,-0.9744044542312622,-0.08436395227909088,-0.17449325323104858,-4.423626899719238,1.5027323961257935,1.2131669521331787,-0.018132543191313744,1.3002891540527344,-1.9677698612213135,-1.6073395013809204,1.832771897315979,-0.02319270931184292,1.5817220211029053,3.8812267780303955,-2.7638847827911377,-0.6871679425239563,-0.08251888304948807,-0.42122331261634827,1.6313120126724243,0.6666111350059509,-1.159520149230957,-0.1480325311422348,-1.5529067516326904,-2.849236488342285,3.3892788887023926,-1.0926636457443237,-0.013559000566601753,-0.018344253301620483,-4.123781681060791,1.1366887092590332,0.9242128729820251,0.003975946921855211,1.3948265314102173,-2.783442258834839,-1.0477347373962402,1.5098787546157837,0.03645768389105797,2.0339646339416504],[1.9068684577941895,1.2903437614440918,-1.4039294719696045,0.04571109265089035,-1.8224031925201416,0.924277663230896,-0.7163655757904053,-0.6881104707717896,-0.03522590920329094,0.9956844449043274,1.6762539148330688,-0.7646846175193787,-0.18460160493850708,-0.17197777330875397,-0.7943018674850464,1.8235501050949097,-0.6078688502311707,-0.2891610860824585,0.05249859765172005,-0.8687756657600403,1.2805697917938232,-1.2534501552581787,-0.5757880210876465,-0.09607026726007462,0.1476489007472992,0.1843671202659607,1.0087946653366089,-0.5794446468353271,-0.17473050951957703,-0.8525797724723816,0.20969288051128387,-1.3357641696929932,0.2180938422679901,0.12711398303508759,0.8785330057144165,0.07475141435861588,-1.0160712003707886,0.43303585052490234,-0.12249790132045746,0.4844186305999756,0.7283445596694946,-0.7227968573570251,0.43932247161865234,0.09279891848564148,-0.36839717626571655,0.0032828161492943764,-0.3935698866844177,-0.10301157832145691,-0.009049941785633564,0.4567945897579193,-0.33014973998069763,1.1706866025924683,-0.5110843777656555,0.11021658033132553,-0.23453964293003082,1.3504003286361694,-1.2759528160095215,-0.3162965774536133,-0.11948075145483017,0.2516884505748749,1.304372787475586,-2.048595905303955,0.38691648840904236,0.04320646449923515,0.14754818379878998,0.9090197682380676,-1.1933850049972534,0.3482704758644104,0.05503946915268898,0.13943113386631012,1.2145546674728394,-1.4910199642181396,-0.38217097520828247,-0.13847284018993378,0.5177538394927979,-1.473718523979187,1.6932902336120605,-0.28825658559799194,0.001622125506401062,-0.23911269009113312,2.3494551181793213,0.06386449933052063,-2.0344338417053223,-0.02998272143304348,-0.6401907801628113,2.611941337585449,-0.27966922521591187,-1.4554407596588135,-0.15024368464946747,-0.676032543182373,1.1269745826721191,-1.3584492206573486,-0.23533914983272552,0.18528956174850464,0.9116779565811157,1.8601652383804321,-0.1640653759241104,-0.8526145219802856,0.12059886008501053,-0.6025907397270203,-2.201500415802002,0.8053434491157532,0.24615707993507385,0.09356262534856796,0.930678129196167,-1.7300523519515991,3.2491886615753174,-0.6964120268821716,-0.005874854978173971,-0.5298968553543091,-1.0879372358322144,2.590930223464966,-0.26404619216918945,0.1344217211008072,-1.3875558376312256,-0.23551806807518005,0.44788506627082825,0.6933958530426025,0.04809985309839249,-0.6620826125144958,-0.5651641488075256,2.171373128890991,-0.22228750586509705,-0.10397551953792572,-1.17788565158844],[-0.32823777198791504,-0.5472894906997681,0.12696990370750427,0.010365006513893604,0.04988661780953407,-1.6518666744232178,0.6541917324066162,0.08839753270149231,-0.022381901741027832,0.061364781111478806,-4.286289691925049,4.459662914276123,-0.7485480308532715,0.029172202572226524,-0.12286883592605591,1.6852741241455078,-1.3491836786270142,-1.887809157371521,-0.16159942746162415,0.6799851059913635,-1.4335100650787354,3.181206703186035,-1.3801052570343018,0.01150504034012556,-1.1245176792144775,1.288956880569458,-1.2579071521759033,-0.5746873021125793,-0.12523294985294342,-0.11630723625421524,0.7839965224266052,-1.458013892173767,-0.1451270878314972,0.07409082353115082,0.01935020461678505,-3.624295473098755,4.7187724113464355,-0.7167158722877502,0.11318673938512802,-1.0723527669906616,3.5197010040283203,-0.9484352469444275,-3.7955615520477295,0.054596759378910065,0.6793908476829529,0.223741352558136,1.8693770170211792,-1.1052783727645874,0.1642378270626068,-1.9635858535766602,1.51363205909729,-0.7015774846076965,-0.7613966464996338,0.09382006525993347,-0.8081058859825134,2.0617623329162598,-1.3642641305923462,-1.0017317533493042,0.008069509640336037,-0.32972976565361023,-2.736260414123535,3.872786283493042,-0.25089067220687866,0.08205687999725342,-1.3591471910476685,2.096646547317505,-1.9891999959945679,-1.1885675191879272,-0.07703067362308502,0.582973837852478,1.6476397514343262,-2.0609548091888428,0.6871353983879089,0.07472201436758041,-0.657400369644165,0.21970462799072266,-1.3865114450454712,0.1771477907896042,-0.14314080774784088,0.3099023699760437,-0.7997626662254333,-1.5361343622207642,1.0035059452056885,0.026241537183523178,0.733913004398346,-1.7985635995864868,-0.20219272375106812,0.5282813906669617,-0.005586361978203058,0.4763791859149933,1.4089503288269043,-1.7734941244125366,-0.32391417026519775,0.07164908945560455,-0.08376382291316986,1.1401169300079346,-0.3823781907558441,-0.8940965533256531,-0.03303323686122894,-0.42860105633735657,-0.20856063067913055,-0.684175431728363,-0.15247178077697754,0.14472106099128723,0.3462214171886444,-0.6927308440208435,0.03007671609520912,0.18216505646705627,0.10260460525751114,0.027351608499884605,0.05636773630976677,0.17050662636756897,-0.5825631618499756,-0.01480675395578146,-0.1600131243467331,0.3642548620700836,-0.8091597557067871,-0.5694575309753418,-0.1521262526512146,0.20424315333366394,0.34777119755744934,-0.291483074426651,-0.14140616357326508,0.0783144161105156,-0.696307897567749],[1.5626018047332764,-0.5833635926246643,-0.6811363697052002,-0.15371859073638916,-0.3953760862350464,1.0128828287124634,-0.581941545009613,-0.9592758417129517,0.17573541402816772,-0.14735747873783112,2.574772357940674,-0.34313973784446716,-1.260752558708191,-0.004716794937849045,-1.3700700998306274,3.4337375164031982,-0.31092479825019836,-1.7847410440444946,-0.16066141426563263,-1.730346441268921,0.41425997018814087,-0.7594391703605652,-0.39958426356315613,0.19923779368400574,0.30479708313941956,2.481506109237671,-1.5421099662780762,-0.5469818711280823,-0.12520582973957062,-0.9321020841598511,1.8490761518478394,-2.1456711292266846,-0.6428959369659424,-0.06976267695426941,0.677474856376648,0.7265135049819946,0.7104834914207458,-1.2454451322555542,-0.15745845437049866,-0.4535231590270996,3.026301383972168,1.2551100254058838,-3.267423629760742,-0.1397331804037094,-1.237570881843567,0.34536558389663696,-1.3190511465072632,-0.910525381565094,0.03943775221705437,1.0623341798782349,-0.059206459671258926,0.9586218595504761,-1.092904806137085,-0.19089476764202118,-0.5382488369941711,-1.4415438175201416,0.3971524238586426,-0.35192713141441345,0.011878457851707935,0.5520539879798889,-1.3759136199951172,0.37339138984680176,0.10888263583183289,0.15699855983257294,0.25934863090515137,0.21081840991973877,1.819676160812378,-2.1108720302581787,0.14267872273921967,-0.2298935204744339,0.5800351500511169,0.4277302026748657,-1.5010361671447754,-0.14319954812526703,0.00751009164378047,-1.0469543933868408,2.012071371078491,-0.31335827708244324,0.0008994996314868331,-1.3056392669677734,-0.9882270097732544,-0.6405673027038574,1.3143281936645508,-0.07107748836278915,0.013330474495887756,-0.8944616913795471,0.024015752598643303,0.19127662479877472,0.12292748689651489,0.0027869062032550573,-0.3679364025592804,-0.9044780731201172,0.2962493598461151,-0.18187955021858215,0.6597005724906921,0.5516788959503174,2.1187994480133057,-1.224611520767212,0.1897275298833847,-1.5327545404434204,-1.2059836387634277,-0.6012246012687683,0.7326819896697998,0.13566075265407562,0.8901888132095337,-1.1896580457687378,-0.2833990156650543,0.128890261054039,0.10411562770605087,0.6803097128868103,-0.5061156749725342,-0.7083523273468018,0.6384658217430115,0.14498668909072876,-0.12489762157201767,0.10498049110174179,-1.2669357061386108,0.5786179900169373,-0.14614543318748474,-0.024161994457244873,-1.1142185926437378,1.385183572769165,-0.15339988470077515,-0.161726713180542,-0.6632625460624695],[0.013285117223858833,0.707815945148468,0.3631018102169037,-0.029837382957339287,-1.1339560747146606,1.116310715675354,1.320404291152954,-0.184240460395813,0.08869392424821854,-2.073357343673706,0.9297354221343994,-1.173538088798523,-0.1944098323583603,-0.13632287085056305,0.6490350365638733,0.001715520047582686,-1.141183853149414,0.06254299730062485,-0.0604727603495121,1.0986320972442627,0.1370716542005539,-0.7428593635559082,0.4297204315662384,-0.18473847210407257,-0.10422275960445404,-1.265599250793457,1.9224004745483398,0.4156116247177124,-0.1067497506737709,-0.8310831189155579,0.9178596138954163,1.568426251411438,0.7918915152549744,0.15933677554130554,-3.4996302127838135,1.339152455329895,-0.6290203928947449,-1.700035810470581,0.09009332954883575,1.1206270456314087,-0.2451215237379074,-1.4210737943649292,0.48606109619140625,0.08290572464466095,1.2569987773895264,-0.5002497434616089,-0.9657321572303772,1.1993943452835083,-0.17358848452568054,0.3496689796447754,-2.323056221008301,2.040480136871338,-0.027504432946443558,0.10772111266851425,-0.05538629740476608,1.0902297496795654,1.933148980140686,0.7079405188560486,-0.09885402768850327,-3.7261569499969482,1.940787672996521,-1.1195436716079712,-1.2121081352233887,-0.3335331976413727,0.283815860748291,-0.10948724299669266,-1.837246060371399,0.5632796883583069,0.09708932042121887,0.9312781095504761,-0.46266987919807434,-0.6876674890518188,0.22206969559192657,0.011303190141916275,0.6632105708122253,-1.9629348516464233,2.845064878463745,-0.32770809531211853,-0.010957707650959492,-0.9401950240135193,0.536039412021637,1.449944257736206,0.7812671065330505,0.000561111664865166,-2.990245819091797,1.2723841667175293,-1.0003790855407715,-0.8135462403297424,0.11186990141868591,0.8042616248130798,1.051499843597412,-1.4460190534591675,-0.5524404048919678,-0.13921205699443817,0.7979159355163574,-0.0412408821284771,-1.4890882968902588,0.7419176697731018,-0.04555433243513107,0.525773823261261,-0.9732062220573425,0.6433798670768738,-0.12593244016170502,-0.09038221836090088,0.3175850808620453,0.9037631154060364,0.6878659725189209,0.7314788103103638,0.10117658972740173,-2.3594248294830322,-0.7957819700241089,-1.0599027872085571,0.18203118443489075,0.07612358778715134,1.4908088445663452,0.02930978685617447,-0.3995756208896637,-0.5039255023002625,0.0311654694378376,0.3780254125595093,-0.12120341509580612,-0.8276901841163635,0.45637279748916626,-0.10853220522403717,0.38040652871131897],[1.16134512424469,-1.2190701961517334,-0.26302170753479004,-0.04343575984239578,-0.31865692138671875,0.904430627822876,0.6411609649658203,-1.0179399251937866,0.09215512871742249,-1.2587589025497437,0.7745926976203918,0.3378502428531647,-1.181197166442871,0.057401351630687714,-1.298357367515564,0.2353687286376953,-0.4870186448097229,0.0376647524535656,0.0761178731918335,-0.7337972521781921,0.5922409296035767,-0.2566283643245697,0.10842716693878174,-0.11703309416770935,-1.004580020904541,-0.5748447179794312,-2.2593724727630615,1.6537649631500244,0.16818742454051971,0.5934505462646484,-1.6990314722061157,-1.675077199935913,2.298225164413452,-0.10871104151010513,0.13872961699962616,-0.9314457178115845,-1.3894989490509033,1.3733654022216797,0.1373034566640854,0.2964614927768707,-0.5790569186210632,-1.7573472261428833,0.7182275652885437,-0.12752333283424377,0.6310450434684753,-0.7121286392211914,-1.7253479957580566,0.9838894605636597,0.09710764139890671,0.5591740012168884,0.050394341349601746,-0.18147875368595123,0.12456797063350677,0.18712575733661652,-0.6748799681663513,-0.040253136307001114,0.7150359749794006,-0.5881438255310059,0.05346507579088211,-0.7390413880348206,0.5181434154510498,-0.6379704475402832,-0.24095886945724487,-0.05094193294644356,-0.31104883551597595,0.30724838376045227,-0.5688682794570923,0.1883101910352707,-0.09310194849967957,-0.4868818521499634,0.20438359677791595,-0.7594570517539978,0.34403860569000244,0.16253964602947235,-0.2101704329252243,0.35455286502838135,0.7450817227363586,-1.6245167255401611,-0.03733241930603981,-0.4942367672920227,-0.6077343821525574,1.709601640701294,-1.576271653175354,0.06636956334114075,-0.1603286862373352,0.2862685024738312,2.667140245437622,-2.5739850997924805,-0.011009951122105122,-1.479124665260315,0.4966653883457184,2.648531198501587,-2.5665204524993896,0.08968765288591385,-1.1804379224777222,0.6394298672676086,1.083119511604309,-0.9914550185203552,0.03177276626229286,-1.4954439401626587,-0.8047327399253845,0.1764460653066635,-0.35263967514038086,-0.176235631108284,0.6288778781890869,-1.8813085556030273,0.5646560788154602,-0.6636419892311096,-0.19152209162712097,0.8440644145011902,-2.397538661956787,0.7739633917808533,0.16273832321166992,0.1156386286020279,0.7125890851020813,-2.0926291942596436,0.45719078183174133,0.02297685481607914,0.08721789717674255,0.7425395250320435,-1.3233541250228882,0.0966830775141716,0.12991999089717865,-0.16211630403995514,0.4714065194129944],[3.5332155227661133,-3.7333123683929443,-0.02593815326690674,-0.08021112531423569,0.2185295969247818,1.9171663522720337,0.5216988921165466,-1.3463023900985718,-0.05453162267804146,-0.9543514847755432,-1.411830186843872,1.792085886001587,-0.0169599037617445,0.04836328700184822,-0.05034322664141655,-2.646141290664673,-0.257506787776947,1.72854745388031,0.11371801048517227,1.5924170017242432,-2.8804845809936523,-1.4020828008651733,2.232285976409912,0.03497966751456261,2.148022174835205,3.309567928314209,0.5226945877075195,-1.804970622062683,-0.0982983186841011,-1.5749868154525757,2.65944504737854,1.0017786026000977,-2.0047380924224854,-0.0646083727478981,-1.595844030380249,1.7171434164047241,2.2702932357788086,-1.9564744234085083,-0.10234826803207397,-1.5945829153060913,-3.1912484169006348,-0.026112094521522522,1.5342665910720825,0.19388246536254883,1.7850838899612427,-2.2840499877929688,-1.5856428146362305,1.9588819742202759,-0.030276671051979065,1.8628284931182861,4.252866268157959,-0.5751378536224365,-1.6002024412155151,0.10350785404443741,-1.5141726732254028,3.065882444381714,0.5098007917404175,-1.642109751701355,-0.22183579206466675,-1.7401362657546997,1.913745641708374,1.0089819431304932,-1.587654948234558,-0.05396095663309097,-1.3928616046905518,-1.256653070449829,0.6610276699066162,-0.0923139899969101,-0.019777147099375725,0.914438784122467,-2.839503288269043,-2.1586520671844482,3.007997989654541,-0.10114575922489166,1.9508779048919678,4.881018161773682,-1.3627734184265137,-1.4618327617645264,0.03675377741456032,-1.7145391702651978,3.4063446521759033,0.34115204215049744,-1.508462905883789,-0.055612049996852875,-1.746397852897644,1.33082115650177,1.7455912828445435,-1.4242911338806152,0.1671622395515442,-1.4612802267074585,-0.9363943934440613,5.057027339935303,-2.004163980484009,0.03193500265479088,-1.7754923105239868,-3.4337780475616455,-2.1503283977508545,2.7744081020355225,-0.018688764423131943,3.2116711139678955,6.154629707336426,-2.940396547317505,-1.6622036695480347,0.17950618267059326,-0.9711591005325317,2.9601218700408936,-1.357602596282959,-0.8774136900901794,0.14441756904125214,-0.6557930111885071,0.8186994194984436,0.8606996536254883,-0.37014833092689514,-0.1775522381067276,-0.8015997409820557,-1.9620866775512695,3.8709864616394043,-0.7420491576194763,-0.07356993854045868,-1.3120204210281372,-2.7855660915374756,-2.321131706237793,2.3063981533050537,0.09387040138244629,2.780311107635498],[-1.7609375715255737,-1.2165988683700562,1.1758289337158203,0.017673233523964882,1.581339955329895,0.92010897397995,0.24273858964443207,-0.4176289737224579,-0.040705155581235886,-0.7990979552268982,1.6079425811767578,-0.0035590454936027527,-0.9238777756690979,0.06065718084573746,-0.8515311479568481,1.9496736526489258,-0.31219613552093506,-1.5879371166229248,0.0642041489481926,-0.90862637758255,4.654255390167236,-3.599630355834961,-1.0876363515853882,0.0941644012928009,-0.09236094355583191,-1.6448696851730347,-1.3168431520462036,1.4830069541931152,-0.012945303693413734,1.219003438949585,-3.193734884262085,1.6314151287078857,1.0386618375778198,0.009284096769988537,0.5089033842086792,-1.3747148513793945,1.9052752256393433,-0.6357789635658264,-0.1218927875161171,-0.2502749264240265,1.1746896505355835,0.3596011996269226,-1.1737017631530762,-0.17647632956504822,-0.9453820586204529,3.65503191947937,-2.272294521331787,-0.9231708645820618,0.11700012534856796,-0.8533270955085754,-1.3976656198501587,-1.918426513671875,1.4537057876586914,0.006689346395432949,1.6949390172958374,-2.566089630126953,-0.616588294506073,1.4853746891021729,0.13411295413970947,1.433093786239624,-2.7942848205566406,2.693887948989868,0.023993270471692085,0.23029915988445282,0.013324565254151821,0.5818426012992859,1.0368887186050415,-1.3229647874832153,0.16028393805027008,-0.8878328800201416,2.764446258544922,-2.275521755218506,0.0879364013671875,0.17908136546611786,-0.892679750919342,-0.3825400471687317,-2.3951668739318848,0.9749656915664673,0.15335649251937866,1.7843979597091675,0.045507412403821945,-2.136448383331299,0.9317514300346375,-0.04813041165471077,1.2663981914520264,-1.0164326429367065,-1.280484914779663,0.4976523518562317,-0.15840213000774384,1.2627607583999634,0.8319180607795715,2.032496690750122,-2.123579978942871,-0.16286879777908325,-1.0853092670440674,3.7018957138061523,-4.431161403656006,-0.02844288945198059,0.2373506873846054,0.36566776037216187,-1.2321690320968628,5.298529148101807,-1.9430756568908691,-0.0003837516123894602,-2.2073538303375244,-1.3840545415878296,4.63336706161499,-1.741895318031311,0.11082237958908081,-1.8066396713256836,-1.4422938823699951,3.5902278423309326,-0.6967104077339172,0.09341181069612503,-1.7375507354736328,-0.6132904887199402,1.6417428255081177,-0.020843446254730225,0.11599128693342209,-0.9234516620635986,3.202742099761963,-1.3977725505828857,-1.280945897102356,0.010830646380782127,-0.7284411191940308],[-2.3308045864105225,1.8745955228805542,-0.30209577083587646,-0.023007584735751152,0.07686614990234375,-2.017911911010742,1.6043667793273926,0.43370360136032104,0.12726649641990662,-0.3823912441730499,-1.244389295578003,1.4031888246536255,-0.20838798582553864,0.058153290301561356,-0.06583207100629807,-0.45785126090049744,1.139560580253601,-1.2336266040802002,-0.16541601717472076,0.04293924942612648,3.406923294067383,-2.1268081665039062,-0.8541463017463684,-0.0728246197104454,-1.2150520086288452,-1.9791605472564697,0.17995505034923553,0.42434749007225037,0.1836395561695099,0.46723124384880066,-3.086662530899048,0.3078126311302185,1.9487699270248413,-0.12384964525699615,0.3427715599536896,-2.021454095840454,2.0390236377716064,-0.21839116513729095,-0.10683181881904602,0.08737001568078995,-0.6179375648498535,-0.3035601079463959,0.5777150988578796,-0.16449910402297974,-0.03770706430077553,3.034240245819092,-3.62469482421875,0.48868507146835327,0.18692131340503693,-0.20045550167560577,-1.144085168838501,0.40435147285461426,0.043129850178956985,-0.15451225638389587,0.5262465476989746,-2.269221544265747,0.30031251907348633,1.5631505250930786,-0.03267310932278633,-0.3967471718788147,-0.8962056636810303,1.3130614757537842,-0.18808573484420776,-0.027176380157470703,-0.8008546829223633,1.3710590600967407,-1.6758742332458496,-0.5913002490997314,0.007613522466272116,0.10208239406347275,3.3017849922180176,-4.333566188812256,1.1604961156845093,0.026142312213778496,-0.8644855618476868,-1.0074106454849243,0.3030477464199066,0.25620511174201965,-0.06470266729593277,-0.36969566345214844,-0.7833985686302185,-0.7874155044555664,0.5986695289611816,-0.08047434687614441,0.4563700556755066,-3.3442013263702393,2.53263521194458,0.5275084972381592,0.1916910707950592,-0.03755064308643341,1.2214151620864868,2.7720441818237305,-3.173058271408081,0.013354304246604443,-1.3094274997711182,4.1050825119018555,-5.210341453552246,0.603306233882904,-0.05658038705587387,0.06261353939771652,-2.0992202758789062,1.699177622795105,0.06147186830639839,-0.12543311715126038,0.3543976843357086,-1.5470234155654907,0.18353399634361267,0.7137798070907593,0.08539193868637085,0.3274940550327301,-3.0833468437194824,1.1057394742965698,0.8755252361297607,-0.15229924023151398,0.36755403876304626,-0.27821457386016846,1.9172526597976685,-1.8624258041381836,-0.18021950125694275,-0.2531595230102539,4.1491169929504395,-3.695394277572632,-0.25680938363075256,0.06795432418584824,-0.5550488829612732],[-1.2529395818710327,-0.2564781606197357,0.7853752374649048,0.021554622799158096,0.5113853812217712,-0.7522541880607605,-1.313173770904541,1.6156526803970337,0.17500458657741547,0.2527702748775482,-0.15475842356681824,-0.5373666882514954,-0.12311316281557083,0.12997092306613922,0.8765387535095215,-0.9435524940490723,-0.47958824038505554,0.621891438961029,0.1642652004957199,0.6395208239555359,-1.8631995916366577,0.9688215851783752,1.0271737575531006,-0.03901761397719383,-0.5392652750015259,-0.7996312975883484,0.9718285799026489,0.07277414202690125,0.013846694491803646,-0.46145856380462646,-0.5517591834068298,1.9583735466003418,-0.5041409134864807,-0.14311812818050385,-1.1102076768875122,1.4730663299560547,0.16198213398456573,-0.38667893409729004,-0.09145364165306091,-1.1184313297271729,-0.5920299887657166,2.525245189666748,1.0807163715362549,0.1831461638212204,-2.6896934509277344,-1.185552716255188,2.0958261489868164,0.5472392439842224,-0.05421653762459755,-1.3186733722686768,0.9858940839767456,0.5610154271125793,-1.2416481971740723,0.05376068130135536,-0.11923152208328247,0.8440521955490112,0.9598340392112732,-1.7140717506408691,-0.12245579808950424,-0.5090183615684509,0.7230788469314575,-0.8492906093597412,-0.16682246327400208,0.04711628332734108,0.4992624521255493,2.1465651988983154,0.5506973266601562,-2.3507089614868164,-0.19176006317138672,-0.3713332414627075,0.16936452686786652,1.074082374572754,-1.122450590133667,0.017499884590506554,-0.19361712038516998,1.3936305046081543,-0.23074722290039062,-1.0305012464523315,0.15254062414169312,-0.0732557624578476,1.2569087743759155,-0.659308671951294,-0.8902897834777832,-0.07749741524457932,0.0010660783154889941,0.06411168724298477,-1.655117154121399,0.3625611662864685,-0.07785549014806747,0.9545191526412964,2.130424976348877,-2.7446792125701904,-0.8549858927726746,0.19196224212646484,1.5059680938720703,0.8733242154121399,1.4398592710494995,-1.6740399599075317,0.011394010856747627,-0.7964501976966858,1.9949042797088623,-1.696367621421814,-0.05111200734972954,0.05898674577474594,-0.08976810425519943,0.6989632248878479,-1.0100510120391846,-0.3342840373516083,0.1870664358139038,0.6471877098083496,0.6162127256393433,-0.7721188068389893,0.4344208240509033,0.18576741218566895,-0.029912080615758896,0.688778281211853,-1.5557773113250732,0.8793295621871948,0.13999877870082855,0.5245587229728699,1.3154797554016113,-0.7151376008987427,0.13867869973182678,0.17063909769058228,-0.4763467609882355],[-0.4199772775173187,-0.00632129330188036,1.123376488685608,0.04523957893252373,-0.6125767230987549,-1.0798617601394653,-1.156185507774353,1.3722165822982788,0.09441015124320984,0.5638386011123657,-1.3221203088760376,1.4201675653457642,0.1506785750389099,0.19762274622917175,-0.5680983662605286,-1.3374555110931396,1.610551357269287,-0.15832547843456268,0.1637718677520752,-0.7143709659576416,-1.0283572673797607,1.302976369857788,-0.26756685972213745,-0.05855952948331833,-0.09943675249814987,0.8071097731590271,-1.5485659837722778,1.1244158744812012,-0.12006449699401855,-0.7743370532989502,-0.4080631732940674,-1.734435796737671,1.7937103509902954,-0.14653854072093964,-0.11040356010198593,-1.0677019357681274,1.1292638778686523,-0.2748715579509735,0.13397668302059174,-0.45748093724250793,-0.019492363557219505,1.0307711362838745,-0.23114699125289917,0.015675107017159462,-1.0277276039123535,0.09660732001066208,0.6060044765472412,-0.32208332419395447,0.15862426161766052,-0.3756416141986847,-0.003573815803974867,-0.02382672391831875,1.0330363512039185,-0.08304710686206818,-1.7151635885238647,-1.3371362686157227,-0.4018196165561676,3.3650691509246826,-0.014691519550979137,-1.5101090669631958,-1.3276463747024536,1.6484700441360474,-0.2675548195838928,-0.05578867718577385,-0.47591155767440796,-0.7536098957061768,1.7343999147415161,-0.6492337584495544,-0.06545127928256989,-0.5808772444725037,-0.687519907951355,0.03366157039999962,0.38369685411453247,-0.18798568844795227,0.17838752269744873,0.8741830587387085,-1.0156124830245972,1.3260546922683716,0.1825958639383316,-1.0533820390701294,-0.1558234691619873,-2.140273332595825,2.0616118907928467,-0.11511103063821793,-0.23191715776920319,-0.5069929957389832,-1.2564698457717896,1.223060965538025,-0.07590719312429428,0.13193538784980774,-1.019819736480713,1.6425114870071411,-0.2784639596939087,0.27365171909332275,-0.789703905582428,-0.288481742143631,-0.5756076574325562,0.6154981851577759,-0.1667463481426239,0.15856066346168518,1.2196629047393799,-2.1367993354797363,0.615272581577301,-0.09176596254110336,-0.1668645739555359,0.18840551376342773,-1.5280779600143433,0.8472524285316467,0.09463746845722198,0.3935398459434509,-0.1979377120733261,-0.28904837369918823,0.3878723680973053,-0.20650629699230194,-0.34186360239982605,-0.8062945604324341,1.5009679794311523,0.1356336921453476,0.15886333584785461,-1.0403084754943848,-0.25389233231544495,0.1763426661491394,-0.08320693671703339,0.07588377594947815,-0.18813563883304596],[-1.1218339204788208,0.4960227608680725,-0.049619801342487335,0.08710987865924835,0.5734034180641174,1.0915449857711792,-0.33306342363357544,-0.3788391053676605,0.038236480206251144,-0.658574640750885,2.848599433898926,0.9017558693885803,-2.169973134994507,-0.14967699348926544,-1.8203868865966797,0.015801027417182922,-1.9997559785842896,0.749949038028717,0.13727375864982605,1.0075894594192505,2.4423317909240723,-0.8923243880271912,-0.6262144446372986,-0.018284901976585388,-1.3772186040878296,-1.7500890493392944,-0.08523447811603546,1.0875866413116455,0.19096067547798157,0.6975082159042358,-1.9688472747802734,2.321258068084717,0.3288576006889343,-0.1718476414680481,-0.8386054039001465,1.9306178092956543,1.3221851587295532,-1.7132841348648071,0.16920848190784454,-2.074896812438965,-1.4537687301635742,-1.611508846282959,1.8063384294509888,0.12317246198654175,1.0022493600845337,-0.1291612684726715,2.681013345718384,-1.8020024299621582,-0.001596971182152629,-1.1106404066085815,-1.2431447505950928,-1.423284649848938,1.407662272453308,-0.17622248828411102,0.8646324872970581,1.2350233793258667,-1.6848458051681519,-0.02990284189581871,-0.13858824968338013,0.13005559146404266,2.4810025691986084,1.7849918603897095,-2.6298811435699463,0.0886935368180275,-1.7657936811447144,-0.08496996015310287,-1.859093189239502,0.8626344203948975,0.03665328770875931,1.2456064224243164,3.1167964935302734,-2.5232977867126465,-0.41296496987342834,0.12662741541862488,-0.48762190341949463,-2.4455628395080566,0.2850854992866516,1.0084905624389648,0.05087793990969658,0.31470638513565063,-2.804624319076538,3.1213390827178955,-0.36001893877983093,-0.05710364505648613,-0.5841716527938843,0.38991641998291016,1.7820565700531006,-1.1992892026901245,-0.017006317153573036,-1.3467015027999878,-1.4741488695144653,-1.0581711530685425,1.1441951990127563,-0.1777486801147461,0.8931099772453308,-0.9179478287696838,3.0425097942352295,-1.5800045728683472,-0.16683852672576904,-0.9632537961006165,-1.0384869575500488,-0.09156045317649841,-0.13400860130786896,-0.17708492279052734,0.8351581692695618,0.8510836958885193,-0.6047747135162354,-0.4312977194786072,0.06643790751695633,-0.056639254093170166,2.630405902862549,-1.5721354484558105,-0.6747642755508423,0.056856412440538406,-0.8474197387695312,-0.4538470208644867,-2.0306622982025146,0.6653590202331543,0.07402260601520538,1.3378630876541138,2.5150699615478516,-1.274878740310669,-0.21952533721923828,0.054965123534202576,-1.3227384090423584],[-1.357566237449646,1.5538276433944702,0.16365613043308258,-0.031018853187561035,1.134385108947754,-0.3914620876312256,1.0766205787658691,-0.5628249049186707,0.02168651483952999,0.6509144902229309,-0.46307873725891113,0.2519829273223877,0.9029034376144409,-0.07528964430093765,-0.03019797056913376,-0.03368862718343735,1.0840188264846802,0.33772581815719604,0.1537422388792038,-0.527737021446228,0.5415855646133423,-0.7221341729164124,0.15855589509010315,0.07702124118804932,0.47862324118614197,-1.4410300254821777,0.7722336649894714,1.122659683227539,0.008920982480049133,0.3806229531764984,-1.4807956218719482,0.3201809525489807,0.6742987036705017,-0.06094237044453621,0.9477053880691528,-0.998295247554779,-0.171157568693161,0.49624642729759216,-0.04312664642930031,1.394858956336975,0.20379230380058289,0.04785824567079544,-0.29662105441093445,-0.08578849583864212,0.8962287902832031,0.7956600189208984,-0.9218700528144836,-0.3954586088657379,-0.0554112009704113,1.1314411163330078,-1.108652114868164,0.7531514763832092,0.5913349986076355,0.10128067433834076,0.8375791311264038,-0.12115143984556198,0.030334366485476494,0.9338394999504089,-0.07388242334127426,0.21974708139896393,-0.2166699469089508,0.14773085713386536,0.13568498194217682,-0.1802157610654831,0.33092448115348816,0.47004032135009766,0.17976859211921692,0.1363300085067749,0.028872063383460045,-0.05701790750026703,0.7897993326187134,-0.6598799228668213,-0.49644505977630615,-0.05482320114970207,1.0977224111557007,-0.6468454003334045,-0.4160156846046448,0.9507410526275635,0.1195347011089325,0.73924320936203,-0.46206212043762207,0.3722427785396576,1.268243670463562,-0.1768583059310913,-0.4559475779533386,-0.3362258970737457,-0.1491212099790573,0.7758386135101318,0.17858390510082245,0.23573721945285797,-0.09292272478342056,0.13808897137641907,0.2081892341375351,0.17694836854934692,0.640998899936676,1.0770539045333862,-0.5845515131950378,0.014614520594477654,-0.08202708512544632,0.4479539692401886,0.2530776560306549,0.32175010442733765,0.0545891635119915,-0.15083041787147522,-0.0662807822227478,0.6784877181053162,-0.26471251249313354,0.20412084460258484,-0.17132152616977692,0.11339479684829712,0.995805025100708,-0.10322150588035583,-0.11855864524841309,-0.1069611981511116,-0.16050344705581665,1.2801178693771362,-1.1406450271606445,-0.16209784150123596,-0.03409768268465996,0.5403969287872314,2.120018482208252,-0.9102314710617065,-0.1516723483800888,-0.0757351666688919,0.029277460649609566],[0.08005765080451965,-1.138466477394104,0.06308950483798981,-0.03307545930147171,-0.052405256778001785,-1.2146574258804321,-0.8287448883056641,0.5436509847640991,0.0039013053756207228,0.8583882451057434,-1.6210482120513916,0.10506027191877365,0.6777232885360718,-0.14678822457790375,0.21220888197422028,1.6909230947494507,1.3710839748382568,-1.934173345565796,0.18699881434440613,-1.2498286962509155,0.3070688545703888,-1.7337981462478638,-0.13780997693538666,0.057147540152072906,0.6050673127174377,-0.02813836559653282,-0.7347710728645325,-0.38617217540740967,-0.004738899879157543,0.33111050724983215,-1.746324062347412,-0.49937233328819275,0.7687326669692993,-0.14277081191539764,1.0084987878799438,-2.2182600498199463,0.7402158975601196,1.0159252882003784,0.0710441991686821,-0.25014054775238037,1.0599815845489502,2.978527069091797,-3.047649621963501,0.08326606452465057,-1.2345049381256104,2.358825922012329,-1.4111273288726807,-0.3917669653892517,0.03310495615005493,-1.4243682622909546,-0.2708410322666168,-0.4099864065647125,0.19946572184562683,-0.07939428091049194,0.10832381248474121,-1.832383632659912,-0.9548426270484924,1.159902811050415,-0.11637204885482788,1.578135371208191,-1.890563726425171,0.44191133975982666,0.1930895298719406,-0.2096693515777588,0.7125489115715027,1.6408864259719849,2.6706738471984863,-3.0317771434783936,0.03886714205145836,-1.7280579805374146,2.9583702087402344,-0.9253242015838623,-1.415758490562439,-0.031863871961832047,-1.3950704336166382,0.7101954221725464,-1.397896647453308,0.6425033807754517,-0.12139305472373962,0.061535757035017014,-1.682550072669983,-1.647952914237976,1.1517889499664307,-0.011766421608626842,1.4276822805404663,-2.050534725189209,0.6114431023597717,0.82143634557724,-0.06975991278886795,0.010953715071082115,1.3517849445343018,3.070382595062256,-3.4077389240264893,0.019225597381591797,-1.7418107986450195,3.522132396697998,-2.390552043914795,-1.3880417346954346,-0.19310107827186584,-0.4050864577293396,0.11704406142234802,-0.9470996856689453,-0.03645239770412445,-0.16880813241004944,0.3103114068508148,-1.3431681394577026,-1.298784613609314,0.9684029221534729,-0.14874206483364105,1.0363141298294067,-2.4244816303253174,1.2271473407745361,0.7276670336723328,-0.13147757947444916,-0.4240933656692505,0.8800005316734314,3.1768574714660645,-2.432245969772339,0.1145721897482872,-1.9943771362304688,1.720644474029541,-1.4950615167617798,-0.5059590935707092,0.03843706473708153,-0.6745135188102722],[-0.19681422412395477,2.8475117683410645,-0.9141000509262085,0.1534505933523178,-2.1579537391662598,-0.187615767121315,3.0522751808166504,0.12341650575399399,0.13971097767353058,-2.914511203765869,-0.8682124018669128,3.244514226913452,-0.055894941091537476,0.12727849185466766,-2.3848581314086914,-0.6504313945770264,2.906851053237915,0.030912745743989944,0.0349528044462204,-2.5867490768432617,-0.35407736897468567,2.713601589202881,-0.464201420545578,-0.1314047873020172,-2.0560171604156494,0.6904268860816956,-1.1173198223114014,-0.9066858291625977,0.0389404222369194,1.0753241777420044,0.9818222522735596,-0.7368954420089722,-1.2200614213943481,-0.1783086508512497,0.5963106751441956,0.4456595182418823,0.03135984018445015,-0.8697189092636108,-0.10478212684392929,0.31421875953674316,0.9620914459228516,-0.12282847613096237,-1.590472936630249,0.05434226989746094,0.2729322910308838,1.3561089038848877,-0.7080380916595459,-1.1379412412643433,-0.06666579097509384,0.7859803438186646,-0.11713936924934387,-1.0953058004379272,0.17824400961399078,0.024114137515425682,0.8488489389419556,0.5643331408500671,-1.233264684677124,-0.2103942483663559,-0.0261337012052536,0.7082663178443909,-0.7398063540458679,-1.0560803413391113,0.1960829198360443,0.000048999943828675896,1.3333581686019897,0.29548633098602295,-0.6353338360786438,-0.5488475561141968,-0.039939042180776596,0.6671192646026611,0.061912260949611664,-0.8292044401168823,0.2563335597515106,0.1444454789161682,0.9546077251434326,-0.537310779094696,-0.9757329225540161,0.24160049855709076,-0.19151288270950317,0.8564243316650391,0.15975379943847656,-0.8792885541915894,0.39407026767730713,-0.18390929698944092,0.6805418133735657,-1.1122887134552002,-0.6643677949905396,0.8954296708106995,-0.010772878304123878,0.36206522583961487,-0.7260496616363525,-0.8590403199195862,0.5388323664665222,-0.1559104472398758,0.9398358464241028,-0.36214908957481384,-1.3168857097625732,0.41212204098701477,0.2011159360408783,1.082397699356079,0.3559044897556305,-1.1512199640274048,0.20974314212799072,-0.04318217188119888,0.45265036821365356,0.6243824362754822,-0.3116031587123871,-0.14011137187480927,0.03189922869205475,-0.19280414283275604,0.30472347140312195,-0.5837303400039673,0.21676670014858246,-0.09760262072086334,-0.48384928703308105,0.1293477714061737,-0.36202871799468994,-0.20509999990463257,-0.16308316588401794,-0.03138004615902901,0.41193071007728577,-0.5634767413139343,0.24221287667751312,0.1317676454782486,0.07603148370981216],[-0.21549908816814423,0.4303213059902191,-0.10020686686038971,-0.017509950324892998,0.6429193019866943,-0.0370304249227047,1.1369024515151978,-0.2962395250797272,-0.12603916227817535,0.16801682114601135,-0.4197390079498291,1.1586456298828125,0.38562482595443726,0.11813367158174515,-0.05222190544009209,-0.2659175992012024,1.284981369972229,0.09555207937955856,0.0965256467461586,-0.16935059428215027,-0.5384759306907654,1.0070414543151855,0.4054654538631439,-0.13534726202487946,-0.07273247092962265,0.29783475399017334,-0.5482744574546814,0.2897065281867981,0.1257990449666977,0.6495082974433899,0.11435341835021973,-0.20947524905204773,0.5449944138526917,-0.16457532346248627,0.6171981692314148,-0.06965035200119019,0.24566960334777832,0.4028818607330322,-0.09934264421463013,0.216043621301651,0.1740598827600479,0.05984979867935181,0.6647043228149414,-0.011985957622528076,0.1511984020471573,-0.4801907539367676,-0.24050840735435486,1.2248154878616333,-0.12540775537490845,0.21826490759849548,0.19155707955360413,0.10191226750612259,0.01328485831618309,-0.1792902946472168,0.5533795356750488,0.0959266722202301,0.1599837839603424,0.7483437061309814,0.03487493470311165,0.023905962705612183,-0.10135312378406525,-1.2727153301239014,0.658288300037384,-0.05416327714920044,1.549351453781128,-0.005573345348238945,-0.3828910291194916,0.6290267705917358,0.16881775856018066,0.6292761564254761,-0.5084512829780579,-0.2715959846973419,0.839595377445221,-0.13761769235134125,0.5376851558685303,0.6349524855613708,-1.0661656856536865,0.04233967885375023,0.05622691661119461,1.45219886302948,0.36596500873565674,0.24896174669265747,-0.686637282371521,-0.0877513438463211,0.5916125178337097,0.648845911026001,-0.635658860206604,0.3623320162296295,-0.016975682228803635,0.585956335067749,0.18765491247177124,1.24639892578125,-0.8266910314559937,-0.01965591497719288,-0.029627567157149315,0.19288937747478485,-1.1255722045898438,0.38957318663597107,-0.04128990322351456,1.3551669120788574,0.12508061528205872,-0.2175697386264801,-0.10302241146564484,0.13266941905021667,1.0850414037704468,-0.23978185653686523,-0.2602534890174866,-0.3065274953842163,0.134147047996521,1.6796038150787354,0.8248854875564575,0.28851330280303955,-0.40881457924842834,-0.1284225881099701,0.27145320177078247,-0.01915188878774643,0.07947365194559097,-0.5068526268005371,-0.11489725112915039,1.551020622253418,0.5158459544181824,-0.8948659896850586,0.1810123771429062,-0.020810145884752274,1.1387357711791992],[-0.10199671238660812,-0.3441126346588135,0.21329441666603088,0.14474591612815857,0.016156790778040886,-0.07821936160326004,-0.8345919251441956,0.4587668180465698,-0.1292852759361267,0.15317970514297485,0.40893471240997314,-0.817068338394165,0.3020799160003662,0.0896846354007721,0.040674466639757156,-0.03761887550354004,-0.8628167510032654,0.028162693604826927,0.006734122522175312,0.05081341043114662,0.7356705665588379,-0.6675288677215576,-0.37454742193222046,-0.1092541441321373,0.08608110249042511,-0.24382713437080383,0.006574838422238827,0.21957693994045258,-0.1910281479358673,-0.3636550009250641,-0.1429339051246643,-0.48783552646636963,0.045104969292879105,0.12748360633850098,0.12745864689350128,0.1170240193605423,-0.35376906394958496,-0.10289187729358673,-0.114609494805336,0.2581218481063843,0.19360040128231049,-0.012436075136065483,-0.03494729474186897,-0.09827277064323425,-0.4748595356941223,0.3494266867637634,-0.1178080216050148,-0.8150231242179871,-0.0914468914270401,-0.05645116791129112,0.04639095067977905,-0.1567360907793045,0.13020530343055725,0.03505876287817955,-0.29027029871940613,0.7137516736984253,0.10962287336587906,-0.2671217620372772,0.13681048154830933,-0.5657964944839478,-0.4295290410518646,0.050571009516716,0.3779720664024353,-0.09514287859201431,0.06627219170331955,-0.23617126047611237,0.2604648172855377,0.26465827226638794,0.10729235410690308,-0.09614032506942749,0.4804145395755768,0.32580265402793884,-1.0280789136886597,-0.03304041549563408,-0.42503416538238525,0.037635236978530884,0.28221389651298523,-0.41691872477531433,0.024424085393548012,-0.20892123878002167,-0.5506513118743896,1.5109792947769165,0.09121758490800858,0.09224061667919159,-1.7115916013717651,-0.7236123085021973,-0.2979835569858551,1.1470803022384644,0.07874178141355515,-0.8239171504974365,-0.15033751726150513,-0.9845119118690491,0.04951555281877518,-0.019609104841947556,0.6155499219894409,0.3999477028846741,1.2487727403640747,-1.2884535789489746,-0.14378266036510468,-0.357848197221756,-0.5397371053695679,1.628536343574524,-0.18187841773033142,-0.0270573440939188,-1.4729158878326416,-0.7862518429756165,-0.02388683520257473,1.3520374298095703,-0.1702723652124405,-0.6005423665046692,-0.12787789106369019,-0.37176641821861267,0.2568229138851166,0.06157320737838745,0.12646085023880005,0.0005292010027915239,-0.7161733508110046,0.26685142517089844,-0.19777540862560272,-0.21621043980121613,-0.6034708023071289,1.2325799465179443,-0.9600161910057068,0.18551746010780334,0.11367909610271454],[0.04678928852081299,0.2706254720687866,-0.07629595696926117,-0.13070309162139893,-0.5153000950813293,-1.1336246728897095,1.7006901502609253,0.01573922112584114,-0.08634470403194427,-0.7429929971694946,-1.6087729930877686,1.459885597229004,0.1049322783946991,0.0482352152466774,0.19064374268054962,-0.5917806625366211,1.3169784545898438,-0.2258046418428421,0.15440186858177185,-0.7391917109489441,-1.011468529701233,0.7429167628288269,-0.3545016050338745,0.17394140362739563,-0.010329310782253742,-0.19364552199840546,-0.27545779943466187,0.36715173721313477,0.14455175399780273,0.010429793037474155,-1.3195297718048096,1.7378007173538208,0.14882078766822815,-0.1314571499824524,-0.7584112286567688,-0.9621891379356384,1.0361125469207764,0.2213769257068634,-0.16718505322933197,-0.22600151598453522,-1.177656888961792,0.23967787623405457,0.5105198621749878,-0.11154729872941971,0.23918908834457397,-0.23544184863567352,-0.1750713288784027,0.1806473731994629,-0.0410672165453434,0.15968233346939087,-0.0655360296368599,-0.2916097939014435,0.25652995705604553,-0.031912729144096375,-0.40129899978637695,-0.9380034804344177,1.270948052406311,0.27666136622428894,-0.024400340393185616,-1.083645224571228,-0.8839796781539917,1.293585181236267,0.26010504364967346,0.0028685135766863823,-0.9622809886932373,-0.5648720264434814,1.2495441436767578,-0.5269870758056641,0.2055535614490509,-0.2831711769104004,-0.5655207633972168,0.4799864888191223,-0.489738792181015,-0.08033273369073868,0.2730470895767212,-0.07921156287193298,-0.5091987252235413,0.5532237887382507,-0.07714200019836426,0.3405933678150177,-0.10659681260585785,-0.3717559278011322,0.5393645167350769,0.014248368330299854,-0.3786504864692688,-0.0985659509897232,0.04631557688117027,0.8628193140029907,-0.15729375183582306,-0.987905740737915,-1.2830281257629395,-0.4982476234436035,0.8712162971496582,0.19986645877361298,0.3201141953468323,-0.5787500143051147,-0.24975764751434326,0.3406323790550232,0.04332121089100838,0.16837623715400696,0.2708858847618103,-2.121272325515747,1.498902678489685,0.13125033676624298,0.08043558150529861,0.8612743616104126,-2.42985200881958,2.2944891452789307,0.1248660609126091,-0.8606099486351013,0.01305235642939806,-1.8841030597686768,2.3396458625793457,0.12079672515392303,-0.3315640389919281,0.7480612397193909,-1.2032179832458496,1.4418244361877441,0.03396086022257805,-1.6426283121109009,1.0482386350631714,-2.4238460063934326,1.634924292564392,-0.016241405159235,-0.45954763889312744],[2.219926357269287,-1.9107637405395508,-0.039338309317827225,0.09837615489959717,-0.7307650446891785,2.3705296516418457,-3.09502911567688,0.23551256954669952,0.0444604866206646,-0.25803542137145996,2.7119853496551514,-3.322899103164673,0.6668605804443359,0.06422531604766846,-0.4111517071723938,2.4084620475769043,-2.2337725162506104,-0.5145161747932434,-0.03825214132666588,-0.3269244432449341,1.222681999206543,-0.7356069087982178,-0.3028208911418915,-0.104082852602005,-0.7234848737716675,0.20847120881080627,1.088493824005127,-0.37330949306488037,0.15282942354679108,-1.2401102781295776,1.139568567276001,1.772100806236267,-1.7688994407653809,-0.027299920096993446,-1.4973537921905518,2.208375930786133,0.7027367949485779,-1.8462456464767456,0.065390445291996,-1.449156641960144,-0.10729802399873734,2.045468807220459,-1.2547856569290161,0.021139051765203476,-1.0559160709381104,-1.8019520044326782,2.4963810443878174,-0.673923909664154,0.014687332324683666,-0.6023176908493042,-1.6323058605194092,-1.47883939743042,1.4836368560791016,0.18342070281505585,1.2584267854690552,-2.450798273086548,-0.45518946647644043,1.137818694114685,0.16202202439308167,1.2276897430419922,-1.9410308599472046,0.04683713614940643,1.5962488651275635,-0.11656828969717026,0.42923879623413086,-2.6087093353271484,-0.8952911496162415,2.4075913429260254,-0.010938410647213459,0.9690782427787781,-2.406825542449951,-0.8638916015625,1.033185601234436,0.06569912284612656,1.5436440706253052,1.0621031522750854,-0.9215739965438843,-0.7555654048919678,-0.18690504133701324,0.7106749415397644,-0.719078779220581,0.27653050422668457,-1.1935324668884277,0.08158498257398605,1.5168803930282593,-0.6876267194747925,-1.320913314819336,0.2988586127758026,0.04975076764822006,1.248736023902893,0.7461764812469482,-1.5386159420013428,-0.4854320287704468,-0.19620180130004883,1.258226752281189,-0.8362447023391724,-0.03268127515912056,-0.6448041796684265,0.13292460143566132,1.1030292510986328,-1.4783974885940552,2.165616512298584,-0.2454138547182083,0.07587682455778122,-0.7384145855903625,-1.9102369546890259,2.288822650909424,0.03757866844534874,0.0011780731147155166,-0.8943241834640503,-0.4944045841693878,0.8034941554069519,-0.22786732017993927,-0.08640582114458084,-0.5442662835121155,-1.023512363433838,1.0315368175506592,0.11411081999540329,-0.07423784583806992,-0.5157697200775146,-2.6205708980560303,3.5768167972564697,-0.8548729419708252,0.16164681315422058,-0.8529877066612244],[3.5764384269714355,-2.7721450328826904,-0.8673228621482849,0.15389800071716309,-0.5707396268844604,1.9121520519256592,-1.3656601905822754,-0.9822473526000977,0.1853029578924179,-0.28411614894866943,0.40493839979171753,0.3927057087421417,-0.39433446526527405,0.06769188493490219,-0.8486166596412659,0.5590126514434814,0.03879749774932861,-0.49877992272377014,-0.06560070812702179,-0.786430835723877,-0.5458930134773254,-0.37454599142074585,0.26202213764190674,0.12842020392417908,0.07036682218313217,2.3790977001190186,-3.262185573577881,0.01591341756284237,-0.19583338499069214,-0.2415182739496231,0.31543806195259094,-2.0292742252349854,0.11825361847877502,-0.0478576123714447,0.7193540930747986,-1.1688653230667114,0.7390585541725159,0.15743304789066315,-0.13148066401481628,-0.22639812529087067,-1.8598734140396118,-1.4413222074508667,1.537693977355957,0.13801319897174835,0.934918224811554,-1.062754511833191,-0.13059887290000916,0.7178098559379578,-0.01703854650259018,-0.1959550827741623,1.932325839996338,-2.2024219036102295,0.3993159234523773,0.033770374953746796,-0.45271486043930054,-0.5416588187217712,-0.4913179576396942,-0.03765608370304108,-0.06826042383909225,0.6483495235443115,-1.4858561754226685,1.4883003234863281,0.005417488981038332,-0.0743636041879654,-0.2860678434371948,-1.1718846559524536,0.8169082403182983,-0.1397847831249237,-0.0733933076262474,0.07949180901050568,-1.3220316171646118,0.4152800738811493,0.13980598747730255,-0.13768742978572845,0.6083031296730042,0.590217649936676,-1.9559128284454346,0.6034947633743286,0.09580999612808228,0.19750086963176727,-0.840531587600708,1.0638937950134277,-0.38654467463493347,0.09109725058078766,-0.5737051367759705,-2.125291585922241,1.0797864198684692,1.0938938856124878,-0.10925634205341339,-0.3286077678203583,-1.3859477043151855,0.93632972240448,0.07270573079586029,-0.011436864733695984,0.06084471568465233,-2.127760171890259,0.7986125946044922,0.35879653692245483,-0.033364441245794296,0.3593926429748535,1.0021238327026367,0.33573606610298157,-0.6912655830383301,-0.1760932207107544,-0.655390739440918,-2.045271873474121,1.665450096130371,0.18581120669841766,-0.0008754465961828828,0.11493287235498428,-2.2269155979156494,0.9872588515281677,1.1782265901565552,-0.0016635872889310122,-0.3060031831264496,-2.112943649291992,2.6769227981567383,-0.5018251538276672,0.05506514757871628,-0.3907771110534668,-3.194765329360962,1.6859573125839233,0.47214779257774353,-0.04322043061256409,0.7034801840782166],[0.6338425874710083,0.9060486555099487,-0.4612617492675781,0.09034117311239243,-1.5492987632751465,-0.2550838589668274,0.748410165309906,0.21511374413967133,-0.1826431304216385,-1.2078872919082642,-0.26849767565727234,0.4945541024208069,0.5160232782363892,0.1036067083477974,-1.1309783458709717,-0.2503390610218048,1.031026005744934,-0.3713549077510834,0.10616368800401688,-0.6354732513427734,-0.8344979286193848,0.41662487387657166,-0.42580968141555786,-0.030782010406255722,0.35765090584754944,0.5309631824493408,-0.8576561808586121,-0.044799160212278366,-0.14854055643081665,0.06696096807718277,0.43117403984069824,-0.28562459349632263,0.26301300525665283,-0.15235164761543274,-0.7666674256324768,-0.8869124054908752,0.9729454517364502,1.0613566637039185,0.013507983647286892,-1.47294020652771,-0.4934038817882538,-0.4271939694881439,0.892913818359375,-0.041181739419698715,-0.6855846643447876,-0.07224184274673462,0.12115981429815292,-0.17615553736686707,-0.14410409331321716,-0.7771780490875244,0.2285730391740799,-0.6097350716590881,0.1419934779405594,0.06430540233850479,-0.11911604553461075,-0.13331986963748932,-0.32474803924560547,-0.2386440634727478,0.062143657356500626,0.10091803222894669,-0.5878065824508667,0.14431805908679962,0.783236026763916,-0.14857836067676544,-0.5618883967399597,-0.9416206479072571,0.5068910121917725,0.4175565242767334,0.13872380554676056,-0.6876693367958069,-0.216197207570076,-0.336785227060318,0.3366009593009949,0.113848976790905,-0.45083242654800415,-0.1646399348974228,-0.49045225977897644,-0.3088860809803009,0.07977956533432007,0.43579480051994324,-0.07426677644252777,-0.8257523775100708,-0.3063947260379791,0.16091591119766235,0.7310256361961365,-0.6592183113098145,-0.47354856133461,0.42259934544563293,0.015355411916971207,0.4029359817504883,-0.7995280027389526,0.1612282395362854,0.29769250750541687,0.14570371806621552,0.10218282788991928,-0.48072344064712524,-0.3474617302417755,0.23133845627307892,0.11219925433397293,0.17529822885990143,0.16773247718811035,-0.5587671399116516,-0.18208590149879456,0.003860772354528308,0.3813091218471527,0.397085964679718,-0.17876918613910675,-0.3935997486114502,-0.17696352303028107,-0.06258774548768997,-0.037372056394815445,-0.19589544832706451,0.10648202151060104,0.14231258630752563,0.019410770386457443,-0.404507040977478,-0.2719472050666809,0.27668267488479614,0.13836339116096497,0.06203626096248627,-0.27455201745033264,0.3935553729534149,-0.02305046282708645,0.010952313430607319,-0.1157548800110817],[4.866054058074951,-0.8082468509674072,-1.7369420528411865,0.0783865824341774,-2.186034917831421,5.367642879486084,-2.1916983127593994,-1.2268987894058228,-0.01884029060602188,-1.712916612625122,5.38975191116333,-3.27457594871521,-1.5017578601837158,-0.13953131437301636,-1.0133417844772339,5.0392746925354,-2.467791795730591,-1.1199026107788086,-0.039761945605278015,-1.8389110565185547,6.036125659942627,-2.6236517429351807,-1.5728187561035156,0.15569736063480377,-1.7438536882400513,3.954702854156494,-2.4470152854919434,-0.8890764713287354,-0.07264881581068039,-0.8660423159599304,2.5821588039398193,-1.6626412868499756,-0.17217837274074554,-0.11274702847003937,-0.9497981667518616,3.130444288253784,-1.4037359952926636,-0.9593294262886047,-0.07434587925672531,-1.0187432765960693,3.3442094326019287,-0.9523515105247498,-0.5910399556159973,0.1393090784549713,-1.7795488834381104,3.475546360015869,-2.1552906036376953,-0.6199705004692078,-0.07946985214948654,-1.1439136266708374,-0.7506541013717651,1.6105308532714844,-0.551320493221283,0.05453617870807648,-0.8306228518486023,-0.08140997588634491,1.837404489517212,-1.3245984315872192,0.015185467898845673,-0.8131639361381531,-0.8400810956954956,2.2850496768951416,-0.8643484711647034,0.1634332239627838,-1.1909606456756592,-0.3781164586544037,2.056962728500366,-0.9130668640136719,0.1139049381017685,-0.7923978567123413,-0.7493672370910645,2.0066745281219482,-0.7596852779388428,-0.0008704961510375142,-0.7952990531921387,-3.551347017288208,5.634828090667725,-1.569222092628479,-0.1011495292186737,-1.171209692955017,-4.012053966522217,6.054097652435303,-0.8877918720245361,0.017980029806494713,-1.2933555841445923,-4.4683990478515625,6.833122730255127,-1.1596983671188354,0.1420356184244156,-1.3535701036453247,-0.4277225732803345,-4.322872638702393,2.100794553756714,0.13218918442726135,2.7244083881378174,-4.139112949371338,6.2377471923828125,-1.3974790573120117,0.15137971937656403,-1.0227943658828735,-4.578262805938721,-1.131272315979004,2.315734386444092,0.0016520873177796602,3.2044332027435303,-4.984635353088379,-1.9520705938339233,3.1943225860595703,0.12983806431293488,3.5295498371124268,-4.523042678833008,-2.121006727218628,3.0113003253936768,-0.16460245847702026,3.608032703399658,-3.2720344066619873,-3.565321922302246,3.0930540561676025,-0.008256121538579464,3.2438700199127197,-3.908997058868408,-2.7895452976226807,3.0610294342041016,0.149629145860672,3.142263889312744],[-0.8545573949813843,0.9995498657226562,-0.42213723063468933,-0.06755556911230087,-0.23847508430480957,-1.1537656784057617,1.5169399976730347,-1.0817033052444458,-0.06690742820501328,0.3763847351074219,0.42998528480529785,-0.33160078525543213,-0.43064042925834656,0.16116325557231903,0.069725900888443,-0.09394584596157074,0.0314609669148922,-0.028261860832571983,-0.008420119993388653,0.020115789026021957,-0.4721694886684418,-0.3439795970916748,0.20200714468955994,0.006051011849194765,0.6526561379432678,-0.2276320606470108,0.5647357702255249,-0.22910438477993011,-0.07418441027402878,-0.6216552257537842,-1.763213038444519,2.6827986240386963,-1.1156699657440186,0.08695469796657562,-0.138821542263031,1.24420964717865,-0.8256950974464417,-1.1423122882843018,-0.045490141957998276,0.22844573855400085,0.44485780596733093,-0.44768083095550537,-0.33181077241897583,0.17402870953083038,-0.039846498519182205,0.0625547394156456,0.12793214619159698,-0.26380982995033264,0.08889324963092804,-0.0015451653162017465,-0.8295127153396606,0.514336884021759,0.18065068125724792,-0.18823574483394623,-0.34673628211021423,-0.8517237901687622,1.6632276773452759,0.004932619631290436,-0.08796365559101105,-1.096362590789795,0.9526277780532837,-0.23730780184268951,-1.006528377532959,-0.013099011965095997,0.022721869871020317,0.5416143536567688,-0.3841201364994049,-0.02963070757687092,-0.11736628413200378,-0.4880259931087494,0.30972322821617126,-1.0977588891983032,0.5439061522483826,-0.014480304904282093,0.5011166930198669,-0.6828845143318176,-2.5500235557556152,2.0552592277526855,0.05562841519713402,1.007925033569336,-1.8550406694412231,-1.7369717359542847,3.2863569259643555,-0.13700151443481445,-0.2171635627746582,-0.3287637233734131,-1.444222331047058,0.6687964200973511,-0.012547621503472328,0.6292573809623718,0.9194509387016296,-2.134260892868042,0.9010736346244812,0.09178324043750763,0.31054815649986267,0.6157659292221069,-0.9520940184593201,-0.017330901697278023,-0.08105431497097015,0.171992689371109,1.2590802907943726,0.9882600903511047,-0.8843011260032654,-0.22623102366924286,-1.1931966543197632,1.5432095527648926,2.182086706161499,-2.10178804397583,0.038194891065359116,-1.8043397665023804,2.141162872314453,1.3598213195800781,-2.374741792678833,-0.1167876124382019,-1.1798067092895508,1.1997203826904297,-0.41291743516921997,-0.4462442398071289,0.018325991928577423,-0.9540160894393921,-0.03715712949633598,-0.9270089268684387,1.0049819946289062,0.03130241483449936,0.17782576382160187],[-0.40262869000434875,-0.2256590873003006,0.13312463462352753,0.1861838698387146,0.07324084639549255,-0.05361473187804222,-0.6251429915428162,0.5465810894966125,-0.02190905250608921,0.05594855174422264,0.22054678201675415,-0.3536396920681,0.261422723531723,-0.1906328648328781,-0.7876718044281006,0.9437570571899414,-0.4357735216617584,0.6462334394454956,-0.09771345555782318,-1.5475622415542603,0.6743978261947632,-0.8421223163604736,0.4037890136241913,0.08526574820280075,-0.5938251614570618,-0.6107094883918762,0.8697059154510498,0.1615922749042511,-0.19462436437606812,-0.7705131769180298,0.15465354919433594,-0.10955175012350082,0.05635956674814224,-0.038682904094457626,-0.504033088684082,0.0524231493473053,-0.09672753512859344,0.9253513813018799,-0.07537391781806946,-0.7607734203338623,0.0532100535929203,-0.2783581018447876,1.0623528957366943,0.11574316769838333,-1.3890950679779053,0.3121371567249298,-0.3203469514846802,0.49435532093048096,0.0943780168890953,-1.1289807558059692,-0.361850768327713,0.6500285267829895,0.028897801414132118,-0.17738796770572662,-0.6872712969779968,-0.030051639303565025,-0.10387669503688812,0.016922513023018837,-0.11786317825317383,-0.05368775129318237,-0.38375771045684814,0.15305592119693756,-0.05596986785531044,0.13255105912685394,0.09073793888092041,-0.2363431304693222,0.07804186642169952,-0.1922072172164917,0.17338165640830994,-0.25678521394729614,-0.10728340595960617,-0.221865713596344,0.3753836452960968,-0.07958662509918213,-0.207319974899292,-0.5581778287887573,0.3983915448188782,-0.27680379152297974,-0.0999235063791275,-0.3342858850955963,-0.42698484659194946,0.18774813413619995,-0.21214176714420319,-0.01217262540012598,-0.15776698291301727,-0.25551527738571167,0.1535896211862564,0.02999226190149784,0.19913828372955322,-0.27487310767173767,0.08619150519371033,-0.983256995677948,0.535210132598877,0.14191636443138123,0.1226818710565567,0.05003240332007408,0.2904825210571289,-0.04099860042333603,0.181003600358963,-0.6864818930625916,-0.5836145281791687,1.2461743354797363,-0.1160786971449852,0.13889038562774658,-0.9538226127624512,-0.5134825706481934,0.44731295108795166,0.5407193303108215,-0.014206677675247192,-0.7591280937194824,-0.2570398151874542,0.07328257709741592,-0.472758024930954,0.11638275533914566,0.04916241019964218,0.3211420774459839,-0.1689625084400177,0.1582382172346115,0.0722898319363594,-1.0029250383377075,0.008965840563178062,0.26696285605430603,0.0736779272556305,0.18931564688682556,-0.8079655766487122],[-1.9392502307891846,0.4815146028995514,0.17994624376296997,-0.16910238564014435,0.49966540932655334,-0.16223113238811493,2.1655149459838867,-1.7547523975372314,-0.14859844744205475,-1.0856359004974365,-1.102617859840393,0.2662419378757477,0.04149565473198891,0.014784622937440872,0.32146841287612915,1.837395191192627,-1.335466980934143,-0.6370657682418823,-0.19849230349063873,-0.9663552045822144,3.680530071258545,-3.552731513977051,-0.16315163671970367,0.19895105063915253,-0.9040763974189758,-2.728506326675415,-0.10086689889431,1.310667634010315,-0.0600164420902729,0.9245684146881104,0.18605028092861176,2.7503883838653564,-2.341857671737671,-0.015062176622450352,-1.0007338523864746,-1.4901583194732666,-0.8912508487701416,0.10981197655200958,0.032818034291267395,1.6375880241394043,0.8167197704315186,-0.9196919202804565,-0.8119703531265259,0.09824535995721817,-0.040165793150663376,2.8349742889404297,-2.7977097034454346,0.6144264340400696,-0.02663726545870304,-1.7429331541061401,-2.853764295578003,-0.30243948101997375,0.6464539766311646,-0.021650580689311028,1.6772537231445312,-0.5378961563110352,2.8025903701782227,-1.7552824020385742,-0.10157126188278198,-1.2438457012176514,-1.5146726369857788,-0.715915858745575,0.30503007769584656,0.0032836184836924076,1.2515102624893188,-0.9185753464698792,-0.7815044522285461,0.2099025696516037,0.06932905316352844,0.823005199432373,1.5654431581497192,-1.2162829637527466,-0.33051586151123047,0.19045983254909515,-0.9117505550384521,-3.0218448638916016,0.8432069420814514,0.5777450799942017,-0.11158668249845505,0.8481570482254028,-0.9009554982185364,2.984624147415161,-1.3765816688537598,0.17473918199539185,-1.6319397687911987,-1.3277273178100586,-0.05092288926243782,-0.10167793929576874,0.06388021260499954,0.5750555396080017,-0.9996947050094604,-1.7231557369232178,1.5029677152633667,-0.07683583348989487,0.0357510931789875,1.4612514972686768,0.16751839220523834,-0.9380241632461548,-0.08501444011926651,-1.341535210609436,-2.518324613571167,0.3347816467285156,0.33569657802581787,-0.07905604690313339,0.916205108165741,-1.186033844947815,2.267801284790039,-0.7869462966918945,0.10951553285121918,-1.3132736682891846,-1.8131403923034668,0.6581289172172546,-0.16990236937999725,-0.1775580197572708,0.5591423511505127,-1.3857237100601196,-1.4610244035720825,1.0054463148117065,-0.09035385400056839,1.1261693239212036,2.0074305534362793,-0.7996909618377686,-0.5280217528343201,-0.00010735449177445844,-1.3798398971557617],[0.5652981996536255,-0.1630057543516159,-1.105237364768982,-0.1568440943956375,0.8062965273857117,2.12300968170166,-3.0136165618896484,0.5918405055999756,-0.15950363874435425,0.762609601020813,2.513765335083008,-2.1768810749053955,-0.35978084802627563,-0.07878726720809937,0.014395625330507755,0.30118414759635925,-2.0361199378967285,1.2362818717956543,0.06957922130823135,0.7809498906135559,1.4083764553070068,-1.8777903318405151,0.9919686317443848,0.14152956008911133,-0.09954842180013657,0.05384218692779541,0.11619338393211365,-1.1576846837997437,0.04110369458794594,0.9109282493591309,2.1088171005249023,-0.13898992538452148,-1.7593061923980713,-0.04466858506202698,0.5090226531028748,2.0301406383514404,-1.1358511447906494,-0.9705796837806702,0.13605479896068573,0.07812951505184174,0.8120796084403992,-2.2418265342712402,-0.1288214921951294,-0.04987793043255806,1.8716868162155151,-0.05451444163918495,-0.9161499738693237,1.4198200702667236,-0.0015437726397067308,0.08828509598970413,-1.4149420261383057,2.4645211696624756,1.2163870334625244,-0.01960873231291771,-2.271698236465454,0.039613235741853714,1.9478245973587036,1.0253268480300903,0.142717182636261,-2.937361001968384,0.1759517639875412,0.7305540442466736,2.2990756034851074,-0.0641978457570076,-2.9591238498687744,1.2795413732528687,0.8214425444602966,-1.8441574573516846,-0.06687291711568832,-0.17270039021968842,-0.2767395079135895,-1.0478390455245972,0.4784679114818573,-0.04745488986372948,1.512681007385254,-1.4153200387954712,1.3797880411148071,0.4429197609424591,0.15667890012264252,-0.3332582414150238,0.3900807797908783,1.2282878160476685,-0.5247394442558289,0.17979474365711212,-1.0276463031768799,0.49160778522491455,1.5017271041870117,1.105676531791687,0.17578716576099396,-2.6609628200531006,0.985538899898529,-0.8127762675285339,0.9326927065849304,0.10177701711654663,-0.970230758190155,-0.6990678906440735,-0.8026164770126343,-0.21602292358875275,-0.2143518626689911,2.1643919944763184,-2.5299112796783447,1.4217686653137207,1.0014480352401733,0.1906389594078064,0.364621102809906,-2.1274313926696777,1.6228177547454834,0.5878207087516785,-0.05056392028927803,0.2198071926832199,-0.6487109661102295,0.8069359660148621,0.6289806962013245,-0.1900320053100586,-0.6014689803123474,-0.40621134638786316,0.1676255315542221,1.2490363121032715,0.0012891076039522886,-0.9792988300323486,-0.7596346735954285,1.6529858112335205,-0.2333524227142334,0.12531843781471252,-0.3713671863079071],[1.4278727769851685,2.6693060398101807,-2.262131452560425,0.08551088720560074,-2.6100826263427734,1.629976749420166,3.3172740936279297,-3.0087006092071533,0.180732861161232,-2.9636247158050537,1.750052809715271,3.8768444061279297,-3.7051126956939697,0.11507629603147507,-2.656689167022705,1.4330275058746338,3.9001896381378174,-3.178584337234497,0.08520117402076721,-2.628139019012451,1.5116071701049805,3.4600396156311035,-2.9175283908843994,-0.05401499941945076,-2.5221292972564697,-1.432090401649475,-3.2319283485412598,2.4076642990112305,0.11679524928331375,1.6313778162002563,-2.7152786254882812,-2.87589168548584,2.95562744140625,0.19399359822273254,2.233818292617798,-2.0101940631866455,-2.7621307373046875,2.0821192264556885,0.14088492095470428,1.8095449209213257,-3.1699090003967285,-2.731410503387451,3.169326066970825,0.08296597003936768,2.1309256553649902,-1.7728978395462036,-3.310774087905884,2.835780620574951,0.16191647946834564,2.1526429653167725,-1.6631603240966797,-0.3259521424770355,0.604924738407135,-0.05429215729236603,0.6412879824638367,-1.5969648361206055,-0.3250387907028198,0.4012495279312134,0.05989965423941612,0.9809322953224182,-1.4045804738998413,0.626528799533844,-0.4166644811630249,-0.05365617573261261,0.9111246466636658,-1.823704481124878,0.3229627013206482,-0.18001806735992432,0.16795486211776733,1.0573880672454834,-1.469698190689087,-0.08927043527364731,0.5686984062194824,0.125017911195755,0.3226686418056488,0.41764211654663086,-2.9146523475646973,1.7614563703536987,-0.06734030693769455,0.26696184277534485,-0.8676292896270752,-3.1038780212402344,1.6842021942138672,0.25623393058776855,1.5050971508026123,-1.3475995063781738,-2.8609087467193604,1.5348622798919678,0.17001160979270935,1.7338188886642456,-1.3914024829864502,-2.417647361755371,2.4246487617492676,-0.052879538387060165,1.247771978378296,-0.8897418975830078,-3.0712203979492188,1.2979406118392944,0.2513446807861328,2.414716958999634,2.393566846847534,1.6313632726669312,-2.1535491943359375,0.14412140846252441,-2.5721898078918457,2.132805585861206,2.3054862022399902,-3.3814480304718018,-0.07565836608409882,-1.8285319805145264,1.4469932317733765,3.0208685398101807,-2.3410871028900146,-0.10478641837835312,-2.476968288421631,2.083493709564209,2.6657187938690186,-3.21651029586792,-0.07732594758272171,-2.3083832263946533,2.0944769382476807,2.0379104614257812,-2.4285566806793213,0.14932265877723694,-2.0290279388427734],[0.03453931584954262,-0.7257097363471985,0.15289241075515747,0.012983931228518486,-0.014995294623076916,0.0012393456418067217,0.3928205370903015,-0.46628886461257935,-0.0485788956284523,-0.2574646472930908,0.6738426089286804,-0.2358923852443695,-0.11320507526397705,-0.07732276618480682,-0.9510019421577454,-0.48092174530029297,1.5005556344985962,-1.1152245998382568,-0.02471693605184555,-0.5955194234848022,0.43351104855537415,0.5505103468894958,-0.628830075263977,-0.10889255255460739,-0.904800295829773,0.15853464603424072,-1.1568992137908936,0.04483340308070183,0.19570539891719818,0.18181046843528748,-0.3281751573085785,-1.0489977598190308,0.09190493822097778,-0.1590568870306015,0.8133497834205627,-0.3491165339946747,-0.6081969141960144,-0.3760415315628052,-0.11518530547618866,0.7050801515579224,-1.6997754573822021,0.9277033805847168,0.39442867040634155,-0.040002889931201935,-0.000907032866962254,-1.1187005043029785,0.2016197293996811,0.6418934464454651,0.12161748856306076,-0.0912008062005043,-0.41367676854133606,-1.0358840227127075,0.08558820933103561,-0.15134704113006592,1.0185433626174927,0.6561310291290283,-1.0894863605499268,-0.36339959502220154,0.007833054289221764,0.14939510822296143,0.11203639954328537,0.8745953440666199,-0.18095411360263824,0.05122043192386627,-1.1705373525619507,-0.2737991213798523,-0.022136755287647247,1.2226266860961914,-0.04967271164059639,-1.2073867321014404,0.3048427700996399,-0.4248487949371338,-0.4345639944076538,0.08536811918020248,0.390945702791214,1.6593811511993408,-1.0991551876068115,-0.4823848307132721,-0.1740020364522934,-0.34946128726005554,1.175423502922058,-0.2053469866514206,-1.0929088592529297,-0.03841866925358772,-0.12321020662784576,-0.4346361458301544,-0.5469443798065186,1.0582895278930664,0.017249897122383118,-0.7945484519004822,-0.4406450688838959,3.1405744552612305,-0.2732004225254059,-0.12484077364206314,-2.5957658290863037,0.4462747275829315,0.08706915378570557,0.05701323598623276,0.20123709738254547,-1.0261491537094116,-0.02325652353465557,-0.9576174020767212,-0.034040048718452454,0.05325848236680031,0.4987228512763977,-0.3868170380592346,-0.857996940612793,-0.4483118951320648,-0.14909480512142181,1.1832700967788696,-0.43869614601135254,1.3029807806015015,-0.7046961188316345,-0.017272844910621643,-0.5116580724716187,-2.412355661392212,0.5088320374488831,-0.48855945467948914,0.11393532156944275,2.136821985244751,-1.5912820100784302,0.2548230290412903,-0.1635265052318573,-0.05931323766708374,0.5089969038963318],[-2.958763360977173,3.92965030670166,-0.08145512640476227,-0.05847562476992607,-1.651455283164978,-1.6252292394638062,1.3483784198760986,0.815034031867981,-0.09843739122152328,-0.9060677289962769,-0.5570391416549683,0.9998239874839783,1.5650824308395386,-0.11771903187036514,-2.0951342582702637,-0.7294403910636902,1.8344613313674927,-0.09492218494415283,0.1800653487443924,-1.2436035871505737,0.4986216425895691,1.5395212173461914,-1.695458173751831,-0.06301393359899521,-0.5029944181442261,-1.8884588479995728,1.8134950399398804,1.5518254041671753,0.1640329509973526,-1.9955259561538696,0.5200600028038025,0.17804081737995148,0.9175403714179993,-0.1511700600385666,-1.5441714525222778,0.20255184173583984,0.2992408871650696,-0.8017473220825195,-0.10750937461853027,-0.21315816044807434,1.0045677423477173,-1.0142943859100342,-1.208776593208313,-0.08609698712825775,0.8413404226303101,0.8525591492652893,-0.9479141235351562,-1.4508886337280273,-0.04652668163180351,1.3155227899551392,-0.5880820751190186,1.3164703845977783,0.3588630259037018,-0.028380844742059708,-1.184213399887085,0.6560957431793213,0.11952082812786102,-1.3289159536361694,0.03368468955159187,-0.20896397531032562,0.3232367932796478,-0.19236938655376434,-0.4726882576942444,0.2800624966621399,-0.005867168307304382,0.6478866934776306,-0.701448917388916,-1.3815072774887085,0.200735405087471,1.2525415420532227,0.7233328223228455,-1.7116519212722778,0.021777436137199402,0.031462427228689194,0.6725607514381409,-0.06603056937456131,1.727502703666687,-1.314484715461731,0.07449133694171906,-0.5336690545082092,0.8822290301322937,-1.372070550918579,-0.8927772641181946,-0.09400112926959991,0.6888951063156128,0.5942474007606506,-1.1533700227737427,-0.36720073223114014,0.15738335251808167,0.747945249080658,0.6148030757904053,-1.4918222427368164,0.2420104295015335,0.17255322635173798,0.1754344254732132,0.9029524326324463,-1.2142800092697144,-0.04460647329688072,0.17734657227993011,-0.004575756378471851,-0.3293188214302063,1.4012432098388672,-0.9906147718429565,0.25336238741874695,-0.4345688819885254,1.701757550239563,-2.125035285949707,-0.15179403126239777,-0.09410799294710159,0.2351144701242447,0.8016321063041687,-1.6856549978256226,0.46902257204055786,-0.03144702687859535,0.5596197247505188,1.4337546825408936,-0.7885441184043884,-0.004488268401473761,0.09603535383939743,-0.877320408821106,2.4355223178863525,-2.323357343673706,0.037835732102394104,-0.12948913872241974,-0.8148666024208069],[0.5208285450935364,-1.2378435134887695,0.44792166352272034,0.1708255559206009,0.21964427828788757,0.8395561575889587,-1.6032425165176392,0.10328972339630127,0.048609089106321335,0.4384346902370453,1.8500040769577026,-1.6385855674743652,-0.04786314442753792,0.06575857102870941,-0.294901579618454,1.3132364749908447,-0.2110477089881897,-0.9342983961105347,-0.136559396982193,0.14572440087795258,-1.227280616760254,2.200127124786377,0.03579545021057129,-0.1375006139278412,-0.9227220416069031,1.1205567121505737,-1.387234091758728,0.7652714848518372,-0.03397144377231598,-0.7566609382629395,1.808185338973999,-2.0729191303253174,-0.05222759768366814,-0.15252679586410522,0.09505531191825867,1.829329013824463,-1.348446249961853,-0.28886678814888,0.02193312719464302,-0.0050577763468027115,-0.25201165676116943,0.01846509426832199,0.027545172721147537,-0.025094764307141304,0.07812442630529404,-2.2837026119232178,2.095048189163208,0.8442420363426208,-0.10604657977819443,-0.8495286703109741,0.8087148070335388,-1.9946918487548828,1.1779108047485352,0.05926254391670227,0.39154842495918274,2.2413933277130127,-2.664933204650879,0.24137833714485168,0.022325370460748672,0.18502886593341827,2.043680191040039,-2.291083812713623,0.5170194506645203,-0.017017513513565063,-0.0017308290116488934,0.543476939201355,0.2561646103858948,-0.3470034599304199,-0.23904944956302643,-0.300882488489151,-1.7530484199523926,2.237004041671753,0.07782910019159317,0.018558181822299957,-0.8906074166297913,1.7456161975860596,-2.1302073001861572,0.12114374339580536,0.12254059314727783,0.32229846715927124,2.6344194412231445,-2.220128297805786,-0.3501719534397125,0.09570035338401794,0.4654488265514374,2.0297389030456543,0.29396533966064453,-1.9036555290222168,0.0068860724568367004,-0.5322215557098389,-0.5091895461082458,2.5150277614593506,-1.1940110921859741,0.12831680476665497,-0.6205978393554688,-3.0050783157348633,3.0205225944519043,0.2327827513217926,0.037784475833177567,-0.2334965467453003,1.9061120748519897,-1.5707677602767944,-0.5038233399391174,-0.11486554145812988,-0.06334694474935532,1.2811933755874634,0.5217568278312683,-1.220445156097412,-0.15288275480270386,-0.4065224528312683,-0.46911242604255676,2.0662097930908203,-1.231689453125,-0.10126805305480957,-0.7196974754333496,-2.137968063354492,3.049229383468628,0.14950375258922577,-0.05768199265003204,-1.3213056325912476,-4.405261039733887,4.246932506561279,0.561235249042511,0.11091174185276031,-0.7569758296012878],[-0.6751673817634583,0.749170184135437,-0.41023877263069153,0.07805480808019638,0.12160017341375351,-0.9728918075561523,0.5830639004707336,-0.14224374294281006,-0.05125690624117851,0.44966134428977966,-1.0187304019927979,0.12704242765903473,0.2508833706378937,-0.140945702791214,-0.04485899209976196,-0.8866137266159058,1.4882475137710571,-0.5106689929962158,0.08928435295820236,-0.35598617792129517,-2.529029369354248,2.544675827026367,0.4237215518951416,0.07155078649520874,-0.49028563499450684,-1.3002831935882568,-2.577178716659546,1.5090761184692383,-0.009458217769861221,2.0163753032684326,-0.8191116452217102,-2.764033079147339,1.5703078508377075,0.19967634975910187,1.6467721462249756,-1.091130018234253,-2.826051950454712,1.5166370868682861,-0.03774889558553696,1.6265209913253784,-1.294543743133545,-2.5370848178863525,1.3717334270477295,-0.12667827308177948,1.7020220756530762,-1.80892813205719,0.15271450579166412,0.6844091415405273,0.012432585470378399,0.6176329851150513,-3.499239683151245,1.4148173332214355,1.1762644052505493,-0.044177573174238205,0.8083665370941162,-4.010047435760498,1.729745864868164,1.7527503967285156,-0.19858810305595398,-0.17395298182964325,-4.057829856872559,2.557154417037964,0.8590772151947021,0.04033071547746658,0.5808497667312622,-2.496481418609619,1.3016995191574097,1.1244032382965088,0.0495908260345459,-0.07871829718351364,-3.5752174854278564,2.208390235900879,0.31252521276474,0.1702958196401596,0.3161926865577698,1.5416227579116821,3.647339344024658,-2.8475818634033203,-0.18357089161872864,-2.8682987689971924,1.8023074865341187,3.1469192504882812,-3.2423934936523438,0.0251906905323267,-1.8265267610549927,1.3966060876846313,3.4756622314453125,-3.270454168319702,-0.10015588253736496,-2.1503820419311523,2.823706865310669,1.7492530345916748,-3.308481216430664,-0.005038275849074125,-1.700695276260376,0.9298232197761536,3.949571132659912,-2.8518733978271484,-0.1510602980852127,-2.327906608581543,4.469022274017334,-4.214578151702881,-0.4090162217617035,0.10786442458629608,-0.09619194269180298,3.893156051635742,-3.693847894668579,-0.39429032802581787,-0.04552784562110901,-0.3200554847717285,3.6577508449554443,-4.080186367034912,0.08923476934432983,-0.09245621412992477,0.14598892629146576,4.992192268371582,-4.7478718757629395,0.03410322219133377,-0.0495426207780838,-0.7548167705535889,3.3873724937438965,-3.6364762783050537,-0.49147340655326843,-0.04342331737279892,0.19053024053573608],[-0.814994215965271,1.3325393199920654,0.5217319130897522,0.04336697235703468,-1.0830885171890259,1.058677077293396,-0.5586949586868286,-0.35306212306022644,0.15965647995471954,0.08270324021577835,1.6151083707809448,-1.0835955142974854,-0.4022282660007477,0.17408832907676697,-0.0779634341597557,0.3309025466442108,-1.007980227470398,0.41431137919425964,0.15667423605918884,0.021680712699890137,0.4468507468700409,-0.6870483160018921,0.059196386486291885,0.06667628139257431,0.03169728070497513,-1.8600739240646362,2.3061649799346924,0.9458062052726746,-0.14261078834533691,-1.3589130640029907,1.2811322212219238,0.45081648230552673,-1.6914488077163696,0.13184887170791626,0.3727175295352936,1.529790997505188,-1.2771331071853638,-0.563983142375946,-0.014858242124319077,0.3275777995586395,0.5980159044265747,-1.0435431003570557,0.07562969624996185,-0.14177300035953522,0.4359228014945984,0.23113353550434113,-0.7009968161582947,0.3919655680656433,0.09160178154706955,0.5849217176437378,-2.333439826965332,1.9263883829116821,1.2603962421417236,-0.1704411655664444,-0.8988220691680908,1.3959184885025024,0.1836584061384201,-1.1141560077667236,-0.09033297002315521,-0.24772585928440094,1.2345199584960938,-0.39854127168655396,-1.1768112182617188,0.35470476746559143,0.7264159321784973,0.5600308775901794,-1.0570197105407715,-0.168288916349411,0.04751497507095337,0.5827445387840271,1.1103835105895996,-1.3888996839523315,0.31598684191703796,-0.07753068208694458,-0.03333873674273491,-1.7318525314331055,0.7528011202812195,0.97688889503479,0.11522550880908966,0.09372586011886597,0.6848494410514832,0.9845209717750549,-0.7233268022537231,0.2071133404970169,-0.7198490500450134,0.7066452503204346,0.5109788179397583,-1.5719128847122192,-0.043504200875759125,0.34256285429000854,0.9729958176612854,-1.1420787572860718,-0.2854791581630707,0.09348902106285095,0.7225605845451355,0.23780250549316406,0.15625852346420288,-0.4262804388999939,0.2920977771282196,0.44826388359069824,-2.114427328109741,0.2719298303127289,1.8116074800491333,0.12376745045185089,-0.25250566005706787,-1.0616670846939087,0.7624717950820923,1.3761104345321655,0.04960618168115616,-1.492281198501587,0.31031709909439087,0.934554398059845,-0.008048474788665771,0.1492714136838913,-0.924204409122467,-0.005849839188158512,-0.0003773727221414447,-0.14941488206386566,-0.09525012969970703,1.002505898475647,-0.4673849642276764,0.274448961019516,-0.15503665804862976,-0.11082129180431366,0.36482107639312744],[-0.5979118943214417,1.396590232849121,-0.6894685626029968,-0.050845351070165634,-0.46414515376091003,-2.0058560371398926,1.3073617219924927,0.6341420412063599,-0.14432311058044434,-0.6197418570518494,-0.6725225448608398,1.5356111526489258,-1.106981873512268,0.12336000800132751,-0.21571625769138336,-1.9052884578704834,2.3941075801849365,-0.5844795107841492,0.1446785181760788,-0.4615388512611389,-0.8831573724746704,2.8869869709014893,-0.701543927192688,0.03288436308503151,-1.616549015045166,2.7448315620422363,-1.8749562501907349,-1.0488722324371338,-0.07297038286924362,-0.48804619908332825,-0.36334457993507385,1.930619239807129,-1.0054845809936523,-0.046479180455207825,-0.9386301040649414,2.35299015045166,-0.08799661695957184,-1.1339662075042725,-0.1575096696615219,-1.8039358854293823,0.35629206895828247,-0.027366872876882553,0.4869190752506256,-0.18215255439281464,-1.0627429485321045,1.4519639015197754,-1.277867078781128,-0.051533449441194534,-0.06696660816669464,-0.03004237823188305,0.5862622261047363,-3.2952423095703125,1.120897650718689,0.04576119780540466,0.8157073259353638,-2.273411989212036,-1.1159465312957764,2.514634370803833,0.048831384629011154,0.5657724738121033,0.6018704175949097,-2.9024829864501953,1.975097894668579,0.07209742069244385,0.0639716386795044,-0.5482749938964844,-1.00315260887146,0.37858161330223083,-0.011432415805757046,0.6835141777992249,0.31624722480773926,-2.090243101119995,1.1160848140716553,0.15580202639102936,0.40233114361763,0.9956924319267273,-0.9219101071357727,-0.568747878074646,-0.06376520544290543,0.3879963755607605,-0.49154531955718994,2.1187448501586914,-1.3024623394012451,0.10941371321678162,-0.7480174899101257,1.0151658058166504,0.3829430639743805,-0.738227367401123,-0.02913660556077957,-0.966291069984436,0.4799042344093323,-0.5418378114700317,-1.2837817668914795,-0.036542970687150955,0.6860872507095337,-0.2023717612028122,1.3387103080749512,-0.4942701756954193,-0.08176872879266739,-1.2028204202651978,0.032200589776039124,-0.7443214654922485,0.17358402907848358,-0.17740494012832642,0.04035796597599983,-1.1175956726074219,0.5792465209960938,-0.45528551936149597,-0.1197466179728508,0.06112198904156685,-0.44780081510543823,-0.9110537767410278,0.266573429107666,0.19112780690193176,0.5805492401123047,0.12091857194900513,-0.44991403818130493,-0.504006564617157,0.11506985127925873,0.5393323302268982,-0.23312683403491974,0.5818849205970764,-0.9743825197219849,-0.13237521052360535,-0.11928192526102066],[-0.8952814340591431,0.34487074613571167,0.6406712532043457,0.025044528767466545,0.8554046154022217,-2.5412757396698,0.7570541501045227,1.6875633001327515,-0.18578411638736725,1.1991149187088013,-2.0888912677764893,0.6104540228843689,0.8917273879051208,0.12440753728151321,1.4187721014022827,-2.794398307800293,1.0943408012390137,1.3439427614212036,-0.17296528816223145,1.1359648704528809,-3.738894462585449,2.8998756408691406,1.8280593156814575,-0.19851154088974,0.1957855224609375,0.78748619556427,0.5119812488555908,-0.08796602487564087,0.026747295632958412,-0.13615694642066956,0.4607163667678833,0.6689690947532654,0.12123517692089081,0.04506188631057739,-0.30538126826286316,0.23952367901802063,0.26562196016311646,0.82676100730896,-0.09881443530321121,0.29506349563598633,-0.8016033172607422,0.2642146646976471,0.9701165556907654,0.13997262716293335,0.8987619280815125,